Generation: 1
0.5021796 0.4895475 -0.088984 0.0698686 
0.3271586 0.4265188 0.2890820 0.2762749 
-0.513542 0.1612492 0.3857498 0.1363371 

0.3870898 0.0033803 0.5021898 0.1005921 
0.3479427 0.5476666 0.2928142 0.1743744 
-0.460524 -0.252769 -0.524607 0.0570400 
0.0259620 0.0951464 -0.230575 -0.292964 

0.3870898 0.0033803 0.5021898 0.1005921 
0.3479427 0.5476666 0.2928142 0.1743744 
-0.460524 -0.252769 -0.524607 0.0570400 
0.0259620 0.0951464 -0.230575 -0.292964 
----------------------------------------------
-0.214206 -0.389041 -0.554186 -0.482893 
0.1065653 -0.421044 -0.527517 -0.430760 
-0.463058 -0.023242 0.3463529 0.0104912 

0.2719640 -0.348158 0.0920481 -0.383793 
-0.521904 0.4196841 0.3801231 -0.446907 
0.1944531 -0.554361 0.2158790 0.2510650 
0.2145047 0.5401363 0.3454618 0.2095759 

0.2719640 -0.348158 0.0920481 -0.383793 
-0.521904 0.4196841 0.3801231 -0.446907 
0.1944531 -0.554361 0.2158790 0.2510650 
0.2145047 0.5401363 0.3454618 0.2095759 
----------------------------------------------
Generation: 2
0.5574900 -0.213082 -0.264085 0.1591685 
-0.217856 -0.496284 0.2916803 0.3470317 
-0.298981 -0.274982 -0.294090 0.5585028 

-0.148079 -0.399047 -0.006825 0.1356161 
-0.315413 -0.490263 -0.189216 0.3277557 
-0.476179 -0.280407 0.0537225 -0.130581 
-0.116532 -0.141508 0.2300790 0.2336647 

-0.148079 -0.399047 -0.006825 0.1356161 
-0.315413 -0.490263 -0.189216 0.3277557 
-0.476179 -0.280407 0.0537225 -0.130581 
-0.116532 -0.141508 0.2300790 0.2336647 
----------------------------------------------
-0.245582 0.3034700 -0.088048 0.2171210 
-0.110171 -0.500404 -0.003362 0.5753233 
0.1915880 -0.045059 0.2388662 -0.411513 

-0.382399 0.0046468 -0.278041 0.4646089 
0.2824894 0.3657923 0.3612677 0.4838448 
-0.561807 -0.116143 -0.013899 -0.537893 
-0.405471 -0.324228 -0.296477 -0.273241 

-0.382399 0.0046468 -0.278041 0.4646089 
0.2824894 0.3657923 0.3612677 0.4838448 
-0.561807 -0.116143 -0.013899 -0.537893 
-0.405471 -0.324228 -0.296477 -0.273241 
----------------------------------------------
