Generation: 1
-0.416130 -0.243192 0.0175828 -0.010673 
-0.256655 0.3886284 -0.018983 0.4530857 
-0.358695 0.1160580 -0.371084 -0.446615 

0.2489405 0.2892482 -0.277580 -0.125444 
-0.237078 0.3752344 -0.507168 -0.007526 
0.2374284 0.1029993 0.2479781 0.3974819 
0.5601252 0.5345462 0.1178161 -0.512065 

-0.524904 -0.155721 -0.138927 0.4685792 
0.1840616 -0.456251 -0.376771 0.3966700 
0.2665876 -0.512178 0.2362473 -0.217323 
0.4640935 -0.416897 0.2489003 -0.294486 

0.4731410 -0.553097 0.5157680 0.2273707 0.4746899 
-0.125739 -0.124193 0.1551031 0.4345244 0.3375185 
0.5770873 -0.088183 0.1070985 -0.473352 0.3039971 

-0.194080 0.4414542 -0.263118 
-0.532081 -0.410230 0.1249987 
0.3446906 -0.276869 0.0181926 
0.0282551 -0.396719 -0.143289 
0.0226826 0.4335734 -0.072909 

-0.468170 -0.478683 -0.315237 0.5579942 
0.3301423 -0.380581 -0.500418 0.2922601 
0.5045769 0.2187977 0.5527169 0.2934972 

0.4858700 -0.196301 -0.221476 -0.259906 
0.2792806 0.2082249 -0.121236 -0.158373 
0.3105642 0.3608151 0.1561272 -0.553726 
0.4002003 0.4520488 0.1782606 0.3211103 

0.2749185 -0.071483 -0.156126 -0.544868 
0.3245474 0.4082298 0.2919804 0.0845597 
0.3033568 0.5648961 -0.006557 -0.436741 
0.0330155 0.2701879 0.0153505 -0.103862 

0.3143633 0.0377260 -0.140254 0.0230089 0.5007953 
-0.034082 -0.210825 0.3356832 -0.322321 -0.180383 
0.5165089 -0.203383 -0.199505 0.5303230 0.0680291 

0.0761431 -0.492280 -0.081305 
0.0799494 0.2868392 0.1284048 
0.5665188 -0.404705 0.1372201 
0.1618629 -0.005167 0.5153008 
0.4887633 -0.258547 -0.236287 

Generation: 2
0.2627033 -0.030670 -0.278747 -0.351155 
0.1075836 0.0373604 -0.238327 0.2605215 
0.5027812 0.2462156 -0.350997 -0.072562 

0.5519970 0.2837531 0.5713223 0.0980584 
0.3940571 -0.317730 0.1895578 0.4543518 
-0.575445 -0.078276 0.5352551 -0.071938 
-0.416822 -0.549445 0.4934157 0.1797574 

-0.428238 -0.464206 0.2030666 0.1718558 
0.2603291 0.2782686 0.2208868 0.2390944 
-0.393647 0.5248011 0.3396645 -0.180986 
0.2079033 0.0448390 -0.282218 -0.547071 

-0.549044 -0.343194 0.0758894 0.4892510 0.5153165 
0.0703395 0.1599684 -0.417122 0.0840897 0.1890319 
-0.431853 0.5080844 0.2266533 -0.482173 -0.149802 

0.3560715 0.5306184 -0.272306 
-0.495968 -0.283355 0.0188588 
0.1094856 0.0320549 -0.004739 
-0.381038 0.2150111 -0.407442 
0.3001495 -0.497888 -0.319965 

-0.277643 0.3125870 -0.387547 -0.486246 
0.1262101 -0.543120 -0.465128 -0.409036 
-0.455868 0.3170816 -0.115604 -0.008883 

-0.054400 -0.402712 0.0804677 0.4407506 
0.0719071 -0.157320 0.0735476 -0.218664 
0.0471983 -0.311591 0.0954248 -0.392380 
-0.114339 -0.260927 -0.247743 -0.325820 

-0.133965 -0.371912 0.2430920 0.0704364 
-0.529029 -0.243329 0.4512080 0.4143659 
0.4754374 -0.288234 -0.300772 0.3989964 
-0.375616 0.1582079 0.4116603 0.0127900 

-0.012996 -0.128710 0.5747980 0.3546139 0.4778561 
0.2687358 -0.558579 0.4364329 -0.332754 0.5030439 
0.3194718 -0.306891 0.5461633 -0.289373 -0.248972 

0.3795562 -0.144294 0.3930377 
-0.150886 0.5623758 0.0422047 
0.2062150 -0.551619 0.0186289 
0.4226787 -0.118806 -0.539037 
0.2964513 0.2857252 -0.545184 

Generation: 3
0.3079289 0.3418663 -0.113608 -0.408554 
0.0294647 0.4102039 1.7919905 0.5593709 
0.5691538 0.4318575 -0.207177 -0.256880 

0.3342475 -0.471664 0.0505116 -0.231265 
0.2252563 0.0843086 0.0506217 0.2388280 
-0.285738 -0.311591 0.0954248 0.0324272 
-0.450543 0.0263662 -0.484971 -0.140738 

-0.563020 0.1716921 0.2079278 0.2963233 
0.0680400 0.2165589 -0.444762 0.1214837 
0.3405576 0.2355297 -0.497662 0.4740443 
0.0337764 0.5162251 -0.476790 0.5610408 

-0.347459 0.5282452 0.5282388 -0.222160 0.3364236 
0.4477249 0.0848700 -0.219265 0.4237737 0.4288356 
0.2798205 0.3758028 0.0436781 -0.079971 0.1493161 

-0.084536 0.4147933 -0.249130 
0.2462583 0.5689062 -0.337514 
0.0840704 -0.021540 -0.309717 
-0.287893 0.4024989 0.0711564 
-0.291369 0.1919687 0.1787865 

-0.202122 -0.507882 0.4042773 -0.170150 
0.0840947 -0.041258 -0.382189 0.4817287 
0.1133855 -0.042244 -0.496918 0.4252833 

-0.311347 -0.389421 -0.494512 -0.483415 
-0.194441 -0.152177 -0.344373 0.2762488 
-0.011051 -0.060760 -0.015896 -0.295516 
0.4364380 -0.401374 -0.106157 -0.310394 

-0.561923 0.0694168 0.5383322 -0.229778 
0.3435394 0.3778861 0.2704210 0.0341751 
-0.048111 0.1960052 0.1682154 -0.475872 
0.3292903 0.1826299 -0.543794 -0.506746 

0.4986043 -0.552708 0.3053479 0.5097360 -0.425193 
-0.237440 0.5728178 -0.369157 -0.015461 -0.439230 
0.3536061 0.4771037 -0.336737 -0.103513 -0.072912 

0.1073737 -0.201778 0.5099944 
0.3258827 -0.301000 -0.470012 
-0.294944 -0.349565 0.4392597 
-0.403788 -0.333413 -0.143099 
-0.248930 -0.479703 0.4260097 

Generation: 4
-0.277643 0.3125870 -0.387547 -0.486246 
0.1262101 -0.543120 -0.465128 -0.409036 
-0.455868 0.3170816 -0.115604 -0.008883 

-0.054400 -0.402712 0.0804677 0.4407506 
0.0719071 -0.157320 -0.344373 0.2762488 
-0.011051 -0.060760 -0.015896 -0.295516 
0.4364380 -0.401374 -0.106157 -0.310394 

-0.561923 -0.371912 0.2430920 0.0704364 
-0.529029 -0.243329 0.4512080 0.4143659 
0.4754374 -0.452251 -0.300772 0.3989964 
-0.375616 0.1582079 0.4116603 0.0127900 

-0.012996 -0.128710 0.5747980 0.3546139 0.4778561 
0.2687358 -0.558579 0.4364329 -0.332754 0.5030439 
0.3194718 -0.306891 0.5461633 -0.289373 -0.248972 

0.3795562 -0.144294 0.3930377 
-0.150886 0.5623758 0.0422047 
0.2062150 -0.551619 0.0186289 
0.4226787 -0.118806 -0.539037 
0.2964513 0.2857252 -0.545184 

0.0351203 -0.265649 0.3793595 0.3538745 
0.0197757 0.3742956 -0.229910 -0.095372 
-0.484204 0.1584360 -0.446797 -0.182003 

0.1054090 0.3099271 0.3815480 0.3852506 
0.0988635 0.1361986 0.3820168 -0.500273 
-0.377963 -0.087290 -0.374045 0.4155837 
0.1254487 -0.093976 -0.278258 -0.081313 

0.0347595 0.0248607 -0.013909 0.5258932 
0.4008551 0.5343453 -0.082767 -0.127546 
-0.265459 0.4737031 -0.555076 -0.032405 
0.2571467 0.3750903 0.2275528 -0.429324 

0.3070554 -0.329997 0.3971866 0.0260761 0.3294670 
0.4517734 -0.355216 -0.299428 -0.119402 0.2719584 
-0.116907 -0.018569 0.0775267 0.1706940 0.0716055 

-0.081850 -0.294036 0.4488262 
-0.089758 0.3217652 0.1975899 
0.3817146 -0.386792 0.1658917 
-0.198639 0.4390051 0.2953057 
-0.154322 -0.087943 -0.205162 

Generation: 5
0.0351203 -0.265649 0.3793595 -0.147151 
0.3765756 0.3742956 -0.229910 -0.095372 
-0.313702 -0.023916 0.5103681 0.4088502 

0.4273946 -0.060366 0.5002456 -0.440822 
0.1152301 -0.455417 0.0044546 -0.066224 
-0.554295 -0.541440 0.0013580 0.2469498 
0.1254487 -0.093976 -0.278258 -0.081313 

0.0347595 0.0248607 -0.013909 0.5258932 
0.4008551 0.5343453 -0.082767 -0.127546 
-0.265459 0.4737031 -0.555076 -0.032405 
0.2571467 0.3750903 0.2275528 -0.429324 

0.3070554 -0.329997 0.3971866 0.0260761 0.3294670 
0.4517734 -0.355216 -0.299428 -0.119402 0.2719584 
-0.116907 -0.018569 0.0775267 0.1706940 0.0716055 

-0.081850 -0.294036 0.4488262 
-0.089758 0.3217652 0.1975899 
0.3817146 -0.386792 0.1658917 
-0.198639 0.4390051 0.2953057 
-0.154322 -0.087943 -0.205162 

-0.536942 0.3911745 0.0016717 -0.160903 
0.4105325 -0.180164 0.2112858 0.4228862 
0.3223424 -0.482183 -0.019594 -0.297009 

-0.439940 -0.193185 0.2816243 0.0959704 
0.3624171 0.2650373 0.2008246 -0.329855 
0.0629924 -0.443460 0.2936386 -0.393213 
-0.206923 0.3920104 -0.212639 0.5091186 

0.0849421 -0.509964 -0.155166 0.2310376 
0.1884227 -0.190510 0.0619977 0.4589177 
-0.575127 0.5400486 -0.197638 -0.240697 
-0.400524 -0.030730 0.1217631 -0.071162 

-0.167289 0.4790767 -0.475438 -0.472629 0.2969831 
0.3735397 0.2507915 8.2325238 -0.510592 -0.072046 
0.5382547 0.0798075 -0.163557 -0.096128 0.4353195 

0.0309067 0.5761053 -0.201687 
0.4908031 -0.060055 0.3610896 
-0.257561 0.4719361 -0.408369 
0.2064559 -0.001545 -0.481597 
0.2837759 -0.538941 -0.333325 

Generation: 6
-0.202122 -0.507882 0.4042773 -0.170150 
0.0840947 0.4375238 -0.382189 0.4817287 
0.1133855 -0.042244 -0.496918 0.4252833 

-0.311347 -0.481858 -0.551432 -0.440822 
0.1152301 -0.455417 0.0044546 -0.066224 
-0.554295 -0.541440 0.0013580 0.2469498 
0.1254487 -0.093976 -0.278258 -0.081313 

0.0347595 0.0248607 -0.013909 0.5258932 
0.4008551 0.5343453 -0.082767 -0.127546 
-0.265459 0.4737031 -0.555076 -0.032405 
0.2571467 0.3750903 0.2275528 -0.429324 

0.3070554 -0.329997 0.3971866 0.0260761 0.3294670 
0.4517734 -0.355216 -0.299428 -0.119402 0.2719584 
-0.116907 -0.018569 0.0775267 0.1706940 0.0716055 

-0.081850 -0.294036 0.4488262 
-0.089758 0.3217652 0.1975899 
0.3817146 -0.551619 0.0186289 
0.2316676 -0.333413 -0.143099 
-0.248930 -0.479703 0.4260097 

-0.277643 0.3125870 -0.387547 -0.486246 
0.1262101 -0.543120 -0.465128 -0.409036 
-0.455868 0.3170816 -0.115604 -0.008883 

-0.054400 -0.402712 -0.551432 0.3427664 
0.0554174 0.0053140 0.2454308 0.2340129 
0.3818780 0.1629308 -0.334396 -0.115469 
-0.222482 0.1267812 -0.008711 -0.133012 

-0.218495 0.2410760 0.1057806 -0.053632 
0.1657407 0.2729787 0.0625176 0.3749582 
0.5014911 -0.138540 0.2664161 -0.469557 
-0.537913 -0.040220 -0.168648 -0.573330 

0.2555634 0.0229628 -0.450186 0.1231796 7.8863079 
0.2687358 -0.558579 0.4364329 -0.332754 0.5030439 
0.3194718 -0.306891 0.5461633 -0.289373 -0.248972 

0.3795562 -0.144294 0.3930377 
-0.150886 0.5623758 0.0422047 
0.2062150 -0.551619 0.0186289 
0.4226787 -0.118806 -0.539037 
0.2964513 0.2857252 -0.545184 

Generation: 7
0.0708279 0.1393636 0.0016717 -0.160903 
0.4105325 0.2763866 0.2112858 0.4228862 
0.3223424 -0.482183 -0.019594 -0.297009 

-0.439940 -0.193185 0.2816243 0.0959704 
0.3624171 0.2650373 0.2008246 -0.329855 
0.0629924 -0.443460 -0.334396 -0.115469 
-0.222482 0.1267812 -0.008711 -0.133012 

-0.218495 0.2410760 0.1057806 -0.524652 
0.4600884 0.4649133 0.4349703 0.4476884 
-0.234284 0.3830887 0.2784664 0.5147399 
0.4204092 0.5610832 0.5197044 -0.050664 

0.3587929 0.1027046 0.3783837 -0.300037 -0.107696 
0.0512746 -0.205327 -0.565570 0.1699370 -0.461541 
0.0550801 0.3541479 0.1077148 -0.240245 0.2971924 

0.2296196 -0.250310 -0.112074 
0.0187528 0.3217652 0.1975899 
0.3817146 -0.386792 0.5457837 
-0.198639 0.4390051 0.2953057 
-0.385721 -0.325021 0.2815392 

0.0708279 0.1393636 0.0016717 -0.160903 
0.4105325 0.2763866 0.2112858 0.4228862 
0.3223424 -0.482183 -0.019594 -0.297009 

0.5519970 0.2837531 0.5713223 0.5230706 
0.3940571 0.4918390 0.0161012 0.1563912 
0.4318479 0.0644212 -0.576883 -0.213142 
0.2158235 0.5117536 -0.163030 0.2306066 

-0.359724 0.4898226 -0.040471 0.0511188 
0.3559950 0.4649133 0.4349703 0.4476884 
-0.234284 0.3830887 -0.009771 -0.173654 
-0.379888 0.3642691 0.4224271 -0.030003 

0.3159742 0.1027046 0.3783837 0.3530248 -0.107696 
0.0542249 0.1838160 0.3428643 -0.510592 -0.072046 
0.5382547 0.0798075 -0.163557 -0.096128 0.4699796 

0.0295457 0.1000479 -0.125409 
0.5029015 -0.506375 -0.177251 
-0.062866 -0.282864 -0.054522 
-0.040169 -0.559263 -0.109092 
-0.385721 -0.325021 0.2815392 

Generation: 8
-0.373921 -0.056960 -0.378682 0.5407400 
-0.568211 -0.018843 0.2590595 -0.210567 
-0.538636 0.1824091 -0.298730 -0.403435 

-0.518300 0.2578061 0.2687592 -0.046580 
0.4882395 -0.248127 0.4849548 -0.571670 
0.3204110 -0.410023 -0.425405 0.5461652 
0.5109293 -0.105193 0.2409507 0.3211103 

0.2749185 -0.071483 -0.156126 0.2310376 
0.3245474 0.4082298 0.2919804 0.4589177 
-0.575127 0.5400486 0.5005823 0.5280114 
0.2571467 0.3750903 0.2275528 -0.429324 

0.3070554 -0.329997 -0.406693 0.0260761 0.3294670 
0.4517734 -0.355216 -0.299428 -0.119402 0.2719584 
-0.116907 -0.018569 0.0775267 0.1706940 0.0716055 

-0.081850 -0.294036 0.4488262 
-0.089758 0.3217652 -0.063678 
-0.035069 -0.551619 0.0186289 
0.4226787 -0.118806 -0.458419 
-0.435558 0.4820523 0.0920237 

-0.507491 -0.188777 0.4757397 -0.233772 
-0.295451 0.3845179 0.2574641 -0.095372 
-0.313702 -0.023916 -0.192199 -0.072562 

0.5519970 0.2837531 0.5713223 0.0980584 
0.3940571 0.4918390 0.0161012 0.1563912 
0.4318479 0.0644212 -0.576883 -0.213142 
0.2158235 0.5117536 -0.163030 0.2306066 

-0.359724 0.4898226 -0.040471 -0.455237 
-0.163034 -0.187045 -0.184737 -0.070194 
-0.448517 0.1297771 -0.442019 0.0887353 
-0.242921 0.0723192 -0.531934 0.2012156 

-0.498904 -0.251196 0.3783837 0.3530248 -0.107696 
0.0512746 -0.205327 0.0919465 -0.462708 -0.285572 
0.0550801 -0.194661 0.1077148 -0.240245 0.2971924 

0.1272176 0.4834081 -0.099965 
0.5387860 -0.467382 0.2853623 
-0.225016 0.0461621 -0.049446 
-0.456654 -0.220176 -0.358346 
0.1743847 0.4661743 0.5701658 

Generation: 9
0.4987325 -0.056960 -0.378682 0.5407400 
0.5615644 0.0594928 -0.314216 -0.111575 
-0.004611 -0.475321 0.5103681 0.4088502 

0.4273946 -0.060366 -0.492563 -0.554589 
-0.321667 -0.272093 0.0967542 -0.131932 
0.0601777 0.0612356 -0.208162 -0.262610 
-0.114339 -0.260927 -0.247743 -0.325820 

-0.133965 -0.371912 0.2430920 0.0704364 
-0.529029 -0.243329 -0.458873 0.0189403 
-0.242227 0.1736964 0.5122875 0.3120771 
-0.433507 0.5333983 0.0423614 -0.269444 

-0.466563 -0.362299 -0.418130 -0.239451 0.5747897 
0.0512746 -0.205327 -0.308192 0.2497132 0.5579656 
-0.396609 -0.194483 0.5261576 -0.106707 -0.526451 

0.0340468 0.2846946 -0.430030 
-0.004372 0.4179162 0.1975899 
0.3817146 -0.386792 0.1658917 
-0.198639 0.0362347 0.1094973 
0.1743847 -0.270157 -0.255797 

-0.277643 0.3125870 -0.387547 -0.486246 
0.1262101 -0.543120 -0.465128 -0.409036 
0.4193251 -0.524714 -0.067410 -0.105789 

0.2413640 -0.317700 -0.571128 0.1075071 
-0.170541 0.4907443 0.4474266 0.2672393 
0.5133578 0.1507369 0.0013580 0.5034011 
0.2806335 0.4468772 -0.050187 -0.332062 

0.1224117 0.0270023 -0.013909 0.5258932 
0.4008551 0.5343453 -0.082767 0.0189403 
-0.234284 0.3339091 0.1954184 -0.145478 
0.0262868 0.3487352 -0.540431 -0.062007 

-0.252674 -0.362299 0.5198080 -0.239451 0.5747897 
0.0542249 0.1838160 0.2951625 -0.191984 -0.461541 
0.0550801 0.3541479 0.1077148 -0.240245 0.2971924 

0.1272176 -0.171818 0.4496367 
0.3717804 -0.328521 -0.316343 
0.2227206 -0.282864 -0.054522 
-0.040169 -0.559263 -0.109092 
0.2964513 0.2857252 -0.545184 

Generation: 10
-0.472550 -0.130671 0.0016717 -0.160903 
0.4105325 0.3845179 0.2574641 0.1422269 
-0.313702 -0.023916 -0.192199 -0.072562 

0.5519970 0.2837531 0.5713223 0.0980584 
0.3940571 0.4918390 0.0161012 0.1563912 
0.4318479 0.0644212 -0.576883 -0.213142 
0.2158235 -0.401374 -0.106157 -0.310394 

-0.235724 -0.371912 0.2430920 0.0704364 
-0.529029 -0.016267 0.1992765 0.2085216 
-0.296739 0.5648961 -0.006557 -0.436741 
0.0330155 0.2701879 -0.281801 0.2012156 

-0.498904 -0.251196 -0.457783 -0.479833 -0.095399 
-0.224373 -0.205327 0.0919465 -0.462708 -0.351870 
0.0550801 -0.194661 0.1077148 -0.240245 0.2971924 

0.1272176 0.4834081 -0.099965 
0.5387860 -0.467382 0.2853623 
-0.225016 0.0461621 -0.049446 
-0.456654 0.5422335 -0.539037 
0.0862191 -0.437113 0.3058321 

0.0351203 -0.265649 0.3793595 0.3538745 
0.0197757 0.3742956 -0.229910 -0.216610 
0.5377121 -0.450338 -0.298730 -0.403435 

-0.071386 -0.481858 -0.551432 0.1075071 
-0.170541 0.2650373 0.2008246 -0.329855 
0.0629924 -0.443460 -0.576883 -0.213142 
0.2158235 0.5117536 -0.544765 -0.208728 

-0.503391 0.1785742 -0.285332 -0.211302 
-0.059706 0.5752582 -0.006600 0.3603667 
0.2287116 0.4915262 0.5005823 0.5280114 
0.1585447 0.4858441 0.3882000 0.3723715 

-0.107635 -0.108646 -0.358141 -0.565813 -0.371746 
-0.327997 -0.085914 -0.021448 0.0204654 0.4306763 
-0.128445 -0.184912 0.5068792 -0.481163 0.1113897 

0.4923800 -0.363366 0.3260948 
-0.102324 -0.018785 0.5527920 
0.2973904 -0.498333 -0.105016 
0.5276211 0.5422335 -0.539037 
0.2964513 -0.087943 -0.205162 

Generation: 11
-0.507491 -0.188777 0.4757397 0.3861982 
-0.434227 -0.522673 -0.368755 -0.111575 
0.4627846 -0.475321 0.5103681 0.4088502 

-0.518300 0.2578061 0.2687592 -0.046580 
0.4882395 -0.248127 0.4849548 0.3890360 
0.3204110 -0.395323 -0.334396 -0.393213 
-0.206923 0.3920104 -0.212639 0.5091186 

0.0849421 0.1727665 -0.156126 -0.524652 
0.3627548 -0.571039 -0.082767 0.4476884 
-0.265459 0.4737031 -0.555076 -0.032405 
0.2571467 0.3750903 0.2275528 -0.062007 

-0.548556 -0.386693 0.4536388 -0.130888 0.2156664 
-0.162355 0.4357624 -0.485108 0.5707973 0.0169467 
0.2478125 -0.324633 -0.494473 -0.357349 0.3150440 

0.0340468 0.2846946 -0.430030 
-0.004372 0.4179162 0.1975899 
0.3817146 -0.386792 0.1658917 
-0.198639 0.0362347 0.1094973 
0.1743847 0.4661743 0.5701658 

0.4987325 -0.056960 -0.378682 0.5407400 
0.4105325 -0.547249 0.2112858 0.4228862 
0.3223424 -0.482183 -0.019594 -0.297009 

0.5519970 0.2837531 0.5641669 0.5230706 
0.3940571 0.4918390 0.0161012 0.1563912 
0.4318479 0.0644212 -0.259223 -0.213142 
0.2158235 0.0534882 -0.163030 0.2306066 

-0.359724 0.4898226 0.5424823 0.0511188 
0.3559950 0.4649133 0.4349703 0.4476884 
-0.234284 0.3830887 -0.009771 -0.173654 
0.2571467 0.5333983 0.0423614 -0.269444 

0.2555634 0.0229628 -0.450186 0.1231796 -0.570646 
0.1036396 -0.475618 -0.283263 0.0842178 0.5030439 
0.3194718 -0.306891 0.5461633 -0.289373 -0.248972 

0.3795562 -0.144294 -0.188208 
0.0440049 -0.015684 0.4374941 
0.4859099 -0.228758 -0.280684 
-0.100342 -0.335177 0.5189124 
-0.242473 -0.270157 -0.255797 

Generation: 12
-0.277643 0.3125870 0.4757397 0.3861982 
-0.434227 -0.522673 -0.368755 0.2017702 
0.5377121 0.1824091 -0.298730 -0.403435 

-0.518300 0.3290627 -0.420057 -0.231856 
0.4604375 0.5265431 -0.522358 -0.315725 
0.0629924 -0.443460 -0.576883 -0.213142 
0.2158235 0.5117536 -0.544765 -0.208728 

-0.503391 0.1785742 -0.285332 -0.211302 
-0.059706 0.5603158 -0.458873 0.0189403 
-0.242227 0.5400486 0.5005823 0.5280114 
0.2571467 0.3750903 0.2275528 -0.429324 

0.3070554 -0.033772 0.3971866 0.0260761 0.3294670 
0.4517734 -0.355216 -0.299428 -0.191984 0.2083501 
0.4764406 0.0534153 0.0280954 -0.205584 0.1917871 

0.0761431 0.3403867 -0.162410 
0.0799494 0.2868392 0.1284048 
0.5665188 -0.404705 0.1372201 
0.4226787 -0.118806 -0.539037 
0.2964513 0.2857252 -0.545184 

-0.507491 -0.188777 0.4757397 -0.233772 
-0.295451 0.3845179 0.2574641 -0.095372 
-0.313702 -0.023916 -0.298730 -0.403435 

-0.518300 0.2578061 0.2687592 -0.046580 
0.5692304 -0.248127 0.0161012 -0.146206 
0.4577202 0.3160261 -0.334396 -0.393213 
-0.006016 -0.416285 -0.339129 0.1276828 

-0.538810 0.1785742 -0.285332 -0.211302 
-0.059706 0.5752582 0.5641582 -0.526284 
-0.346275 -0.400634 -0.240553 0.1823308 
0.0262868 0.3487352 -0.540431 -0.062007 

-0.252674 0.4175416 -0.505307 0.5632442 0.4778561 
0.0512746 0.4357624 0.3379196 -0.172704 -0.023641 
0.0757390 -0.251737 -0.013808 -0.240245 0.2971924 

0.1272176 0.4834081 -0.099965 
0.5387860 -0.467382 0.2853623 
-0.225016 0.0461621 -0.049446 
-0.456654 -0.220176 -0.358346 
0.1743847 0.4661743 0.5767729 

Generation: 13
0.1310889 0.2296133 0.4852320 -0.351155 
-0.295451 0.3845179 0.2574641 -0.095372 
0.3223424 -0.482183 -0.019594 -0.297009 

0.5519970 0.2837531 0.5713223 0.0980584 
0.3940571 0.4918390 0.0161012 0.1563912 
0.4318479 0.0644212 -0.576883 -0.213142 
0.2158235 -0.401374 -0.106157 -0.310394 

-0.235724 -0.371912 0.2430920 0.0704364 
-0.529029 -0.042693 0.1992765 0.2085216 
-0.296739 0.1736964 0.5122875 0.3120771 
0.4204092 0.5610832 0.5197044 -0.050664 

-0.012996 -0.128710 0.5747980 0.3546139 0.4778561 
0.2687358 -0.334119 0.3829641 0.5569316 0.2719584 
-0.172691 0.3829562 0.2184729 0.1949345 0.1520063 

-0.556248 -0.381917 0.2146507 
0.1716139 0.4185095 0.2853623 
0.3396728 -0.282864 -0.054522 
-0.040169 -0.559263 -0.109092 
0.4442915 0.1372420 -0.201636 

-0.349542 -0.056960 -0.378682 -0.478298 
0.5615644 0.0719095 -0.238327 0.2605215 
0.5027812 0.0768803 0.4091088 0.2253648 

-0.252426 -0.157956 0.0804677 0.4407506 
0.0719071 -0.157320 -0.344373 0.2762488 
-0.100421 -0.529582 -0.015896 -0.295516 
0.4364380 -0.401374 -0.385789 -0.266455 

-0.563667 -0.071483 -0.156126 -0.544868 
0.3245474 0.4082298 0.2919804 0.4589177 
-0.575127 0.5400486 0.5005823 0.5280114 
0.2571467 0.3750903 0.2275528 -0.332596 

0.3587929 0.1027046 0.3783837 0.3530248 -0.107696 
0.0512746 -0.205327 0.0919465 0.1699370 -0.461541 
-0.396609 -0.018569 -0.005373 0.2917972 0.3714922 

-0.458845 0.3092981 -0.188208 
0.0440049 -0.015684 0.4374941 
0.4859099 -0.228758 -0.280684 
-0.100342 -0.335177 0.5189124 
-0.242473 -0.270157 -0.255797 

Generation: 14
-0.277643 0.3125870 0.4757397 0.3861982 
-0.434227 -0.522673 -0.368755 -0.111575 
0.4627846 0.1584360 -0.446797 -0.072562 

0.5519970 0.2837531 0.5713223 0.0980584 
0.3940571 0.4918390 0.0161012 0.1563912 
0.4318479 0.0644212 -0.576883 0.5461652 
0.5109293 -0.093976 -0.278258 -0.266455 

-0.425795 -0.371912 0.2430920 0.0704364 
-0.529029 -0.016267 0.5641582 -0.526284 
-0.346275 -0.400634 -0.240553 0.1823308 
-0.441817 0.3487352 -0.540431 -0.062007 

-0.252674 -0.113110 -0.191661 0.5229897 -0.384530 
-0.033168 0.3025366 -0.299428 -0.191984 0.2083501 
0.4764406 0.0534153 0.0280954 -0.205584 0.1917871 

0.0761431 0.3403867 -0.162410 
0.0799494 -0.258365 0.3600926 
0.2062150 0.1664949 0.1372201 
0.4226787 -0.118806 -0.539037 
0.2964513 0.2857252 -0.545184 

0.1310889 0.2296133 0.4852320 -0.351155 
-0.295451 0.3845179 0.2574641 -0.095372 
0.3223424 -0.482183 -0.019594 -0.297009 

0.5519970 0.2837531 0.5713223 0.0980584 
0.3940571 0.4918390 0.0161012 0.1563912 
0.4318479 0.0644212 -0.576883 -0.213142 
0.2158235 -0.401374 -0.106157 -0.310394 

-0.235724 -0.371912 0.2430920 0.0704364 
-0.529029 -0.042693 0.1992765 0.2085216 
-0.296739 0.1736964 0.5122875 0.3120771 
0.2571467 0.5333983 0.0423614 -0.269444 

0.2555634 -0.552345 -0.450186 0.1231796 -0.570646 
0.1036396 -0.475618 -0.283263 0.0842178 0.5030439 
0.3194718 -0.306891 0.5461633 -0.289373 -0.248972 

0.3795562 -0.144294 -0.188208 
0.1716139 0.4185095 0.2853623 
0.3396728 -0.282864 -0.054522 
-0.459433 -0.559263 -0.109092 
0.4442915 0.1372420 -0.201636 

Generation: 15
-0.349542 -0.056960 -0.378682 -0.478298 
0.5615644 0.0719095 -0.238327 0.2605215 
0.5027812 0.0768803 0.4091088 0.2253648 

-0.252426 -0.157956 0.0804677 0.4407506 
0.0719071 -0.157320 -0.344373 0.2762488 
-0.100421 -0.529582 -0.334396 -0.393213 
-0.206923 0.3920104 -0.212639 0.5091186 

0.0849421 0.2410760 0.1057806 -0.524652 
-0.131861 0.4649133 0.4349703 0.0122230 
-0.234284 0.3830887 -0.006557 -0.436741 
0.0330155 0.2701879 0.2275528 -0.332596 

0.3587929 0.1027046 0.3783837 0.5632442 0.4778561 
0.0512746 -0.205327 0.0919465 0.1699370 -0.461541 
-0.396609 -0.018569 -0.005373 0.2917972 0.3714922 

-0.458845 0.3092981 -0.188208 
0.0440049 -0.015684 0.4374941 
0.4859099 -0.379253 -0.280684 
-0.100342 -0.335177 0.5189124 
-0.242473 -0.270157 -0.255797 

0.1310889 -0.188777 0.4757397 -0.233772 
-0.295451 0.3845179 0.2574641 -0.177117 
0.5377121 0.1824091 -0.298730 -0.403435 

-0.518300 0.2578061 0.2687592 0.1102825 
0.5692304 0.4918390 0.0161012 0.1563912 
0.4318479 0.0644212 -0.576883 -0.175302 
0.2158235 -0.401374 -0.106157 -0.310394 

-0.235724 -0.071483 -0.156126 -0.544868 
0.3245474 0.4082298 0.2919804 0.4589177 
-0.575127 0.5400486 0.5005823 0.5280114 
0.0262868 0.3487352 -0.540431 0.3723715 

-0.107635 0.0229628 -0.450186 0.3530248 -0.107696 
0.0512746 -0.205327 0.0919465 -0.191984 0.4974864 
0.4764406 0.0534153 0.0280954 -0.205584 0.1917871 

0.1272176 -0.171818 0.4496367 
0.3717804 -0.328521 0.1284048 
0.5665188 -0.404705 0.1372201 
0.4226787 -0.118806 0.4321500 
0.4442915 0.1372420 -0.201636 

Generation: 16
-0.277643 0.3125870 0.4757397 0.3861982 
-0.434227 -0.522673 -0.368755 0.2017702 
0.3223424 -0.482183 -0.019594 0.2844986 

0.5519970 0.2837531 -0.258732 0.0980584 
0.3940571 0.4918390 0.0161012 0.1563912 
0.4318479 0.0644212 -0.576883 -0.213142 
0.0928764 0.0240792 -0.294007 -0.325820 

-0.503391 0.1785742 -0.285332 -0.211302 
-0.059706 0.5752582 0.4349703 0.4476884 
-0.234284 0.3339091 0.5005823 -0.436741 
0.0330155 0.2701879 -0.349028 0.0854663 

0.0238443 0.4175416 -0.505307 -0.130888 0.4778561 
0.2687358 0.1651139 0.4364329 -0.178361 -0.291272 
0.3194718 0.0790457 -0.013808 -0.240245 0.2971924 

0.1272176 0.4834081 -0.099965 
0.0799494 0.2868392 0.1284048 
-0.225016 0.0461621 -0.049446 
-0.456654 -0.220176 -0.358346 
0.2964513 0.2857252 -0.545184 

0.4987325 0.4071694 -0.278747 -0.351155 
0.1075836 -0.447203 0.2112858 0.4228862 
0.3223424 0.5587125 0.1522969 0.5551213 

-0.518300 0.0774809 -0.494512 -0.483415 
-0.194441 -0.152177 -0.344373 -0.146206 
4.8617852 -0.089161 -0.120351 -0.206681 
-0.066476 -0.025566 0.2409507 0.3211103 

0.2749185 -0.071483 -0.156126 0.0704364 
-0.529029 -0.016267 0.1992765 0.2085216 
0.3561999 0.5648961 -0.006557 -0.436741 
-0.379888 0.3642691 0.4224271 -0.269444 

-0.466563 -0.362299 -0.418130 -0.239451 0.5747897 
0.0512746 0.4357624 -0.485108 0.5707973 0.0169467 
0.2478125 -0.324633 -0.494473 0.5762554 -0.043878 

-0.326957 -0.556104 -0.338384 
0.3235546 -0.258365 -0.391160 
0.5649465 0.4719361 -0.398901 
-0.040169 0.5422335 -0.539037 
0.0862191 -0.270157 -0.255797 

Generation: 17
0.4987325 -0.030670 -0.387547 -0.160903 
0.2159691 -0.018843 0.2590595 -0.210567 
-0.179170 0.4110034 -0.019594 -0.297009 

0.5519970 -0.389421 -0.494512 -0.483415 
-0.194441 -0.152177 -0.344373 -0.146206 
0.4577202 0.3160261 -0.334396 -0.393213 
-0.206923 0.1267812 -0.008711 -0.310394 

-0.561923 -0.371912 0.2430920 0.5548420 
0.3245474 0.4082298 0.2919804 0.4589177 
-0.575127 0.3830887 -0.009771 -0.173654 
0.2571467 0.5333983 0.2275528 -0.062007 

-0.498904 -0.251196 -0.457783 -0.565813 -0.371746 
-0.327997 0.1599684 -0.417122 0.0840897 0.5235854 
0.4764406 0.0534153 0.0280954 -0.205584 0.1917871 

0.2555276 -0.328165 0.2146507 
0.4383693 -0.506375 -0.177251 
-0.062866 -0.228758 -0.280684 
-0.100342 -0.335177 0.5189124 
-0.242473 -0.270157 -0.255797 

-0.277643 -0.265649 0.3793595 0.3538745 
0.0197757 0.3742956 0.0330214 0.1392393 
0.0997415 -0.115660 0.2537158 -0.403435 

-0.040464 -0.389421 0.0424709 -0.483415 
-0.194441 -0.152177 -0.083577 -0.179853 
0.4895366 -0.520776 -0.576883 -0.213142 
0.2158235 0.5117536 -0.544765 -0.208728 

-0.189618 -0.371912 0.2430920 0.0704364 
-0.529029 0.1081827 0.0625176 0.2085216 
-0.296739 0.4208958 -0.006557 -0.436741 
0.0330155 0.5333983 -0.349028 0.1544531 

0.0238443 -0.033772 0.3971866 0.0260761 0.3294670 
0.4517734 -0.355216 -0.299428 -0.191984 0.2083501 
0.2478125 0.1202610 -0.494473 0.5762554 -0.043878 

0.0098555 -0.556104 -0.338384 
0.3235546 -0.082505 0.3600926 
0.2062150 -0.551619 -0.201663 
0.4226787 -0.118806 -0.539037 
0.2964513 0.2857252 -0.545184 

Generation: 18
0.4987325 -0.030670 -0.387547 -0.160903 
0.2159691 -0.018843 0.2590595 -0.210567 
-0.179170 0.4110034 -0.019594 -0.297009 

0.5519970 -0.389421 -0.494512 -0.483415 
-0.194441 -0.152177 -0.344373 -0.146206 
0.4577202 0.3160261 -0.334396 -0.393213 
-0.206923 0.1267812 -0.008711 -0.310394 

-0.561923 -0.371912 0.2430920 0.5548420 
0.0148761 0.4082298 0.2919804 0.4589177 
-0.575127 0.3830887 -0.009771 -0.173654 
0.2571467 0.5333983 0.4224271 -0.269444 

-0.466563 0.4175416 -0.562803 -0.130888 -0.107696 
0.0512746 -0.205327 0.0919465 -0.191984 0.2083501 
0.4764406 0.0534153 0.0280954 -0.205584 0.1917871 

0.2555276 -0.328165 0.2146507 
0.4383693 -0.506375 -0.177251 
-0.062866 -0.228758 -0.280684 
-0.100342 -0.335177 0.5189124 
-0.242473 -0.270157 -0.255797 

0.1310889 0.2296133 0.3793595 0.3538745 
0.1075836 0.0373604 -0.465128 -0.409036 
-0.455868 0.0768803 0.4091088 0.3242768 

-0.252426 -0.157956 -0.519419 -0.046580 
0.5692304 -0.248127 0.0161012 -0.146206 
0.4577202 0.3160261 -0.334396 -0.393213 
-0.206923 0.3920104 -0.212639 0.3211103 

0.2749185 -0.071483 -0.156126 0.0704364 
-0.529029 -0.016267 0.1992765 0.2085216 
0.3561999 0.5648961 -0.006557 -0.436741 
-0.379888 0.3642691 0.4224271 -0.269444 

-0.466563 -0.362299 -0.418130 -0.239451 0.5747897 
0.0512746 0.4357624 -0.485108 0.5707973 0.0169467 
0.2478125 -0.324633 -0.494473 0.5762554 -0.043878 

-0.326957 -0.556104 -0.338384 
0.3235546 -0.506375 -0.177251 
-0.062866 -0.103375 -0.054522 
-0.307338 -0.559263 -0.481597 
0.4442915 0.1372420 -0.201636 

Generation: 19
-0.507491 -0.188777 0.4757397 -0.233772 
0.1262101 -0.543120 -0.465128 -0.409036 
-0.402504 -0.482183 -0.019594 -0.297009 

0.5519970 0.2837531 0.5713223 0.0980584 
0.0719071 0.5077626 -0.522358 -0.315725 
-0.326873 0.2885216 0.2206310 -0.251239 
0.4945019 0.1400886 -0.544765 -0.208728 

-0.503391 0.1785742 -0.285332 -0.211302 
-0.059706 0.5752582 -0.458873 0.0189403 
-0.242227 -0.080863 0.5005823 0.5280114 
0.2571467 0.3750903 0.5197044 -0.050664 

-0.427086 -0.113110 -0.191661 0.5229897 0.5747897 
-0.162355 0.4989049 -0.424172 0.0840897 -0.083467 
0.5433159 0.3452984 -0.013808 -0.240245 -0.139147 

0.1272176 -0.381917 0.4689682 
0.3235546 -0.456201 0.3654364 
-0.225016 0.0461621 -0.049446 
-0.456654 -0.220176 -0.358346 
0.1743847 0.4661743 0.5701658 

-0.373921 -0.188777 0.4757397 -0.233772 
-0.295451 0.3845179 0.2574641 -0.177117 
0.5377121 0.1824091 -0.007772 -0.403435 

-0.518300 -0.077065 0.5713223 0.4732950 
0.3940571 0.4918390 0.2008246 -0.329855 
0.0629924 -0.443460 -0.351874 -0.115469 
-0.222482 0.1267812 -0.176915 -0.208728 

-0.503391 0.1785742 0.1057806 -0.524652 
0.4600884 0.5343453 -0.548136 -0.127546 
-0.265459 0.3830887 0.2784664 0.5147399 
0.4204092 0.5610832 0.5197044 -0.050664 

-0.427086 0.0229628 -0.450186 0.3626189 -0.384530 
0.5669048 -0.081909 -0.299428 -0.191984 0.5235854 
0.2478125 -0.194661 0.1077148 -0.240245 0.2971924 

0.1272176 0.4834081 -0.099965 
0.5387860 -0.467382 0.4779786 
0.2477846 -0.282864 -0.054522 
0.1985243 -0.222517 0.4687457 
0.4180847 0.4206221 0.0920237 

Generation: 20
0.1310889 -0.030670 -0.278747 0.1207550 
0.3803433 0.3642573 0.0330214 0.1392393 
0.0997415 -0.115660 0.2537158 0.5551213 

0.5693884 0.0774809 -0.179626 0.0855500 
0.0554174 0.3153689 -0.522358 -0.315725 
-0.326873 -0.541440 0.3141308 -0.213142 
0.2158235 0.1267812 -0.008711 -0.310394 

-0.561923 -0.371912 0.2430920 0.0704364 
-0.529029 -0.016267 0.1992765 0.2085216 
-0.296739 0.5648961 0.5122875 0.3120771 
-0.433507 -0.017658 0.3665224 -0.269444 

-0.466563 -0.362299 0.3971866 0.5229897 0.3314050 
0.3376958 0.2035491 -0.424172 -0.487046 0.2083501 
0.4764406 0.0534153 -0.134146 -0.205584 0.1917871 

0.0761431 0.3403867 -0.162410 
0.0799494 -0.258365 0.3600926 
0.2062150 -0.282864 -0.054522 
-0.445671 -0.559263 -0.109092 
0.4442915 0.1372420 -0.201636 

0.4987325 -0.030670 -0.387547 -0.160903 
0.2159691 -0.018843 -0.250727 0.2605215 
0.5027812 0.2462156 -0.350997 -0.072562 

0.5519970 -0.451298 -0.551432 0.3427664 
-0.485655 0.5077626 0.2560183 -0.315725 
-0.326873 0.2885216 0.2206310 -0.251239 
0.4945019 -0.401374 -0.106157 -0.310394 

-0.189618 0.4898226 0.5424823 0.0511188 
0.3559950 0.4649133 0.4349703 -0.461639 
-0.234284 0.3830887 -0.009771 -0.173654 
0.4204092 0.5610832 0.5197044 -0.050664 

-0.427086 0.3713183 -0.450186 0.3626189 -0.384530 
-0.033168 -0.081909 -0.299428 -0.191984 0.5235854 
0.4764406 0.0534153 0.1679551 0.5762554 -0.191155 

0.4278100 -0.328165 0.4496367 
0.3235546 -0.258365 -0.316343 
0.2477846 -0.023191 -0.280684 
-0.100342 -0.280879 0.5189124 
0.4442915 -0.270157 -0.255797 

Generation: 21
0.1310889 -0.030670 -0.278747 0.1207550 
0.3803433 0.3642573 0.0330214 0.1392393 
0.0997415 -0.115660 0.2537158 0.5551213 

0.5693884 0.0774809 -0.179626 0.0855500 
0.0554174 0.3153689 -0.522358 -0.315725 
-0.326873 -0.541440 0.3141308 -0.213142 
0.2158235 0.1267812 -0.008711 -0.310394 

-0.561923 -0.371912 0.2430920 0.0704364 
-0.529029 -0.016267 0.1992765 0.2085216 
-0.296739 0.5648961 0.5122875 0.3120771 
-0.433507 -0.017658 0.3665224 -0.269444 

-0.427086 -0.113110 -0.191661 0.5229897 0.5747897 
-0.327997 0.1599684 -0.417122 0.0840897 0.2083501 
0.4764406 0.0534153 -0.134146 -0.205584 0.1917871 

0.0761431 0.3403867 -0.162410 
0.0799494 -0.258365 0.3600926 
0.2062150 -0.282864 -0.054522 
-0.445671 -0.559263 -0.109092 
0.4442915 0.1372420 -0.201636 

-0.373921 -0.188777 0.4757397 -0.233772 
-0.295451 0.3845179 -0.233283 -0.177117 
0.5377121 0.1824091 -0.007772 -0.403435 

-0.518300 -0.544915 0.1438559 0.4732950 
0.3940571 0.4918390 0.0161012 0.1563912 
0.4318479 0.0644212 -0.576883 -0.213142 
0.0928764 0.0240792 -0.575964 -0.325820 

-0.503391 0.1785742 -0.285332 -0.211302 
0.3261146 0.1081827 0.0625176 0.2085216 
-0.296739 0.5648961 -0.006557 -0.436741 
0.0330155 0.5333983 -0.349028 0.1544531 

0.0238443 0.4175416 -0.418130 -0.130888 -0.384530 
-0.033168 0.4357624 -0.485108 -0.406687 -0.291272 
0.2428150 0.0534153 0.1679551 0.5762554 -0.191155 

0.0098555 -0.556104 -0.099965 
0.5387860 -0.467382 0.4779786 
0.2477846 -0.282864 -0.054522 
0.1985243 -0.222517 0.4687457 
0.4180847 0.4206221 0.0920237 

Generation: 22
0.4987325 0.0879081 -0.278747 -0.351155 
-0.268287 0.3642573 0.0330214 0.1392393 
0.0997415 0.2462156 0.4091088 -0.297009 

-0.439940 0.2578061 0.2728989 0.1102825 
0.4604375 0.5265431 0.2008246 -0.329855 
0.0629924 -0.443460 -0.334396 -0.115469 
-0.222482 0.0534882 -0.163030 0.2306066 

-0.359724 -0.300669 0.5424823 -0.524652 
0.3627548 0.5752582 -0.458873 0.0189403 
-0.242227 -0.080863 0.5005823 0.5280114 
0.2571467 0.3750903 0.2275528 -0.429324 

0.3070554 -0.048598 0.1549599 -0.239451 0.2156664 
-0.162355 0.3025366 0.1026539 -0.191984 0.2083501 
0.4764406 0.0534153 0.0280954 -0.205584 0.1917871 

0.0761431 0.3403867 0.4852254 
0.0799494 -0.258365 0.3600926 
0.2062150 -0.282864 -0.054522 
-0.100342 -0.335177 0.5189124 
-0.242473 -0.270157 -0.255797 

-0.020886 0.0824453 0.4814651 -0.486246 
0.1262101 0.0373604 -0.238327 0.2605215 
0.5027812 0.0768803 0.4091088 -0.297009 

-0.439940 -0.193185 -0.551432 0.3427664 
-0.194441 -0.248127 0.3986565 -0.146206 
0.4577202 0.3160261 -0.334396 -0.393213 
-0.206923 0.3920104 -0.212639 0.5376943 

-0.538810 0.1785742 -0.285332 -0.211302 
-0.059706 0.4649133 -0.082767 -0.127546 
-0.242227 0.5400486 0.5005823 0.5280114 
0.0262868 0.3487352 -0.540431 0.3723715 

-0.252674 -0.383022 -0.191661 0.5229897 0.2156664 
0.0512746 0.4357624 -0.485108 0.5707973 0.0169467 
0.2478125 -0.324633 0.0280954 -0.522133 0.1917871 

0.1272176 0.1783886 0.4496367 
0.3717804 -0.506375 -0.177251 
-0.062866 -0.103375 -0.054522 
-0.307338 -0.559263 -0.481597 
0.1222892 0.4905679 0.1535469 

Generation: 23
0.4987325 -0.030670 -0.387547 -0.351155 
-0.268287 0.3642573 0.0330214 0.1392393 
0.0997415 0.2462156 0.4091088 -0.297009 

-0.439940 0.2578061 0.2728989 0.1102825 
0.4604375 0.5265431 0.2008246 -0.329855 
0.0629924 -0.443460 -0.334396 -0.115469 
-0.222482 0.0534882 -0.163030 0.2306066 

-0.359724 -0.300669 0.5424823 0.5548420 
0.1657407 0.1081827 0.1460259 -0.127546 
-0.265459 0.4737031 -0.009771 -0.173654 
0.1286390 0.3642691 0.4224271 -0.269444 

-0.466563 0.4175416 -0.418130 -0.239451 0.5747897 
0.0512746 0.4357624 -0.485108 0.5707973 0.0169467 
0.2478125 -0.324633 -0.494473 0.5762554 -0.043878 

-0.326957 0.3403867 -0.162410 
0.0799494 0.2868392 -0.316343 
0.2477846 -0.023191 -0.280684 
-0.100342 -0.280879 0.5189124 
0.4442915 -0.270157 -0.255797 

0.4987325 -0.030670 -0.278747 0.1207550 
-0.295451 0.3845179 0.2574641 -0.361906 
0.2120166 0.5587125 0.1522969 0.5551213 

0.5693884 0.0774809 -0.133949 0.0855500 
0.3145353 -0.195644 -0.522358 -0.315725 
-0.326873 -0.045909 0.3141308 -0.213142 
0.2158235 0.5117536 -0.544765 -0.208728 

-0.503391 0.4898226 -0.156126 -0.544868 
0.4600884 0.4649133 0.4349703 0.4476884 
-0.234284 0.4737031 -0.006557 -0.436741 
0.0330155 0.2701879 -0.349028 0.0854663 

0.0238443 0.3713183 -0.450186 0.3626189 -0.371746 
-0.327997 0.4357624 -0.485108 -0.191984 0.5235854 
0.5433159 0.0790457 0.4387065 -0.357349 0.3442681 

-0.326957 0.3403867 -0.162410 
0.5387860 -0.467382 0.2853623 
-0.225016 -0.312214 -0.280684 
-0.100342 -0.335177 0.5189124 
-0.242473 0.2315615 -0.125872 

Generation: 24
0.4987325 -0.030670 -0.387547 -0.351155 
-0.268287 0.3642573 0.0330214 0.1392393 
0.0997415 0.2462156 0.4091088 -0.297009 

-0.439940 0.2578061 0.2728989 0.1102825 
0.4604375 0.5265431 0.2008246 -0.329855 
0.0629924 -0.443460 -0.334396 -0.115469 
-0.222482 0.0534882 -0.163030 0.2306066 

-0.359724 -0.300669 0.5424823 0.5548420 
0.1657407 0.1081827 0.0179283 -0.127546 
-0.265459 0.4737031 -0.009771 -0.173654 
0.1286390 0.3642691 0.4224271 -0.269444 

-0.466563 0.4175416 -0.418130 -0.239451 0.5747897 
0.0512746 0.4357624 -0.485108 0.5707973 0.0169467 
0.2478125 -0.324633 0.1679551 0.5762554 -0.191155 

-0.326957 0.3403867 -0.162410 
0.0799494 0.2868392 -0.316343 
0.2477846 -0.023191 -0.280684 
-0.100342 -0.280879 0.5189124 
0.4442915 -0.270157 -0.255797 

-0.020886 -0.265649 0.3793595 0.3538745 
0.0197757 0.3742956 0.0330214 0.1392393 
0.0997415 -0.115660 0.2537158 -0.072562 

0.5519970 0.2837531 0.5002456 0.0980584 
-0.194441 -0.152177 -0.344373 0.1563912 
0.4318479 0.0644212 -0.576883 -0.213142 
0.0928764 0.0240792 -0.294007 -0.310394 

-0.561923 -0.371912 0.1057806 -0.524652 
0.4600884 0.5752582 0.0479437 0.4476884 
-0.234284 0.3339091 0.5005823 0.5147399 
0.4204092 0.5610832 0.5197044 -0.269444 

-0.466563 0.4175416 -0.418130 -0.239451 0.5747897 
0.0512746 0.4357624 -0.485108 0.5707973 0.0169467 
0.2478125 -0.324633 -0.494473 0.5762554 -0.043878 

-0.326957 -0.556104 -0.338384 
0.3235546 -0.258365 -0.177251 
-0.472540 -0.103375 -0.054522 
-0.307338 -0.559263 -0.481597 
0.1222892 0.4905679 0.1535469 

Generation: 25
0.4987325 -0.030670 -0.278747 0.0197017 
-0.434227 -0.522673 -0.368755 -0.111575 
0.5027812 0.0768803 -0.322146 0.3594771 

-0.252426 -0.157956 0.0804677 0.0855500 
-0.485283 0.4918390 0.0161012 0.3092535 
0.0629924 -0.443460 -0.334396 -0.115469 
-0.222482 0.1400886 -0.106157 -0.310394 

-0.189618 0.2902697 0.2430920 0.0704364 
-0.529029 0.1081827 0.0625176 0.2085216 
-0.296739 -0.506844 -0.006557 -0.436741 
0.0330155 0.5333983 -0.349028 0.1544531 

0.0238443 0.3713183 -0.450186 0.3626189 -0.384530 
-0.033168 -0.081909 -0.299428 -0.191984 0.2083501 
0.4764406 0.0534153 0.5632934 -0.205584 0.1917871 

0.0761431 0.3403867 -0.162410 
0.0799494 -0.258365 0.3600926 
0.2062150 -0.282864 -0.054522 
-0.100342 -0.335177 0.5189124 
-0.242473 -0.270157 -0.255797 

0.1310889 -0.030670 -0.278747 0.1207550 
0.3803433 0.3642573 0.0330214 0.1392393 
0.5377121 0.1824091 -0.298730 -0.297009 

-0.439940 -0.193185 -0.298134 0.0855500 
0.0554174 0.5077626 0.2957947 -0.179853 
0.4895366 -0.520776 0.3331069 0.5235347 
-0.066476 -0.025566 0.2409507 0.3211103 

-0.133965 0.2410760 0.1057806 0.2286346 
-0.529029 -0.016267 0.5641582 -0.127546 
-0.265459 0.2340604 -0.009771 -0.173654 
-0.379888 0.3642691 0.4224271 -0.269444 

-0.466563 0.4175416 -0.418130 -0.239451 0.5747897 
0.0512746 0.4357624 -0.485108 0.5707973 0.0169467 
0.2478125 -0.324633 -0.075043 -0.106707 -0.526451 

0.2555276 -0.328165 -0.099965 
0.0799494 -0.139569 0.1284048 
-0.225016 -0.228758 -0.280684 
-0.456654 -0.220176 -0.358346 
0.4442915 0.1372420 -0.201636 

Generation: 26
0.4987325 -0.030670 -0.278747 -0.351155 
0.1075836 -0.447203 -0.368755 -0.111575 
0.4627846 0.1584360 -0.446797 -0.182003 

-0.439940 -0.193185 -0.551432 0.3427664 
-0.485655 0.5077626 0.2008246 -0.329855 
-0.545006 -0.443460 -0.334396 -0.115469 
-0.222482 0.0240792 -0.176915 0.2197525 

0.3857771 0.1785742 0.1057806 -0.524652 
0.4600884 -0.016267 0.1992765 0.2085216 
-0.296739 0.3339091 0.5005823 0.5147399 
0.4204092 -0.155118 0.5197044 -0.269444 

-0.427086 -0.113110 -0.191661 0.5229897 0.5747897 
-0.327997 0.1599684 -0.417122 0.0840897 -0.083467 
0.4764406 0.0534153 0.0280954 -0.205584 0.1917871 

0.0098555 -0.556104 -0.338384 
0.0799494 -0.258365 0.3600926 
0.2062150 -0.566032 -0.054522 
0.1985243 -0.118806 -0.539037 
-0.242473 -0.270157 -0.255797 

-0.277643 -0.265649 0.3793595 0.3538745 
-0.268287 -0.543120 -0.465128 -0.361906 
0.2120166 0.5587125 0.1522969 0.5551213 

0.5693884 0.0774809 -0.133949 0.0855500 
0.0554174 0.3153689 -0.522358 -0.475942 
-0.326873 -0.541440 0.2206310 -0.251239 
0.4945019 0.1400886 -0.106157 -0.310394 

-0.189618 -0.371912 0.2430920 -0.211302 
-0.059706 0.5752582 0.4349703 0.4476884 
-0.234284 0.3830887 -0.009771 0.5280114 
0.2571467 0.3750903 0.2275528 -0.429324 

0.3070554 -0.048598 0.1549599 -0.239451 0.2156664 
-0.162355 0.3025366 -0.299428 -0.191984 0.2083501 
0.4764406 0.0534153 0.0280954 -0.205584 0.1917871 

0.0761431 -0.515645 -0.099965 
0.5387860 -0.467382 0.4779786 
0.2477846 -0.282864 -0.280684 
-0.100342 -0.118806 -0.539037 
0.2964513 0.2857252 -0.545184 

Generation: 27
-0.020886 0.0824453 -0.170850 -0.486246 
0.1262101 0.0373604 -0.238327 0.2605215 
0.5027812 0.0768803 0.2537158 -0.403435 

-0.252426 -0.157956 -0.519419 0.0855500 
-0.053997 0.3153689 0.2957947 -0.179853 
0.4895366 -0.520776 0.3331069 0.5235347 
-0.066476 0.0534882 -0.163030 0.2306066 

-0.359724 -0.300669 0.5424823 0.5548420 
0.1657407 0.1081827 0.1460259 -0.127546 
-0.265459 0.4737031 -0.009771 -0.173654 
0.1286390 0.3642691 0.4224271 0.1544531 

0.0238443 0.4175416 -0.505307 -0.130888 -0.336391 
0.0512746 0.3025366 -0.299428 -0.191984 0.2083501 
0.4764406 0.0534153 0.0280954 -0.205584 0.1917871 

0.0761431 -0.515645 -0.099965 
0.5387860 -0.467382 0.4779786 
0.2477846 -0.404705 0.3952622 
0.4226787 -0.335177 0.5189124 
-0.242473 0.4905679 0.1535469 

0.1310889 0.2296133 0.4852320 0.1207550 
-0.295451 0.3845179 0.2574641 -0.361906 
0.2120166 0.5587125 0.1522969 -0.182003 

0.4542543 -0.109223 0.1946132 0.0855500 
-0.485655 0.5077626 0.2560183 0.1563912 
0.4318479 0.0644212 -0.576883 -0.213142 
0.2100623 0.0240792 -0.294007 -0.208728 

-0.503391 0.4898226 -0.156126 -0.524652 
0.3627548 0.4649133 0.4349703 -0.139461 
-0.188571 -0.080863 0.5005823 0.5280114 
0.2571467 0.3750903 0.2275528 -0.429324 

0.3070554 -0.048598 0.1549599 -0.239451 0.2156664 
-0.162355 0.3025366 -0.299428 -0.191984 0.2083501 
0.4764406 0.0534153 0.0280954 -0.205584 0.1917871 

0.0761431 -0.515645 0.4496367 
0.0294092 0.2868392 0.1284048 
0.1661442 -0.404705 0.3952622 
0.4226787 -0.118806 -0.539037 
0.2964513 0.1372420 -0.135201 

Generation: 28
-0.277643 0.1431938 -0.387547 -0.160903 
0.2159691 -0.018843 0.2590595 -0.210567 
0.0997415 -0.115660 0.2537158 0.5551213 

0.0835834 0.2837531 -0.179626 0.0855500 
-0.053997 0.3153689 0.2957947 -0.179853 
0.4895366 -0.520776 0.3331069 0.5235347 
-0.066476 0.0534882 -0.163030 0.2306066 

-0.359724 -0.300669 0.5424823 0.5548420 
0.1657407 0.1081827 0.1460259 -0.127546 
-0.265459 0.4737031 -0.009771 -0.173654 
0.1286390 0.3642691 0.4224271 0.1544531 

0.0238443 0.4175416 -0.505307 -0.130888 -0.336391 
0.0512746 0.3025366 -0.299428 -0.191984 0.2083501 
0.4764406 0.0534153 0.0280954 -0.205584 0.1917871 

0.0761431 0.3403867 -0.162410 
0.0799494 -0.258365 0.3600926 
0.2062150 0.1664949 0.3327454 
0.4226787 -0.066034 0.5592387 
0.2964513 0.2857252 -0.545184 

-0.349542 -0.056960 0.3793595 0.3538745 
0.1592839 0.3642573 0.2574641 -0.361906 
0.2120166 0.5587125 0.1522969 -0.182003 

-0.252426 -0.157956 -0.519419 -0.046580 
0.5692304 -0.248127 -0.522358 -0.315725 
-0.326873 0.3160261 -0.334396 0.1618396 
0.5109293 -0.093976 -0.544765 -0.208728 

-0.359724 0.4898226 -0.174397 -0.524652 
0.4600884 0.4649133 0.4349703 0.4476884 
-0.234284 0.3830887 0.2784664 0.5147399 
0.4204092 0.5610832 0.5197044 -0.050664 

0.2555634 -0.329997 0.3971866 0.0260761 0.3294670 
0.0512746 -0.205327 0.3387875 0.5707973 0.0169467 
0.2478125 -0.324633 -0.494473 0.5762554 -0.191155 

0.4278100 -0.328165 0.4496367 
0.3235546 -0.258365 -0.316343 
0.2477846 -0.228758 -0.054522 
0.1985243 -0.335177 0.5189124 
-0.242473 -0.270157 -0.255797 

Generation: 29
0.4987325 -0.030670 -0.278747 -0.351155 
0.1075836 -0.447203 0.0330214 0.1392393 
0.0997415 -0.115660 0.2537158 0.5551213 

0.5693884 0.2837531 0.5002456 0.0980584 
0.3940571 0.4918390 0.0161012 0.1563912 
0.4318479 0.0644212 -0.576883 -0.186794 
-0.206923 0.3920104 -0.544765 -0.208728 

-0.359724 0.2045487 -0.156126 -0.524652 
0.3627548 0.4649133 -0.458873 0.0189403 
-0.265459 -0.080863 0.5005823 0.5280114 
0.2571467 -0.103586 0.4224271 -0.269444 

-0.466563 0.4175416 0.3971866 0.0260761 0.3294670 
0.4517734 0.1651139 0.4364329 -0.178361 -0.291272 
0.3194718 0.0790457 -0.494473 0.5762554 -0.043878 

-0.326957 -0.556104 -0.202295 
0.3717804 -0.328521 0.2853623 
-0.502067 -0.082182 -0.320656 
-0.100342 -0.335177 0.5189124 
-0.242473 -0.270157 -0.255797 

0.4987325 -0.030670 -0.387547 -0.160903 
0.1790168 -0.018843 -0.250727 0.2605215 
0.5027812 0.2462156 -0.350997 -0.444282 

-0.252426 -0.157956 -0.519419 0.0855500 
-0.053997 0.3153689 0.2957947 -0.179853 
0.4895366 -0.520776 -0.576883 -0.213142 
0.0928764 0.0240792 -0.294007 -0.325820 

-0.503391 0.1785742 -0.285332 -0.211302 
-0.059706 0.4649133 0.5641582 -0.177834 
-0.296739 0.0606845 -0.006557 0.5147399 
0.4204092 -0.136112 0.5197044 -0.050664 

-0.427086 0.3713183 -0.450186 -0.130888 -0.105883 
-0.327997 0.1651139 -0.260376 -0.191984 0.5235854 
0.4764406 0.0534153 0.1679551 0.5762554 -0.191155 

0.4278100 -0.328165 0.4496367 
0.3235546 -0.258365 -0.316343 
0.2477846 -0.228758 -0.280684 
-0.100342 -0.335177 -0.539037 
-0.242473 -0.270157 -0.255797 

Generation: 30
-0.020886 0.1431938 -0.387547 -0.160903 
0.2159691 -0.018843 0.2590595 -0.210567 
0.0997415 -0.115660 0.2537158 0.5551213 

0.0835834 0.2837531 -0.179626 -0.565317 
-0.053997 0.3153689 0.2957947 -0.179853 
0.4895366 -0.520776 0.3331069 0.5235347 
-0.066476 -0.025566 -0.106157 -0.341022 

-0.189618 0.2902697 0.2430920 0.2052954 
0.1657407 0.1081827 -0.421371 -0.127546 
-0.265459 0.1754169 0.5570366 -0.173654 
-0.379888 0.3642691 0.4224271 -0.269444 

0.0238443 0.4175416 -0.418130 -0.239451 0.5747897 
0.0512746 0.4357624 -0.485108 0.5707973 0.0169467 
0.2478125 -0.324633 0.0280954 0.5762554 -0.191155 

0.1272176 -0.171818 0.4496367 
0.3717804 -0.506375 0.4374941 
0.4859099 -0.282864 -0.054522 
-0.100342 -0.335177 0.5189124 
-0.242473 0.4905679 0.1535469 

-0.277643 0.1431938 -0.387547 -0.160903 
0.2159691 -0.018843 -0.489697 0.2605215 
0.5027812 0.2462156 -0.350997 -0.444282 

-0.252426 -0.157956 -0.519419 0.0855500 
-0.053997 0.3153689 0.2957947 -0.179853 
0.4895366 -0.520776 0.3331069 0.5235347 
-0.066476 -0.025566 0.2409507 0.2306066 

-0.359724 -0.300669 0.1220715 -0.524652 
0.3627548 0.5752582 -0.458873 0.0189403 
-0.242227 -0.080863 0.5005823 0.5280114 
0.2571467 0.3642691 0.4224271 -0.269444 

-0.466563 0.4175416 -0.418130 -0.560975 0.5747897 
0.0512746 0.4357624 -0.299428 -0.191984 0.2083501 
0.4764406 0.0790457 0.4387065 0.5762554 -0.191155 

0.4278100 -0.328165 0.2146507 
0.2876037 -0.506375 -0.177251 
0.4859099 -0.529908 -0.054522 
-0.100342 -0.335177 -0.539037 
0.2964513 0.2857252 -0.545184 

Generation: 31
0.4987325 -0.188777 0.0384510 -0.233772 
0.1262101 0.0373604 -0.238327 0.2605215 
0.5027812 0.0768803 0.4091088 -0.297009 

-0.439940 -0.193185 -0.551432 0.5230706 
-0.485283 0.4918390 0.0161012 -0.315725 
0.4318479 0.0644212 -0.576883 0.5461652 
0.5109293 -0.093976 0.5618041 -0.208728 

-0.503391 0.4898226 0.4575077 -0.544868 
0.4600884 0.4649133 0.4349703 0.4980775 
-0.296739 0.5648961 0.5122875 0.3120771 
-0.433507 -0.017658 0.3665224 0.1544531 

0.0238443 0.4175416 -0.450186 0.3626189 -0.371746 
-0.327997 0.4473418 0.4364329 -0.191984 0.5235854 
0.4764406 0.0534153 0.1679551 0.5762554 -0.191155 

0.0761431 0.2367409 0.4496367 
-0.079105 -0.258365 -0.316343 
0.2477846 -0.228758 0.5512690 
-0.100342 -0.335177 0.5189124 
-0.242473 -0.270157 -0.255797 

-0.020886 0.0824453 -0.170850 -0.486246 
0.1262101 0.0373604 -0.238327 0.2605215 
0.5027812 0.0768803 0.5100677 -0.403435 

-0.252426 -0.157956 -0.519419 0.0855500 
-0.053997 0.4918390 0.0448014 0.0368593 
0.0629924 -0.443460 -0.334396 -0.213142 
0.2158235 -0.401374 -0.106157 -0.310394 

-0.503391 0.4898226 -0.174397 -0.524652 
-0.529029 0.5752582 -0.458873 0.0189403 
-0.242227 0.2057058 0.5005823 0.5280114 
0.2571467 0.3642691 0.4224271 -0.269444 

-0.466563 0.4175416 -0.418130 -0.560975 0.5747897 
0.0512746 0.4357624 -0.299428 -0.191984 0.2083501 
0.4764406 0.0790457 0.4387065 0.5762554 -0.191155 

0.4278100 -0.328165 0.2146507 
0.0799494 -0.258365 0.4779786 
0.2477846 -0.404705 0.3952622 
0.4226787 -0.335177 0.5189124 
-0.242473 0.4905679 0.1535469 

Generation: 32
0.1310889 -0.030670 -0.278747 -0.351155 
0.2159691 0.3642573 0.0330214 0.1392393 
0.0997415 -0.115660 0.2537158 0.5551213 

-0.439940 0.2578061 0.2728989 0.1102825 
0.4604375 0.5265431 0.2560183 0.1563912 
0.5291928 -0.541440 0.3141308 0.2791421 
0.4945019 -0.112776 0.1682663 -0.325820 

-0.133965 -0.045385 0.5599234 -0.524652 
0.3627548 0.4649133 -0.458873 0.0189403 
-0.265459 -0.080863 0.5005823 0.5280114 
0.2571467 -0.103586 0.4224271 -0.463973 

-0.427086 0.3713183 -0.450186 0.3626189 -0.384530 
-0.162355 0.3025366 -0.299428 -0.191984 0.2083501 
0.4764406 0.0534153 0.0280954 -0.205584 0.1917871 

0.1272176 -0.171818 0.4496367 
0.3717804 0.1815113 -0.177251 
-0.062866 -0.103375 -0.054522 
-0.307338 -0.559263 -0.481597 
0.4442915 0.1372420 -0.201636 

0.4987325 -0.030670 -0.387547 -0.160903 
0.2159691 -0.018843 -0.489697 0.2605215 
0.5027812 0.0768803 0.4091088 -0.297009 

-0.439940 -0.193185 -0.551432 0.5230706 
-0.485283 0.4918390 0.0161012 -0.315725 
0.4318479 0.0644212 -0.576883 0.5461652 
0.5109293 -0.093976 0.5618041 -0.208728 

-0.503391 0.4898226 0.4575077 -0.544868 
0.4600884 0.4649133 0.4349703 0.4980775 
-0.296739 0.5648961 0.5122875 0.3120771 
0.4658928 -0.017658 0.3665224 0.1544531 

0.0238443 0.4175416 -0.450186 0.3626189 -0.371746 
0.0512746 0.4357624 -0.299428 -0.191984 0.2083501 
-0.069093 0.0790457 -0.379511 -0.205584 0.1917871 

-0.474407 -0.171818 0.4496367 
0.3717804 -0.328521 0.1284048 
0.1661442 -0.404705 0.3952622 
0.4226787 -0.118806 -0.539037 
0.2964513 -0.270157 -0.255797 

Generation: 33
0.4987325 -0.030670 -0.387547 -0.160903 
0.1790168 -0.018843 0.2574641 -0.361906 
-0.045423 0.5587125 0.2537158 0.5551213 

0.0835834 0.2837531 -0.179626 0.1102825 
0.4604375 0.5265431 0.2560183 0.1563912 
0.5291928 -0.541440 0.3141308 0.2791421 
0.4945019 -0.112776 0.1682663 -0.325820 

-0.133965 -0.045385 0.5599234 -0.524652 
0.3627548 0.4649133 -0.458873 0.0189403 
-0.265459 -0.080863 0.5005823 0.5280114 
0.2571467 -0.103586 0.4224271 -0.463973 

-0.427086 0.3713183 -0.450186 0.3626189 -0.384530 
-0.162355 0.3025366 -0.299428 -0.191984 0.2083501 
0.4764406 0.0534153 0.0280954 -0.205584 0.1917871 

0.1272176 -0.171818 0.4496367 
0.3717804 0.1815113 -0.177251 
0.2477846 -0.228758 -0.280684 
-0.100342 -0.335177 -0.539037 
-0.242473 -0.270157 -0.255797 

0.1310889 -0.030670 -0.278747 -0.351155 
0.1514477 0.3642573 0.0330214 0.1392393 
0.0997415 -0.115660 0.2537158 0.5551213 

0.5693884 0.2837531 -0.556619 0.1102825 
0.4604375 0.5265431 0.2008246 -0.329855 
-0.326873 -0.541440 0.3141308 -0.213142 
-0.222482 0.0240792 -0.176915 -0.310394 

-0.561923 0.2410760 0.2430920 0.0704364 
-0.529029 -0.016267 0.1992765 0.2085216 
-0.296739 0.5648961 -0.416140 0.0255026 
-0.379888 0.3642691 -0.301068 -0.269444 

0.0238443 0.4175416 -0.418130 -0.239451 0.5747897 
0.0512746 0.4357624 -0.485108 -0.191984 0.2083501 
0.4764406 0.0534153 0.0280954 0.5762554 -0.408024 

0.0098555 -0.556104 -0.338384 
0.0799494 -0.258365 0.3600926 
0.2062150 -0.566032 -0.054522 
0.1985243 -0.118806 -0.539037 
0.4442915 0.1372420 -0.201636 

Generation: 34
0.4987325 -0.030670 -0.278747 0.0197017 
-0.434227 0.3845179 0.2590595 0.2542936 
0.0997415 -0.115660 -0.298730 -0.403435 

0.4656205 -0.193185 -0.551432 0.0855500 
-0.485655 0.5077626 0.2560183 0.1563912 
0.4318479 -0.541440 0.3331069 0.2726882 
-0.066476 -0.025566 0.2409507 0.2306066 

-0.359724 -0.300669 0.5424823 -0.524652 
-0.059706 -0.232577 0.4349703 -0.455628 
-0.234284 0.3830887 -0.009771 0.0255026 
-0.379888 0.5610832 0.5613294 0.1544531 

0.0238443 0.4175416 -0.418130 -0.239451 0.5747897 
0.0512746 0.4357624 -0.485108 0.5707973 0.0169467 
0.2478125 -0.324633 -0.494473 -0.383669 0.1917871 

0.0761431 0.3403867 -0.162410 
0.0799494 -0.258365 0.4779786 
0.2477846 -0.282864 -0.054522 
0.4226787 -0.066034 0.5592387 
-0.242473 -0.270157 -0.255797 

0.4987325 -0.030670 -0.278747 -0.486246 
0.1262101 0.3111340 -0.368755 -0.111575 
0.0997415 -0.086326 0.2537158 0.5551213 

0.0835834 0.2837531 -0.179626 0.0855500 
-0.485283 0.4918390 0.0161012 -0.315725 
0.4318479 0.2885216 -0.576883 -0.213142 
0.0928764 0.0240792 -0.544765 -0.208728 

-0.359724 0.4898226 -0.156126 -0.524652 
0.3627548 0.4649133 -0.458873 0.2085216 
-0.265459 -0.080863 -0.006557 -0.436741 
0.0330155 0.5333983 -0.349028 0.1544531 

0.0238443 0.4175416 -0.505307 -0.130888 -0.105883 
0.0512746 -0.205327 -0.417122 0.0737778 0.3592559 
0.4764406 0.0534153 0.1679551 0.5762554 -0.191155 

0.4278100 -0.328165 0.2146507 
0.2876037 -0.506375 -0.177251 
0.2477846 -0.228758 -0.280684 
-0.100342 -0.335177 -0.539037 
-0.242473 -0.270157 -0.255797 

Generation: 35
0.4987325 -0.030670 -0.278747 0.0197017 
-0.434227 0.3845179 0.2590595 0.2542936 
0.0997415 -0.196179 -0.298730 -0.403435 

0.4656205 -0.193185 -0.551432 0.0855500 
-0.485655 0.5077626 0.2560183 0.1563912 
0.4318479 -0.541440 0.3331069 0.2726882 
-0.066476 -0.025566 0.2409507 0.2306066 

-0.359724 -0.300669 0.5424823 -0.524652 
-0.059706 -0.232577 0.4349703 -0.455628 
-0.234284 0.3830887 -0.009771 0.0255026 
-0.379888 0.5610832 0.5613294 0.1544531 

0.0238443 0.4175416 -0.450186 0.3626189 -0.371746 
-0.327997 -0.205327 0.2097737 -0.191984 0.5235854 
0.4764406 -0.324633 -0.494473 -0.383669 0.1917871 

0.0761431 0.3403867 -0.162410 
0.0799494 -0.258365 0.4779786 
0.2477846 -0.282864 -0.347853 
0.4226787 -0.066034 0.5592387 
-0.242473 -0.270157 -0.255797 

-0.277643 0.1156391 -0.387547 -0.160903 
0.2159691 -0.018843 0.2590595 0.2542936 
0.0997415 -0.115660 -0.298730 0.5551213 

0.0835834 0.2837531 -0.179626 0.0855500 
0.4604375 0.3153689 0.2957947 -0.179853 
0.4895366 -0.520776 0.3331069 0.5235347 
-0.066476 -0.025566 0.2409507 0.2306066 

-0.359724 -0.300669 0.5424823 -0.524652 
-0.529029 -0.016267 -0.458873 0.0189403 
-0.242227 0.4585495 0.0758023 -0.436741 
-0.379888 0.3750903 0.2275528 -0.050664 

-0.427086 0.3713183 -0.450186 0.3626189 -0.384530 
-0.033168 0.2035491 -0.424172 -0.487046 0.2083501 
0.4764406 0.0534153 0.0280954 0.5762554 -0.456094 

0.3208412 -0.051857 0.2146507 
0.2876037 -0.506375 -0.177251 
-0.185339 -0.404705 -0.054522 
0.4226787 -0.066034 0.5592387 
0.2964513 0.2857252 -0.545184 

Generation: 36
0.4987325 -0.030670 -0.387547 -0.160903 
0.1790168 -0.018843 0.2574641 0.1392393 
-0.045423 0.5587125 0.1522969 -0.182003 

0.4542543 -0.109223 -0.556619 0.1102825 
0.3654244 0.5265431 0.2008246 0.1563912 
-0.326873 -0.541440 -0.454132 -0.213142 
0.2158235 0.5117536 0.2409507 0.4649423 

0.5065555 0.2902697 0.2430920 0.2052954 
0.1657407 0.1081827 -0.458873 0.0189403 
0.3276201 0.4585495 0.0758023 -0.436741 
0.1286390 0.2701879 -0.349028 0.0854663 

0.0238443 0.3713183 -0.450186 0.3626189 -0.371746 
-0.327997 0.1651139 0.4364329 -0.191984 0.5235854 
0.4764406 -0.324633 0.3224361 -0.205584 0.1531219 

0.0761431 -0.328165 0.2146507 
-0.294003 0.0491258 0.3600926 
0.4151925 -0.228758 -0.280684 
-0.100342 -0.335177 -0.539037 
-0.242473 -0.270157 -0.255797 

0.4987325 -0.030670 -0.387547 -0.160903 
0.2159691 -0.018843 -0.465128 -0.361906 
0.2120166 0.5587125 0.1522969 -0.182003 

0.4542543 -0.109223 0.1946132 0.0855500 
0.1684732 0.5077626 0.2560183 0.1563912 
0.4318479 0.0644212 -0.576883 -0.186794 
-0.100669 0.3920104 -0.544765 -0.208728 

-0.359724 0.4898226 -0.156126 -0.524652 
-0.319135 0.4649133 -0.458873 0.0189403 
0.3832106 -0.080863 0.5005823 0.5280114 
0.2571467 0.3642691 0.4224271 -0.374550 

-0.466563 0.4175416 -0.418130 0.3626189 -0.384530 
-0.033168 -0.081909 -0.299428 -0.191984 0.2083501 
0.4764406 0.0534153 0.0280954 0.5762554 -0.043878 

0.0098555 -0.121317 -0.099965 
0.0799494 -0.139569 0.1284048 
-0.225016 -0.228758 -0.280684 
0.1985243 -0.222517 0.5189124 
-0.242473 -0.270157 -0.255797 

Generation: 37
0.4987325 -0.030670 -0.387547 -0.160903 
0.2159691 -0.018843 -0.465128 -0.361906 
0.2120166 0.5587125 0.1522969 -0.182003 

0.4542543 -0.109223 0.1946132 -0.263968 
0.3654244 0.5265431 0.2008246 0.1563912 
-0.326873 -0.541440 -0.454132 -0.213142 
0.2158235 0.5117536 0.2409507 0.4649423 

0.5065555 0.2902697 0.2430920 0.2052954 
0.1657407 0.1081827 -0.458873 0.0189403 
0.3276201 0.4585495 0.0758023 -0.086955 
0.1286390 0.2701879 -0.349028 0.0854663 

0.0238443 0.3713183 -0.450186 0.3626189 -0.371746 
-0.327997 0.1651139 0.4364329 -0.191984 0.2083501 
0.4764406 0.0534153 0.0280954 0.5762554 -0.408024 

0.0761431 0.2367409 -0.099965 
0.0799494 0.1304884 0.1284048 
-0.225016 -0.228758 -0.280684 
0.1985243 -0.222517 0.5189124 
-0.242473 -0.270157 -0.255797 

0.4987325 -0.188777 -0.278747 -0.351155 
0.1075836 -0.447203 0.0330214 0.1392393 
0.5027812 -0.115660 0.2537158 0.5551213 

0.5693884 0.2837531 -0.556619 0.1102825 
0.4604375 0.5265431 0.2008246 0.2655007 
0.4611752 -0.541440 0.3141308 -0.213142 
0.2158235 0.0240792 0.2409507 0.2306066 

-0.359724 -0.155365 0.1220715 -0.524652 
0.3627548 0.5752582 -0.458873 0.2085216 
-0.296739 0.5648961 -0.006557 -0.436741 
0.2571467 0.3642691 0.4224271 -0.374550 

-0.466563 0.4175416 -0.418130 -0.239451 -0.384530 
-0.033168 0.2035491 -0.424172 -0.487046 0.2083501 
0.4764406 0.0534153 0.0280954 0.5762554 -0.456094 

0.3208412 -0.051857 0.2146507 
0.2876037 -0.506375 -0.177251 
-0.185339 -0.404705 -0.054522 
0.4226787 -0.066034 0.5189124 
-0.242473 -0.270157 -0.255797 

Generation: 38
0.4987325 -0.030670 -0.387547 -0.160903 
0.2159691 -0.018843 -0.486072 -0.361906 
0.2120166 0.5587125 -0.235859 -0.182003 

0.4542543 -0.109223 0.1946132 0.0855500 
0.1684732 0.5077626 0.0161012 -0.315725 
-0.326873 0.2885216 0.3141308 -0.213142 
-0.222482 -0.564999 -0.106157 0.2306066 

-0.359724 -0.155365 0.1220715 -0.524652 
0.3627548 0.5752582 0.4349703 -0.455628 
-0.234284 0.3830887 -0.009771 0.3150451 
-0.379888 0.3642691 0.4224271 0.2335603 

0.0238443 0.0884594 -0.505307 0.4780492 -0.384530 
-0.033168 0.4357624 -0.485108 -0.406687 0.0169467 
0.2478125 -0.324633 0.0280954 0.2303244 0.1917871 

0.0761431 0.3403867 -0.162410 
0.0799494 0.4171994 -0.316343 
0.2477846 -0.228758 -0.280684 
-0.238877 -0.335177 -0.539037 
-0.242473 -0.270157 -0.255797 

0.1310889 -0.030670 -0.278747 -0.351155 
0.1075836 0.3642573 0.0330214 0.1392393 
0.5027812 -0.115660 0.2537158 -0.413297 

0.5693884 0.2837531 -0.556619 0.1102825 
0.4604375 0.5265431 0.0161012 -0.329855 
0.0629924 0.2885216 -0.576883 -0.213142 
0.0928764 0.0240792 -0.106157 -0.325820 

-0.133965 0.2410760 -0.156126 -0.455532 
0.4600884 0.4649133 0.5641582 -0.177834 
-0.296739 0.0606845 -0.006557 -0.436741 
0.3506663 0.3642691 0.4224271 -0.269444 

0.0238443 0.0464801 -0.505307 -0.130888 -0.105883 
0.0512746 0.3025366 -0.299428 -0.275015 0.2083501 
0.3519042 0.3493774 0.1679551 0.5762554 0.1917871 

0.0761431 -0.515645 0.4496367 
0.3717804 -0.258365 0.1284048 
0.5665188 0.5287175 -0.054522 
-0.307338 -0.559263 -0.481597 
0.4442915 0.1372420 -0.201636 

Generation: 39
0.1310889 -0.030670 -0.278747 -0.160903 
0.2159691 -0.018843 0.2590595 -0.111575 
0.0541838 0.0768803 -0.007772 -0.536657 

-0.252426 -0.157956 0.0804677 0.0855500 
-0.485283 0.4918390 0.2008246 -0.329855 
-0.258252 -0.541440 0.3141308 -0.213142 
0.4364380 -0.025566 0.2409507 0.2306066 

-0.359724 0.2410760 -0.156126 -0.455532 
0.5676283 -0.232577 0.4349703 -0.455628 
-0.234284 0.3830887 -0.009771 0.3150451 
0.0330155 0.5333983 -0.349028 0.1544531 

0.0238443 -0.379572 -0.450186 0.3626189 -0.384530 
-0.033168 0.2035491 -0.424172 -0.487046 0.5235854 
0.4764406 -0.324633 0.4387065 0.5762554 -0.043878 

0.0098555 -0.556104 0.2399491 
0.5387860 -0.467382 0.4779786 
0.4859099 -0.282864 0.1372201 
-0.502599 -0.118806 0.5189124 
-0.242473 0.1372420 -0.201636 

0.4987325 -0.030670 -0.278747 -0.486246 
0.1262101 0.0594928 0.5553620 0.1392393 
0.5027812 -0.115660 0.2537158 -0.536657 

-0.252426 -0.157956 -0.519419 0.0980584 
0.4604375 0.5265431 0.0161012 -0.329855 
0.0629924 0.2885216 -0.157912 -0.213142 
0.0928764 0.0240792 0.2409507 0.2306066 

-0.359724 -0.155365 0.1220715 -0.524652 
0.3627548 0.5752582 -0.458873 0.0189403 
-0.296739 0.0723551 -0.006557 -0.173654 
0.1045699 0.3642691 -0.349028 0.0854663 

0.2506110 0.0464801 -0.505307 -0.130888 -0.105883 
0.0512746 0.3025366 -0.299428 -0.191984 0.2083501 
0.4764406 -0.324633 0.0280954 0.5762554 0.1917871 

0.0761431 0.3403867 -0.162410 
0.0799494 -0.258365 -0.316343 
0.4151925 -0.228758 -0.280684 
-0.100342 -0.335177 -0.539037 
-0.242473 -0.270157 -0.255797 

Generation: 40
0.4987325 -0.195109 -0.387547 -0.160903 
0.2159691 -0.018843 -0.486072 -0.361906 
0.2120166 0.5587125 -0.235859 -0.182003 

0.4542543 -0.109223 0.1946132 0.0855500 
0.1684732 0.5077626 0.0161012 -0.315725 
-0.326873 0.2885216 0.3141308 -0.213142 
-0.222482 -0.564999 -0.106157 0.2306066 

-0.359724 -0.155365 0.1220715 -0.524652 
0.3627548 0.5752582 0.4349703 -0.127546 
-0.234284 0.3830887 -0.009771 0.3150451 
-0.379888 0.3642691 0.4224271 0.2335603 

0.0238443 0.0884594 -0.505307 0.4780492 -0.384530 
-0.033168 0.4357624 -0.485108 -0.406687 0.0169467 
0.2478125 -0.324633 0.0280954 0.2303244 0.1917871 

0.0761431 0.3403867 -0.162410 
0.0799494 0.4171994 -0.316343 
0.2477846 -0.228758 -0.280684 
-0.238877 -0.335177 -0.539037 
-0.242473 -0.270157 -0.255797 

0.4987325 -0.030670 -0.278747 -0.486246 
0.1262101 0.3111340 -0.368755 -0.111575 
0.0997415 -0.086326 0.2537158 0.5551213 

0.0835834 0.2837531 -0.179626 0.0855500 
0.4604375 0.5265431 0.0161012 -0.329855 
0.0629924 -0.541440 -0.454132 -0.213142 
-0.417666 0.5117536 0.2409507 0.4649423 

0.5065555 0.2902697 0.2430920 0.0490779 
0.1657407 0.1081827 -0.458873 0.0189403 
-0.234284 0.3830887 -0.009771 0.3150451 
0.3506663 0.3642691 0.4224271 -0.269444 

0.0238443 0.0464801 -0.505307 0.4780492 -0.384530 
0.0512746 -0.205327 -0.417122 0.0737778 0.3592559 
0.4764406 0.0534153 0.0280954 0.5762554 -0.408024 

0.0761431 0.5290120 0.2146507 
-0.294003 0.0491258 0.3600926 
0.4151925 -0.228758 -0.280684 
0.1985243 -0.222517 0.0157601 
-0.242473 -0.216457 -0.255797 

Generation: 41
0.4987325 -0.195109 -0.387547 -0.160903 
0.2159691 -0.018843 -0.486072 -0.361906 
0.2120166 -0.537364 -0.235859 -0.182003 

0.4542543 -0.109223 0.1946132 0.0855500 
0.1684732 0.5077626 0.0161012 -0.315725 
-0.326873 0.2885216 0.3141308 -0.213142 
-0.417666 0.5117536 0.2409507 0.4649423 

-0.359724 -0.155365 0.1220715 -0.524652 
0.3627548 0.5752582 0.4349703 -0.127546 
-0.234284 0.3830887 -0.009771 0.3150451 
-0.379888 0.3642691 0.4224271 0.2335603 

0.0238443 0.0884594 -0.505307 0.4780492 -0.384530 
-0.033168 0.4357624 -0.485108 -0.406687 0.0169467 
0.2478125 -0.324633 0.0280954 0.2303244 0.1917871 

0.0761431 0.3403867 -0.162410 
0.0799494 0.4171994 -0.316343 
0.2477846 -0.228758 -0.280684 
-0.238877 -0.335177 -0.539037 
-0.242473 -0.270157 -0.255797 

0.1310889 -0.030670 -0.278747 -0.351155 
0.1075836 0.3642573 0.0330214 0.1392393 
0.5027812 0.5587125 -0.235859 -0.182003 

0.4542543 -0.109223 0.1946132 0.0855500 
0.1684732 0.5077626 0.0161012 -0.315725 
-0.326873 0.2885216 0.3141308 -0.213142 
-0.222482 -0.564999 -0.106157 0.2306066 

-0.359724 -0.155365 0.1220715 -0.524652 
0.3627548 0.5752582 0.4349703 -0.127546 
-0.234284 0.3830887 -0.009771 0.3150451 
-0.379888 0.3642691 -0.349028 0.0854663 

0.0238443 0.3713183 -0.129770 0.3626189 -0.384530 
-0.033168 0.1651139 -0.417122 -0.502580 0.3592559 
0.4764406 -0.324633 0.0280954 0.2303244 0.1917871 

0.0761431 0.3403867 -0.162410 
0.0799494 0.4171994 -0.316343 
0.2477846 0.5287175 -0.054522 
-0.414629 -0.559263 -0.481597 
0.4442915 0.1372420 -0.201636 

Generation: 42
0.4987325 -0.195109 -0.387547 -0.160903 
0.2159691 -0.018843 -0.486072 -0.361906 
0.2120166 -0.537364 -0.235859 -0.182003 

0.4542543 -0.109223 0.1946132 0.5230706 
-0.485283 0.4918390 0.0161012 -0.315725 
-0.326873 0.2885216 0.3141308 -0.213142 
-0.417666 0.5117536 0.2409507 0.4649423 

-0.359724 -0.155365 0.1220715 -0.524652 
0.3627548 0.5752582 0.4349703 -0.127546 
-0.234284 0.3830887 -0.009771 0.3150451 
-0.379888 0.3642691 0.4224271 0.2335603 

0.0238443 0.0884594 -0.505307 0.4780492 -0.384530 
-0.033168 0.4357624 -0.485108 -0.406687 0.0169467 
0.2478125 -0.324633 0.0280954 0.2303244 0.1917871 

0.0761431 0.3403867 -0.162410 
0.0799494 0.4171994 -0.316343 
0.2477846 -0.228758 -0.280684 
-0.238877 -0.335177 -0.539037 
-0.242473 -0.270157 -0.255797 

0.1310889 -0.030670 -0.278747 -0.160903 
0.2159691 -0.018843 -0.465128 -0.361906 
0.2120166 0.5587125 0.1522969 -0.182003 

-0.252426 -0.157956 -0.519419 0.0855500 
-0.053997 0.3153689 0.2957947 -0.179853 
-0.190228 -0.541440 0.3141308 -0.213142 
0.4364380 -0.025566 0.2409507 0.2306066 

-0.359724 0.2410760 -0.375527 -0.455532 
0.5510244 -0.232577 0.4349703 -0.455628 
-0.234284 0.3830887 -0.009771 0.3150451 
0.0330155 0.5333983 -0.349028 0.1544531 

0.0238443 -0.379572 -0.450186 0.3626189 -0.384530 
-0.033168 0.2035491 -0.424172 -0.487046 0.5235854 
0.4764406 0.0534153 0.4467872 0.5762554 -0.153170 

-0.033074 -0.051857 -0.338384 
0.2293765 0.0491258 0.3600926 
0.4859099 -0.282864 0.1372201 
-0.502599 -0.118806 0.5189124 
-0.242473 0.1372420 -0.201636 

Generation: 43
0.4987325 -0.030670 -0.387547 -0.160903 
0.2159691 -0.018843 -0.465128 0.3366578 
0.5027812 0.3807347 0.2537158 0.5551213 

0.0317255 0.2837531 -0.556619 0.5230706 
-0.485283 0.5265431 0.0161012 -0.329855 
0.0629924 0.2885216 -0.576883 -0.213142 
-0.066476 -0.025566 0.2409507 0.2306066 

-0.133965 0.2410760 -0.156126 0.1061849 
0.3559950 -0.232577 0.4349703 0.0189403 
0.3276201 -0.366668 0.0758023 -0.436741 
0.3347230 -0.111639 -0.349028 0.0854663 

0.0238443 0.3713183 -0.450186 0.3626189 -0.371746 
-0.327997 0.1651139 0.4364329 -0.191984 -0.015564 
-0.264817 0.0534153 0.0280954 0.5762554 -0.285756 

0.3208412 -0.051857 -0.338384 
-0.294003 -0.435309 0.3600926 
0.4859099 0.2739326 -0.280684 
0.1985243 -0.222517 0.5189124 
-0.242473 -0.270157 -0.255797 

0.4987325 -0.030670 -0.278747 -0.351155 
0.2159691 0.3642573 -0.465128 -0.361906 
0.2120166 0.5587125 0.1522969 -0.182003 

-0.252426 0.2837531 -0.556619 0.0855500 
-0.053997 0.4918390 0.0161012 -0.315725 
0.4318479 0.0644212 -0.576883 -0.186794 
-0.100669 -0.025566 0.2409507 0.2306066 

-0.359724 -0.155365 0.5424823 -0.545398 
0.3859723 -0.016267 -0.458873 0.0189403 
-0.234284 0.3830887 -0.009771 0.3150451 
0.3506663 0.2701879 -0.349028 0.0854663 

0.0238443 0.0464801 -0.505307 -0.133751 -0.371746 
-0.327997 0.3025366 -0.299428 -0.191984 0.0169467 
0.4764406 0.0534153 -0.494473 -0.452074 -0.043878 

-0.318746 0.3403867 -0.162410 
0.0799494 -0.139569 0.1284048 
-0.225016 -0.228758 -0.280684 
0.5023673 -0.222517 0.5189124 
0.4442915 -0.270157 -0.255797 

Generation: 44
0.4987325 -0.195109 -0.387547 -0.160903 
0.2159691 0.0033953 -0.486072 -0.361906 
0.5027812 0.0768803 0.5100677 -0.403435 

-0.252426 -0.157956 -0.519419 -0.390567 
-0.122238 0.5077626 0.2560183 0.1563912 
0.4318479 -0.541440 0.3141308 -0.213142 
-0.222482 -0.564999 -0.106157 -0.325820 

-0.133965 0.2410760 -0.156126 -0.295165 
0.3559950 -0.232577 0.4349703 0.0189403 
0.3276201 -0.366668 0.0758023 -0.436741 
0.3347230 0.2701879 -0.349028 0.0854663 

0.0238443 0.3713183 -0.450186 0.3626189 -0.371746 
-0.327997 0.1651139 0.4364329 -0.191984 0.5235854 
0.4764406 -0.324633 0.3224361 -0.205584 0.1531219 

0.0761431 -0.328165 -0.162410 
0.0799494 0.4171994 -0.316343 
0.2477846 -0.228758 -0.280684 
-0.238877 -0.335177 -0.539037 
-0.242473 -0.270157 -0.255797 

0.4987325 -0.030670 -0.387547 -0.351155 
-0.434227 -0.522673 0.0131616 -0.111575 
0.3477818 0.0768803 -0.007772 -0.182003 

0.4542543 -0.109223 0.0804677 0.0855500 
-0.485283 0.4918390 -0.079835 -0.315725 
0.3723042 0.2885216 0.3331069 0.5235347 
-0.066476 -0.564999 -0.106157 -0.341022 

0.0271426 -0.371912 -0.156126 -0.524652 
0.3559950 -0.232577 0.4349703 0.0189403 
0.3276201 0.4585495 -0.006557 -0.436741 
0.3347230 -0.111639 -0.349028 0.0854663 

0.0238443 0.3713183 -0.450186 0.3626189 -0.371746 
-0.327997 0.1651139 0.4364329 -0.191984 0.5235854 
-0.541650 0.0534153 0.3224361 -0.205584 0.1531219 

0.0761431 -0.328165 -0.338384 
0.0799494 0.3235459 0.3600926 
0.2062150 -0.566032 -0.280684 
0.4413002 -0.335177 -0.539037 
-0.242473 -0.270157 -0.255797 

Generation: 45
0.4987325 -0.030670 -0.160604 -0.160903 
0.1790168 -0.018843 0.2574641 -0.361906 
0.5027812 0.5587125 -0.235859 -0.182003 

0.4542543 -0.109223 0.1946132 0.0855500 
0.1684732 -0.306857 0.0161012 -0.329855 
0.0629924 0.0279560 -0.576883 -0.213142 
-0.066476 -0.025566 0.2409507 0.2306066 

-0.133965 0.2410760 -0.156126 -0.524652 
0.3559950 -0.232577 0.4349703 0.0189403 
0.3276201 -0.366668 0.0758023 -0.436741 
0.3347230 0.3642691 0.4224271 0.0854663 

0.0238443 0.3713183 -0.416860 -0.165288 -0.384530 
-0.033168 -0.081909 -0.299428 -0.191984 0.2083501 
0.4764406 0.0534153 0.0280954 0.5762554 0.1917871 

-0.318746 0.3403867 -0.162410 
0.0799494 -0.258365 0.3600926 
0.4151925 -0.228758 -0.280684 
-0.100342 -0.335177 -0.539037 
-0.242473 -0.270157 -0.255797 

0.4987325 -0.068981 -0.387547 -0.160903 
0.1790168 -0.555179 0.2574641 -0.361906 
0.5027812 0.3807347 0.2537158 0.5551213 

-0.252426 -0.109223 0.0804677 0.0855500 
-0.485283 0.4918390 -0.079835 -0.315725 
0.0629924 0.2885216 -0.576883 -0.213142 
-0.066476 -0.025566 0.2409507 0.2306066 

-0.133965 0.2410760 -0.156126 -0.524652 
0.3559950 -0.232577 0.4349703 0.0189403 
0.3276201 -0.366668 0.0758023 -0.436741 
0.3347230 0.2701879 -0.349028 0.0854663 

0.0238443 0.3713183 -0.450186 0.3626189 -0.371746 
-0.327997 0.1651139 0.4364329 -0.191984 0.5235854 
0.4764406 -0.324633 -0.211397 -0.205584 0.1917871 

0.0761431 0.2367409 -0.338384 
-0.294003 -0.435309 0.3600926 
0.4859099 -0.282864 -0.280684 
0.1985243 -0.222517 0.3442711 
-0.242473 -0.270157 -0.255797 

Generation: 46
0.1310889 -0.030670 -0.278747 -0.351155 
0.2159691 0.3642573 0.0330214 -0.111575 
-0.548291 0.0768803 -0.007772 -0.536657 

0.5693884 -0.157956 0.0804677 0.0855500 
-0.485283 0.4918390 -0.079835 -0.315725 
0.4895366 0.2885216 0.3141308 -0.213142 
-0.066476 -0.025566 0.2409507 0.2306066 

-0.133965 0.2410760 -0.156126 -0.524652 
0.3559950 -0.232577 0.1992765 0.2085216 
-0.290248 -0.366668 0.0758023 -0.436741 
0.3347230 -0.111639 -0.349028 0.0854663 

0.0238443 -0.012476 -0.505307 -0.130888 -0.105883 
0.0512746 0.3025366 -0.235541 -0.191984 0.2083501 
0.4764406 0.3249786 0.0280954 0.5762554 0.1917871 

0.0761431 0.3403867 -0.162410 
0.0799494 0.4171994 -0.316343 
0.2477846 -0.228758 -0.280684 
-0.238877 -0.335177 -0.539037 
0.4442915 0.1372420 -0.201636 

0.4987325 -0.068981 -0.387547 -0.160903 
0.1790168 -0.018843 0.2574641 -0.361906 
0.5027812 0.5587125 -0.235859 -0.182003 

0.4542543 -0.109223 0.1946132 0.0855500 
0.1684732 0.5077626 0.0161012 -0.329855 
0.0629924 0.2885216 -0.576883 -0.213142 
-0.066476 -0.025566 0.2409507 0.2306066 

-0.133965 0.2410760 -0.156126 -0.524652 
0.3559950 -0.232577 0.1992765 0.2085216 
-0.290248 -0.366668 0.0758023 -0.436741 
0.3347230 0.2701879 -0.349028 0.0854663 

0.0238443 0.3713183 -0.450186 0.3626189 -0.371746 
-0.327997 0.1651139 0.4364329 -0.191984 0.5235854 
0.2478125 0.0534153 -0.371337 0.0480858 0.1917871 

-0.318746 0.3403867 -0.162410 
0.0799494 -0.258365 -0.316343 
0.2477846 -0.228758 -0.280684 
-0.100342 -0.335177 -0.539037 
-0.242473 -0.270157 -0.255797 

Generation: 47
0.1310889 -0.030670 -0.278747 -0.351155 
0.2159691 0.3642573 0.0330214 -0.111575 
-0.548291 0.0768803 -0.007772 -0.536657 

0.5693884 -0.157956 0.0804677 0.0855500 
-0.485283 0.4918390 -0.079835 -0.315725 
0.4895366 0.2885216 0.3141308 -0.213142 
-0.066476 -0.025566 0.2409507 0.2306066 

-0.133965 0.2410760 -0.156126 -0.524652 
0.3559950 -0.232577 0.1992765 0.2085216 
-0.290248 -0.366668 0.0758023 -0.436741 
0.3347230 -0.111639 -0.349028 0.0854663 

0.0238443 -0.012476 -0.343055 -0.130888 -0.105883 
0.0512746 0.3025366 -0.235541 -0.191984 0.2083501 
0.4764406 0.3249786 0.0280954 0.5762554 0.1917871 

0.0761431 0.3403867 -0.162410 
0.0799494 0.4171994 -0.316343 
0.2477846 -0.228758 -0.280684 
-0.238877 -0.335177 -0.539037 
0.4442915 0.1372420 -0.201636 

0.4987325 -0.030670 -0.278747 -0.160903 
0.2159691 -0.018843 -0.250727 0.2605215 
0.3477818 -0.086326 -0.007772 -0.182003 

0.3983297 -0.210563 -0.556619 0.3692955 
-0.485655 0.5077626 0.0101871 0.1563912 
0.4318479 -0.459840 0.3141308 -0.035610 
0.2158235 0.5117536 0.2409507 0.4649423 

-0.133965 -0.155365 0.1220715 -0.524652 
0.3627548 0.5752582 0.4349703 0.0189403 
0.3276201 -0.366668 0.0758023 -0.436741 
0.3347230 0.2701879 -0.349028 0.0854663 

0.0238443 0.0884594 -0.505307 0.4780492 -0.384530 
-0.033168 0.4357624 -0.485108 -0.406687 0.0169467 
0.2478125 -0.324633 -0.494473 -0.452074 -0.043878 

0.0098555 -0.556104 -0.099965 
0.0799494 -0.139569 0.1284048 
-0.225016 -0.228758 -0.280684 
0.5023673 -0.222517 -0.539037 
-0.242473 -0.270157 -0.255797 

Generation: 48
0.1310889 -0.030670 -0.278747 -0.351155 
0.2159691 0.3642573 0.0330214 -0.111575 
-0.548291 0.0768803 -0.007772 -0.536657 

0.5693884 -0.157956 0.0804677 0.0855500 
-0.485283 0.4918390 -0.079835 -0.315725 
0.4895366 0.2885216 0.3141308 -0.213142 
-0.066476 -0.025566 0.2409507 0.2306066 

-0.133965 0.2410760 -0.156126 -0.524652 
0.3559950 -0.232577 0.1992765 0.2085216 
-0.290248 -0.366668 0.0758023 -0.436741 
0.3347230 -0.111639 -0.349028 0.0854663 

0.0238443 -0.012476 -0.343055 -0.130888 -0.105883 
0.0512746 0.3025366 -0.235541 -0.253301 0.2083501 
0.4764406 0.3249786 0.0280954 0.5762554 0.1917871 

0.0761431 0.3403867 -0.162410 
0.0799494 0.4171994 -0.316343 
0.2477846 -0.228758 -0.280684 
-0.238877 -0.335177 -0.539037 
0.4442915 0.1372420 -0.201636 

0.1310889 -0.030670 -0.387547 -0.160903 
0.2159691 -0.018843 -0.250727 0.2605215 
0.3477818 -0.086326 -0.007772 -0.182003 

0.3983297 0.2837531 -0.556619 0.3692955 
-0.485655 0.5077626 0.0101871 0.1563912 
0.4318479 -0.459840 0.3141308 -0.035610 
0.1771320 -0.564999 -0.106157 -0.292341 

-0.133965 0.2410760 -0.156126 -0.524652 
0.3559950 -0.232577 0.4349703 0.0189403 
0.3276201 -0.366668 0.0758023 -0.436741 
0.3347230 -0.111639 -0.349028 0.0854663 

-0.545035 0.0464801 -0.450186 0.3626189 -0.371746 
-0.033168 0.4357624 -0.485108 -0.406687 0.0169467 
0.2478125 -0.324633 0.2994691 -0.452074 -0.043878 

0.0098555 0.3403867 -0.162410 
0.0799494 0.4171994 -0.316343 
0.2477846 -0.228758 -0.280684 
-0.515343 -0.335177 -0.539037 
0.4442915 0.1372420 -0.201636 

Generation: 49
0.4987325 -0.068981 -0.387547 -0.160903 
0.1790168 -0.018843 0.2574641 -0.361906 
0.4580283 0.3807347 0.2537158 0.5551213 

-0.252426 -0.520591 -0.519419 -0.301739 
0.4604375 0.5265431 0.0161012 -0.329855 
0.0629924 0.2885216 -0.576883 -0.213142 
-0.066476 -0.564999 -0.106157 -0.292341 

-0.133965 -0.155365 0.5424823 -0.545398 
0.3559950 -0.232577 0.4349703 -0.455628 
0.5578533 0.3830887 -0.009771 -0.560477 
0.3347230 -0.111639 -0.349028 0.0854663 

0.0238443 0.3713183 -0.450186 -0.133751 -0.371746 
-0.327997 0.3025366 -0.299428 -0.191984 0.0169467 
0.4764406 0.0534153 -0.494473 -0.452074 -0.043878 

0.0098555 0.3403867 -0.162410 
0.0799494 0.4171994 -0.316343 
0.2477846 -0.228758 -0.280684 
-0.238877 -0.335177 -0.539037 
-0.242473 -0.270157 -0.255797 

0.4987325 -0.068981 -0.387547 -0.160903 
0.2159691 -0.488127 0.2574641 -0.361906 
0.5027812 0.3807347 0.2537158 0.5551213 

-0.252426 -0.109223 0.4968156 0.0855500 
-0.485283 0.4918390 -0.079835 -0.315725 
0.0629924 0.2885216 -0.576883 -0.213142 
-0.066476 0.0240792 0.2409507 0.2306066 

-0.133965 0.2410760 -0.156126 -0.524652 
0.3559950 -0.232577 0.1992765 0.2085216 
-0.290248 -0.366668 0.0758023 -0.536174 
0.3347230 -0.111639 -0.349028 0.0854663 

0.0238443 0.3713183 0.1023714 0.3626189 -0.371746 
-0.033168 0.4357624 -0.485108 -0.406687 0.0169467 
0.2478125 -0.324633 0.0280954 0.2303244 0.1917871 

0.0761431 0.3403867 -0.162410 
-0.294003 0.4171994 -0.316343 
0.2477846 -0.228758 -0.280684 
-0.238877 -0.335177 -0.539037 
-0.242473 -0.270157 -0.233331 

Generation: 50
0.4987325 -0.068981 -0.387547 -0.160903 
0.1790168 -0.018843 0.2574641 -0.361906 
0.4580283 0.3807347 0.2537158 0.5551213 

-0.252426 -0.157956 -0.519419 0.0855500 
-0.053997 0.3153689 0.0161012 -0.329855 
0.0629924 0.2885216 -0.576883 -0.213142 
-0.066476 -0.564999 -0.106157 -0.292341 

-0.133965 -0.155365 0.5424823 -0.545398 
0.3559950 -0.232577 0.4349703 -0.455628 
0.5578533 0.3830887 -0.009771 -0.560477 
0.3347230 -0.111639 -0.349028 0.0854663 

0.0238443 0.3713183 -0.450186 -0.133751 -0.371746 
-0.327997 0.3025366 -0.299428 -0.191984 0.0169467 
-0.419395 0.0534153 -0.494473 -0.452074 -0.043878 

0.0098555 0.3403867 -0.162410 
0.0799494 0.4171994 -0.316343 
0.2477846 -0.228758 -0.280684 
-0.238877 -0.335177 -0.539037 
-0.242473 -0.270157 -0.255797 

0.4987325 -0.068981 -0.387547 -0.160903 
0.1790168 -0.018843 -0.250727 0.2605215 
0.3477818 0.3807347 0.2873069 0.5551213 

-0.252426 -0.109223 -0.556619 0.5230706 
-0.485283 0.5265431 -0.419993 -0.329855 
0.0629924 0.2885216 -0.576883 -0.213142 
-0.066476 -0.564999 -0.106157 -0.292341 

-0.133965 -0.155365 0.5424823 -0.545398 
0.3559950 -0.232577 0.4349703 -0.455628 
0.5578533 0.3830887 -0.009771 -0.560477 
0.3347230 -0.111639 -0.349028 0.0854663 

0.0238443 0.3713183 -0.505307 0.3626189 -0.384530 
0.0512746 0.3025366 -0.299428 -0.191984 0.2083501 
0.4764406 0.0534153 0.0280954 -0.205584 0.1917871 

0.3208412 -0.331004 -0.338384 
-0.294003 -0.258365 0.3600926 
0.2062150 -0.566032 -0.280684 
-0.100342 -0.335177 -0.539037 
-0.242473 -0.270157 -0.255797 

Generation: 51
0.4987325 -0.068981 -0.387547 -0.160903 
0.1790168 -0.018843 0.2574641 -0.361906 
0.4580283 0.3807347 0.1522969 -0.182003 

-0.252426 -0.157956 -0.519419 0.0855500 
-0.472785 0.4918390 0.0161012 -0.329855 
0.0629924 0.2885216 -0.576883 -0.213142 
-0.066476 -0.564999 -0.106157 -0.292341 

-0.133965 -0.155365 0.5424823 -0.545398 
0.3559950 -0.232577 0.4349703 -0.455628 
0.5578533 0.3830887 -0.009771 -0.560477 
0.3347230 -0.111639 -0.349028 0.5511964 

0.0238443 0.3713183 -0.450186 -0.133751 -0.371746 
-0.327997 0.3025366 -0.299428 -0.191984 0.0169467 
-0.419395 0.0534153 -0.494473 -0.452074 -0.043878 

0.0098555 0.3403867 -0.162410 
0.0799494 0.4171994 -0.316343 
0.2477846 -0.228758 -0.280684 
-0.238877 -0.335177 -0.539037 
-0.242473 -0.270157 -0.255797 

0.4987325 -0.068981 -0.387547 -0.160903 
0.2159691 -0.018843 -0.250727 0.2605215 
0.3477818 0.0768803 0.2537158 0.5551213 

-0.437217 -0.157956 -0.519419 -0.301739 
0.4604375 0.4918390 0.0161012 -0.315725 
0.4318479 0.0644212 -0.015896 -0.213142 
0.0928764 -0.564999 -0.106157 -0.325820 

-0.133965 0.2410760 -0.156126 -0.455532 
0.5676283 -0.232577 0.4349703 -0.455628 
0.3276201 -0.366668 0.0758023 -0.436741 
0.2571467 -0.573515 0.4224271 0.4028657 

-0.427086 0.3713183 -0.450186 -0.130888 -0.105883 
0.0512746 0.3025366 -0.450725 -0.191984 0.0169467 
0.2478125 -0.324633 0.0280954 0.2303244 -0.043878 

0.0098555 -0.556104 0.2399491 
0.0825517 0.4171994 -0.316343 
0.2477846 -0.228758 -0.280684 
-0.238877 -0.335177 -0.539037 
-0.242473 -0.270157 -0.233331 

Generation: 52
0.4987325 -0.068981 -0.387547 -0.160903 
0.1790168 -0.555179 0.2574641 -0.361906 
0.2216064 0.3807347 0.2537158 0.5551213 

-0.252426 0.2837531 -0.556619 0.0855500 
0.4604375 0.5265431 -0.423876 -0.248457 
0.0629924 0.2885216 -0.576883 -0.213142 
-0.066476 -0.025566 -0.079650 0.2306066 

-0.359724 0.2410760 -0.441030 -0.455532 
0.3559950 -0.232577 0.4349703 0.0189403 
0.3276201 -0.366668 0.0758023 -0.436741 
0.1045699 0.2902940 0.4224271 0.0854663 

0.0238443 0.0464801 -0.505307 0.3626189 -0.384530 
0.0512746 0.1651139 0.4364329 -0.191984 0.5235854 
0.4764406 -0.324633 0.3224361 -0.205584 0.1917871 

0.0761431 0.2367409 -0.162410 
0.0799494 0.4171994 0.3600926 
0.2477846 -0.228758 -0.054522 
-0.100342 -0.335177 -0.539037 
-0.242473 -0.270157 -0.255797 

0.4987325 -0.068981 -0.387547 -0.160903 
0.1790168 -0.018843 0.2574641 -0.361906 
0.5027812 0.3807347 0.2537158 0.5551213 

-0.252426 -0.157956 -0.143067 0.0855500 
-0.053997 0.1732270 0.0161012 -0.329855 
-0.258252 0.2885216 -0.576883 -0.213142 
0.0928764 -0.025566 -0.106157 0.4791598 

0.0271426 -0.371912 -0.156126 -0.524652 
0.3559950 -0.232577 0.1992765 0.2085216 
0.3276201 -0.366668 0.0758023 -0.436741 
0.3347230 0.2701879 -0.349028 0.0854663 

0.0238443 0.0464801 -0.505307 0.3626189 -0.384530 
0.0512746 0.3025366 0.4364329 -0.191984 0.5235854 
-0.541650 0.0534153 0.3224361 -0.205584 0.1531219 

0.0761431 -0.328165 -0.162410 
0.0799494 -0.095077 0.3600926 
0.2477846 0.2739326 0.4627158 
0.0795682 -0.335177 -0.539037 
-0.242473 -0.270157 -0.255797 

Generation: 53
0.4987325 0.5194716 -0.272797 -0.160903 
0.1790168 -0.338299 0.4577474 -0.111575 
0.0997415 -0.086326 -0.007772 0.5551213 

0.4542543 -0.157956 -0.354158 0.5230706 
-0.485283 0.4918390 0.0161012 -0.248457 
0.0629924 0.2885216 -0.576883 -0.213142 
-0.066476 -0.025566 0.2409507 0.2306066 

-0.546291 -0.323820 -0.156126 -0.455532 
0.5676283 -0.232577 0.4349703 -0.455628 
0.3276201 -0.366668 0.0758023 0.5280114 
0.3347230 0.1743292 -0.349028 0.0854663 

0.0238443 0.3713183 -0.450186 0.3626189 -0.371746 
-0.327997 0.1651139 0.4364329 -0.191984 0.5235854 
-0.541650 -0.324633 0.3224361 -0.205584 0.1531219 

0.0761431 -0.540409 0.2146507 
0.0825517 0.4171994 -0.316343 
-0.057528 -0.228758 -0.280684 
-0.100342 -0.335177 -0.539037 
-0.242473 -0.270157 -0.105192 

0.4987325 -0.068981 -0.387547 -0.160903 
0.1790168 -0.018843 0.4577474 -0.111575 
0.5027812 0.3807347 0.2537158 0.5551213 

0.2307920 -0.157956 -0.519419 -0.301739 
0.4604375 0.4918390 0.0161012 -0.329855 
0.0629924 0.2885216 -0.576883 -0.213142 
-0.066476 -0.025566 0.2409507 0.2306066 

-0.133965 0.2410760 -0.375527 -0.455532 
0.5676283 -0.232577 0.4349703 -0.455628 
0.3276201 -0.366668 0.0758023 -0.436741 
0.3347230 0.2701879 -0.349028 0.0854663 

0.0238443 0.3713183 -0.450186 0.3626189 -0.371746 
-0.327997 0.1651139 0.4364329 -0.191984 0.5235854 
0.4764406 0.3249786 0.0280954 0.5762554 0.1917871 

0.0761431 0.3403867 -0.338384 
-0.294003 -0.435309 -0.156762 
0.4859099 0.2739326 -0.280684 
-0.414629 -0.335177 -0.539037 
-0.242473 -0.270157 -0.233331 

Generation: 54
0.2784812 -0.030670 -0.278747 -0.160903 
0.2159691 -0.018843 -0.465128 -0.361906 
0.2120166 0.5587125 0.1522969 -0.182003 

-0.252426 0.2837531 -0.556619 0.0855500 
-0.053997 0.4918390 -0.423876 0.2458536 
0.0629924 0.2885216 -0.576883 -0.213142 
-0.066476 -0.025566 0.2409507 0.2306066 

-0.133965 0.2410760 -0.375527 -0.455532 
0.5676283 -0.232577 0.4349703 -0.455628 
0.3276201 -0.366668 0.0758023 -0.436741 
0.3347230 0.2701879 -0.349028 0.0854663 

0.0238443 0.0464801 -0.505307 0.3626189 -0.223447 
0.0512746 0.3025366 -0.299428 -0.191984 0.2083501 
-0.541650 0.0534153 0.3224361 -0.205584 0.1917871 

0.0761431 0.3403867 -0.338384 
-0.294003 0.3163110 -0.156762 
0.4859099 0.2739326 0.4627158 
0.0795682 -0.335177 -0.539037 
-0.242473 -0.576783 -0.255797 

0.4987325 0.3875727 -0.387547 -0.160903 
0.2159691 -0.018843 -0.250727 0.2141647 
0.3477818 0.0768803 0.2537158 -0.023257 

-0.437217 -0.157956 -0.519419 -0.301739 
0.4604375 0.5265431 0.0161012 -0.329855 
0.3928770 0.2885216 0.3141308 -0.213142 
-0.066476 -0.025566 0.2409507 0.2306066 

0.3367934 -0.155365 0.1220715 -0.524652 
0.5676283 -0.232577 0.4349703 -0.455628 
0.3276201 -0.366668 0.0758023 -0.436741 
0.3347230 -0.111639 -0.214136 0.0854663 

0.0238443 0.3713183 -0.450186 0.3626189 -0.384530 
0.0512746 0.3158642 -0.299428 -0.191984 0.5235854 
-0.541650 0.0534153 0.3224361 -0.205584 0.1917871 

0.3208412 -0.331004 -0.338384 
-0.294003 0.4171994 -0.316343 
0.2477846 -0.228758 -0.280684 
-0.238877 -0.335177 -0.539037 
-0.242473 -0.270157 -0.233331 

Generation: 55
0.4987325 -0.030670 -0.160604 -0.160903 
0.0180076 -0.018843 0.2574641 0.2141647 
0.3477818 0.0768803 0.2537158 0.5551213 

-0.437217 -0.157956 -0.519419 -0.301739 
0.4604375 0.5265431 0.0161012 -0.329855 
0.3928770 0.2885216 0.3141308 -0.213142 
-0.066476 -0.025566 0.2409507 0.2306066 

0.3367934 0.2410760 -0.156126 -0.455532 
0.5676283 -0.232577 0.4349703 -0.455628 
0.3276201 -0.366668 0.0758023 0.5728703 
0.2571467 -0.573515 0.4224271 0.4028657 

-0.427086 0.3713183 -0.450186 -0.130888 -0.384530 
0.0512746 0.3025366 -0.299428 -0.191984 0.2083501 
0.4764406 0.0534153 0.0280954 -0.205584 0.1917871 

0.0761431 -0.328165 -0.338384 
-0.294003 -0.258365 0.3600926 
0.4151925 -0.228758 -0.280684 
-0.238877 -0.335177 0.5189124 
-0.242473 -0.270157 -0.255797 

0.4987325 0.5194716 -0.272797 -0.486246 
0.1262101 0.3642573 -0.465128 -0.361906 
-0.504968 0.3807347 0.2537158 0.5551213 

0.2307920 -0.157956 -0.519419 -0.301739 
0.4604375 0.4918390 0.0161012 -0.329855 
0.0629924 0.2885216 -0.576883 -0.213142 
-0.066476 0.2681536 0.2409507 0.2306066 

0.2823100 0.2410760 -0.156126 -0.455532 
0.3559950 -0.295774 0.4349703 -0.455628 
0.5578533 -0.116242 -0.009771 -0.560477 
0.3347230 -0.111639 -0.349028 0.0854663 

-0.114468 0.3713183 -0.450186 0.3626189 0.5568791 
0.0512746 0.1651139 0.4364329 -0.191984 0.5235854 
0.4764406 0.3249786 0.0280954 0.5762554 0.1917871 

0.0761431 0.3403867 -0.338384 
-0.294003 -0.258365 0.3600926 
0.4151925 0.2739326 -0.280684 
0.1985243 -0.222517 -0.539037 
-0.559024 -0.190860 -0.105192 

Generation: 56
0.4987325 -0.068981 -0.387547 -0.160903 
0.1790168 -0.018843 -0.465128 -0.361906 
0.5027812 0.5587125 -0.235859 -0.182003 

-0.252426 0.2474566 0.0804677 0.0855500 
-0.053997 0.4918390 0.0161012 -0.315725 
-0.326873 0.2885216 -0.576883 -0.213142 
-0.066476 -0.025566 0.2409507 0.2306066 

0.2823100 0.2410760 -0.156126 -0.455532 
0.5676283 -0.232577 0.4349703 0.0189403 
0.3276201 -0.521099 0.0758023 -0.436741 
0.1405675 0.2701879 -0.024654 0.0854663 

0.0238443 0.0464801 -0.505307 0.3626189 -0.384530 
-0.327997 0.1651139 0.4364329 -0.191984 0.5235854 
0.4764406 0.0189700 -0.211397 -0.205584 0.1917871 

0.0761431 0.0968173 -0.338384 
0.2963925 -0.435309 0.3600926 
0.4859099 -0.282864 -0.049922 
0.1985243 -0.222517 0.3442711 
-0.242473 -0.270157 -0.255797 

0.4987325 -0.068981 -0.387547 -0.160903 
0.1790168 -0.018843 0.4577474 0.2827857 
0.5027812 0.0768803 0.2537158 0.5551213 

-0.437217 -0.157956 -0.519419 -0.301739 
0.4604375 0.4918390 -0.423876 -0.248457 
-0.326873 -0.541440 -0.576883 -0.076510 
-0.066476 -0.025566 0.2409507 0.2306066 

0.0271426 0.1846004 -0.156126 -0.524652 
0.5676283 -0.232577 0.4349703 0.0189403 
0.3276201 0.4585495 0.0758023 -0.436741 
0.1045699 0.2902940 0.4224271 0.0854663 

0.0238443 0.0464801 -0.505307 0.3626189 -0.384530 
-0.327997 0.1651139 0.4364329 -0.191984 0.5235854 
-0.541650 -0.324633 0.3224361 -0.205584 0.1531219 

0.0761431 -0.331004 -0.338384 
-0.294003 -0.258365 0.3600926 
0.2062150 -0.566032 -0.280684 
-0.100342 -0.335177 -0.539037 
-0.242473 -0.270157 -0.255797 

Generation: 57
0.4987325 -0.068981 -0.387547 -0.160903 
0.1790168 -0.018843 -0.250727 0.2605215 
0.3477818 -0.253104 0.2537158 0.5551213 

-0.437217 -0.157956 -0.519419 -0.301739 
0.4604375 0.5265431 -0.003048 0.0347069 
-0.326873 0.2885216 0.5626222 -0.213142 
-0.066476 -0.025566 0.2409507 0.2306066 

0.2823100 0.2410760 -0.156126 -0.524652 
0.3559950 -0.232577 0.4349703 0.0189403 
0.3276201 -0.366668 0.0521583 0.5280114 
0.0357082 0.2701879 -0.024654 0.0854663 

0.0238443 0.0464801 -0.505307 0.3626189 0.0755580 
0.0512746 0.3158642 -0.299428 -0.191984 0.2083501 
0.3252726 0.0534153 0.0280954 -0.205584 0.1917871 

0.0761431 0.0968173 -0.338384 
0.2963925 -0.435309 0.3600926 
0.4859099 -0.282864 -0.049922 
0.1985243 -0.222517 0.3442711 
-0.242473 -0.270157 -0.255797 

0.4987325 -0.068981 -0.387547 -0.160903 
0.1790168 -0.018843 -0.250727 0.2605215 
0.3477818 -0.253104 0.2537158 0.5551213 

-0.252426 0.2181783 -0.519419 -0.301739 
0.4604375 0.5265431 0.0161012 0.3583146 
0.0629924 0.2885216 -0.576883 -0.213142 
-0.066476 -0.025566 0.2409507 -0.341022 

0.0271426 -0.371912 -0.156126 -0.455532 
0.5676283 0.1960034 0.4349703 0.0189403 
0.3276201 -0.366668 0.0758023 -0.436741 
0.3347230 0.2701879 -0.349028 0.0854663 

-0.114468 0.3713183 -0.450186 0.3626189 -0.384530 
0.0512746 0.4357624 -0.485108 -0.406687 0.5235854 
0.4764406 0.0189700 -0.211397 -0.205584 0.1917871 

0.0761431 0.0968173 -0.338384 
0.2963925 -0.435309 0.3600926 
0.4859099 -0.282864 -0.049922 
-0.350760 -0.222517 0.3442711 
-0.242473 -0.270157 -0.255797 

Generation: 58
0.4987325 -0.193965 -0.387547 -0.160903 
0.2159691 -0.018843 0.2574641 -0.111575 
0.2216064 0.3807347 0.2537158 0.5551213 

-0.252426 0.2837531 -0.556619 0.0855500 
0.4604375 0.5265431 -0.423876 -0.315725 
-0.035010 0.2885216 -0.576883 -0.494481 
-0.066476 -0.025566 0.2409507 0.2306066 

-0.546291 -0.323820 0.4041757 -0.455532 
0.5676283 -0.232577 0.4349703 -0.455628 
0.3276201 -0.366668 0.0758023 0.5280114 
0.3347230 0.1743292 -0.349028 0.0854663 

0.0238443 0.3713183 -0.532284 0.3626189 -0.147879 
-0.327997 0.1627807 0.4364329 -0.191984 0.5235854 
-0.541650 0.0534153 0.0280954 0.5762554 0.1917871 

0.0761431 0.3403867 -0.338384 
-0.294003 0.3163110 -0.316343 
0.2477846 -0.228758 -0.280684 
-0.238877 0.0208299 -0.539037 
-0.242473 -0.270157 -0.233331 

0.4987325 -0.068981 -0.387547 -0.160903 
0.1790168 -0.018843 0.4577474 -0.111575 
0.5027812 0.3807347 0.2537158 0.5551213 

-0.252426 0.2474566 -0.519419 -0.301739 
0.4604375 0.5265431 0.0161012 0.1735643 
0.0629924 0.2885216 -0.576883 -0.213142 
0.2825324 -0.025566 0.2409507 0.2306066 

0.2823100 0.2410760 -0.441030 -0.455532 
0.3559950 -0.232577 -0.069601 0.2085216 
0.3276201 -0.366668 0.0758023 -0.436741 
0.3347230 0.2701879 -0.024654 0.0854663 

0.0238443 0.3713183 -0.450186 0.3626189 -0.384530 
0.0512746 0.3025366 -0.450725 -0.191984 0.0169467 
-0.471249 -0.324633 0.3224361 -0.205584 0.1531219 

0.0761431 -0.328165 -0.099965 
0.0799494 0.4171994 0.3600926 
0.4859099 0.2739326 -0.054522 
-0.341583 -0.222517 -0.539037 
-0.242473 -0.270157 -0.233331 

Generation: 59
0.4987325 -0.193965 -0.387547 -0.160903 
0.2159691 -0.018843 0.2574641 -0.111575 
0.2216064 0.3807347 0.2537158 0.5551213 

-0.252426 0.2837531 -0.556619 0.0855500 
0.4604375 -0.491704 -0.423876 -0.315725 
-0.035010 0.2885216 -0.576883 -0.494481 
-0.066476 -0.025566 0.2409507 0.2306066 

-0.546291 -0.323820 0.4041757 -0.455532 
0.5676283 -0.232577 0.4349703 -0.455628 
0.3276201 -0.366668 0.0758023 0.5280114 
0.3347230 0.1743292 -0.349028 0.0854663 

0.0238443 0.3713183 -0.532284 0.3626189 -0.147879 
-0.327997 0.1627807 0.4364329 -0.191984 0.5235854 
-0.541650 0.0534153 0.0280954 0.5762554 0.1917871 

0.0761431 0.3403867 -0.338384 
-0.294003 0.3163110 -0.316343 
0.2477846 -0.228758 -0.280684 
-0.238877 0.0208299 -0.539037 
-0.242473 -0.270157 -0.233331 

0.4987325 -0.068981 -0.387547 -0.160903 
0.2159691 -0.018843 0.2574641 0.1202675 
0.2120166 0.5587125 0.1522969 -0.182003 

-0.252426 -0.157956 -0.519419 0.0855500 
-0.053997 0.3153689 -0.423876 -0.329855 
0.3928770 0.2885216 0.3141308 -0.213142 
-0.066476 -0.025566 0.2409507 0.2306066 

0.2823100 0.2410760 -0.156126 0.4391228 
0.3559950 -0.232577 0.4349703 0.0189403 
0.3276201 0.3324347 0.0758023 -0.436741 
0.3347230 0.2701879 -0.349028 0.0854663 

0.0238443 0.0464801 -0.505307 0.3626189 -0.384530 
-0.327997 0.1278936 -0.450725 -0.191984 0.2083501 
-0.541650 0.0534153 0.3224361 -0.205584 0.1917871 

0.0761431 0.3403867 -0.338384 
-0.294003 0.3163110 -0.127571 
-0.057528 -0.228758 -0.280684 
0.1985243 -0.222517 0.3442711 
-0.242473 -0.270157 -0.255797 

Generation: 60
0.4987325 -0.068981 -0.387547 -0.160903 
0.2159691 -0.018843 0.2574641 -0.361906 
0.5027812 0.5587125 -0.235859 -0.182003 

-0.252426 0.2474566 0.0804677 0.0855500 
-0.053997 0.4918390 0.0161012 -0.315725 
-0.326873 0.2885216 -0.576883 -0.213142 
-0.066476 -0.025566 0.2409507 0.2306066 

0.3119729 0.2410760 -0.156126 -0.455532 
-0.378846 -0.232577 0.4349703 0.0189403 
0.3276201 -0.521099 0.0758023 -0.436741 
0.1045699 0.2902940 0.4224271 0.0854663 

0.0238443 0.0464801 -0.450186 0.3626189 0.0836564 
0.0512746 0.1651139 0.4364329 -0.191984 0.5235854 
0.4764406 0.3249786 0.0280954 -0.205584 0.1917871 

0.2751973 -0.331004 -0.338384 
-0.294003 0.3163110 -0.127571 
-0.057528 -0.228758 -0.280684 
0.1985243 -0.222517 0.3442711 
-0.242473 -0.270157 -0.255797 

0.4987325 0.3875727 -0.387547 -0.160903 
0.2159691 -0.018843 0.2574641 0.1202675 
0.2120166 0.5587125 0.1522969 -0.182003 

-0.252426 -0.157956 -0.519419 0.0855500 
-0.053997 0.3153689 -0.423876 -0.329855 
0.3928770 0.2885216 0.3141308 -0.213142 
-0.066476 -0.025566 0.2409507 0.2306066 

0.1913513 -0.155365 -0.156126 -0.295165 
0.3559950 -0.232577 0.4349703 0.0189403 
0.3276201 0.3324347 0.0758023 -0.436741 
0.3347230 -0.111639 -0.214136 0.0854663 

0.0238443 0.3713183 -0.450186 0.3626189 -0.384530 
0.0512746 0.3025366 -0.450725 -0.191984 0.2083501 
0.4764406 0.0534153 0.3224361 -0.205584 0.1531219 

0.0761431 -0.328165 0.2146507 
-0.294003 0.4171994 -0.316343 
0.2477846 -0.228758 -0.280684 
-0.238877 -0.335177 -0.539037 
-0.242473 -0.270157 -0.233331 

Generation: 61
0.4987325 -0.068981 -0.387547 -0.160903 
0.1790168 -0.018843 -0.250727 0.2605215 
0.3477818 -0.253104 0.2537158 0.5551213 

-0.252426 0.2181783 -0.519419 -0.301739 
0.4604375 0.5265431 -0.560362 0.5211393 
0.1447271 0.2885216 -0.576883 -0.213142 
0.2825324 -0.025566 0.2409507 -0.292341 

-0.133965 -0.155365 0.5424823 -0.524652 
0.3559950 -0.232577 0.4349703 -0.455628 
-0.290248 -0.366668 0.0758023 -0.436741 
0.3347230 -0.111639 -0.349028 0.0854663 

0.0238443 0.0464801 -0.505307 0.3626189 -0.371746 
-0.268566 0.1651139 -0.485108 -0.435452 0.5079939 
-0.396044 -0.324633 0.3224361 -0.205584 0.1917871 

0.3208412 -0.146157 -0.338384 
-0.294003 0.5348161 0.3600926 
0.2062150 -0.566032 -0.049922 
0.1985243 -0.222517 0.3442711 
-0.242473 -0.270157 -0.255797 

-0.519178 0.3875727 -0.387547 -0.160903 
0.1790168 -0.018843 -0.250727 0.2605215 
0.3477818 -0.253104 0.2537158 0.5551213 

-0.437217 -0.157956 -0.519419 -0.301739 
0.4604375 0.5265431 -0.003048 0.0347069 
-0.326873 0.2885216 0.5626222 -0.213142 
-0.066476 -0.025566 0.2409507 0.2306066 

0.2823100 0.2410760 -0.156126 -0.524652 
0.3559950 -0.232577 0.4349703 0.0189403 
0.3276201 -0.366668 0.0521583 -0.436741 
-0.450973 0.2902940 0.4224271 -0.335829 

0.0238443 0.0464801 -0.450186 0.3626189 -0.371746 
-0.327997 0.1651139 -0.299428 -0.191984 0.5235854 
0.4764406 0.0534153 0.3224361 0.5762554 0.1917871 

0.0761431 -0.073957 -0.099965 
0.0799494 0.4171994 0.1710140 
0.2062150 -0.228758 -0.280684 
-0.100342 -0.335177 -0.539037 
-0.242473 -0.270157 -0.233331 

Generation: 62
0.4987325 -0.068981 -0.387547 -0.160903 
0.3569989 -0.018843 0.4577474 0.2827857 
0.5027812 0.2703528 0.2537158 0.5551213 

-0.437217 -0.157956 -0.519419 -0.301739 
0.4604375 0.2609490 0.0161012 -0.329855 
0.0629924 0.2885216 -0.576883 -0.213142 
-0.066476 -0.025566 0.2409507 -0.292341 

-0.133965 -0.155365 0.5424823 -0.524652 
0.3559950 -0.232577 0.4349703 -0.455628 
-0.290248 -0.366668 0.0758023 -0.436741 
0.3347230 -0.111639 -0.349028 0.0854663 

0.0238443 0.0464801 -0.505307 0.3626189 -0.371746 
-0.268566 0.1651139 -0.485108 -0.435452 0.5079939 
-0.396044 -0.324633 0.3224361 -0.205584 0.1917871 

0.3208412 -0.146157 -0.338384 
-0.294003 0.5348161 0.3600926 
0.2062150 -0.566032 -0.049922 
0.1985243 -0.222517 -0.539037 
-0.242473 -0.270157 -0.255797 

0.4987325 -0.068981 -0.387547 0.2064782 
0.1790168 -0.018843 0.2574641 0.1202675 
0.3377515 -0.055829 0.2537158 0.5551213 

-0.437217 0.0097204 -0.519419 -0.301739 
0.4604375 0.2609490 0.0161012 -0.329855 
-0.257277 0.2885216 0.3141308 -0.213142 
-0.066476 -0.025566 0.2409507 0.2306066 

0.2823100 0.2410760 -0.156126 -0.455532 
0.5676283 -0.313958 -0.141328 0.0189403 
0.3276201 0.4585495 0.0758023 -0.436741 
0.3347230 0.2701879 -0.349028 0.0854663 

0.0238443 0.3713183 0.4550611 -0.490115 0.3374850 
0.0512746 0.3025366 -0.450725 -0.191984 0.0169467 
0.2478125 -0.324633 0.3224361 -0.205584 0.1531219 

0.0761431 -0.328165 0.2146507 
0.4440610 0.4171994 -0.316343 
-0.057528 -0.228758 -0.280684 
-0.100342 -0.335177 -0.539037 
-0.559024 -0.270157 -0.255797 

Generation: 63
0.4987325 -0.068981 -0.387547 -0.160903 
0.1790168 -0.018843 0.4577474 0.2827857 
0.5027812 0.0768803 0.2537158 0.5551213 

-0.437217 -0.157956 -0.519419 -0.301739 
0.4604375 0.4918390 -0.423876 -0.541471 
0.0629924 0.2885216 -0.576883 -0.213142 
0.2825324 -0.025566 0.2409507 -0.292341 

-0.133965 -0.155365 0.5424823 -0.524652 
0.3559950 -0.232577 0.4349703 -0.455628 
0.3276201 -0.186006 0.0758023 -0.436741 
0.3347230 -0.111639 -0.349028 0.0854663 

0.0238443 0.0464801 -0.450186 0.3626189 -0.371746 
-0.327997 0.1651139 0.4364329 -0.191984 0.5235854 
0.4764406 0.0534153 0.3224361 0.5762554 0.1917871 

0.3208412 -0.331004 -0.338384 
-0.294003 0.5348161 0.3600926 
0.2062150 -0.566032 -0.280684 
-0.100342 -0.335177 -0.539037 
-0.242473 0.4234970 -0.233331 

0.4987325 -0.408985 -0.387547 -0.160903 
0.2159691 -0.018843 -0.465128 0.4436196 
0.2120166 0.5587125 0.1522969 -0.182003 

-0.252426 0.2837531 -0.556619 0.0855500 
-0.053997 0.3153689 -0.423876 -0.329855 
0.3928770 0.2885216 -0.576883 -0.213142 
-0.066476 -0.025566 0.2409507 0.2306066 

0.2823100 0.2410760 -0.156126 -0.524652 
0.3559950 -0.232577 0.4349703 0.0189403 
0.3276201 -0.366668 0.0758023 -0.436741 
0.3347230 -0.111639 -0.349028 0.0854663 

