Generation: 1
-0.275676 -0.015124 -0.082153 0.5740670 
-0.161611 -0.067606 -0.396723 -0.452296 
-0.052149 0.1522358 0.5151541 0.1016116 

0.5083602 0.2513380 0.3894033 0.5738014 
0.1805053 -0.136533 0.2730758 0.2822429 
-0.279377 -0.028353 0.4739009 -0.437677 
0.2989074 -0.467369 -0.347114 0.3001893 

-0.269911 0.5712339 -0.348392 0.0310193 
-0.355229 0.3252861 0.1010624 -0.424604 
-0.107381 -0.409160 0.1094875 0.5652776 
0.2603974 0.3814515 -0.312187 0.3607993 
----------------------------------------------
-0.464555 -0.321520 0.0453166 0.1732684 
-0.405085 0.3705532 -0.314276 -0.004838 
-0.543196 -0.111841 0.4721924 -0.306119 

0.0781888 -0.332782 0.0179954 -0.151414 
-0.334464 -0.443064 0.3014371 -0.046407 
-0.491475 0.5226877 0.4547418 0.0096232 
-0.382468 0.4942745 -0.008956 -0.275398 

-0.554111 -0.181606 0.3496837 0.3236194 
0.5048829 0.1514497 -0.554845 0.3399168 
-0.301750 -0.178851 0.1990612 -0.399103 
-0.175064 -0.154316 0.1444918 -0.146764 
----------------------------------------------
Generation: 2
-0.410085 -0.259433 -0.181399 -0.496695 
-0.544098 0.1017939 0.3147194 0.0425860 
0.3305811 -0.253703 -0.476517 0.1136405 

-0.416254 0.3613654 -0.425719 -0.014414 
0.1149452 -0.036041 -0.180933 0.3713033 
0.2543578 -0.141340 0.5329993 -0.439396 
-0.010211 0.4763385 -0.320018 0.3619255 

-0.422293 0.3537309 0.3348702 0.4102717 
-0.056414 -0.307460 0.3880357 0.2904501 
0.3611420 0.4536529 -0.418334 -0.260993 
-0.474754 0.2472597 0.2100390 0.1961392 
----------------------------------------------
0.2900898 0.5700392 4.7434604 -0.070561 
-0.079281 0.3861240 -0.303359 -0.399647 
0.1138484 0.4421557 0.4919129 -0.147636 

0.0466358 -0.065194 0.4767591 0.3485530 
-0.414504 0.0530036 -0.496071 0.1911012 
0.4226917 0.5334023 0.1025618 -0.425572 
0.5645778 -0.036599 0.5619312 -0.032193 

0.2649095 0.2420294 0.0216094 -0.285381 
-0.432554 -0.293597 0.0726515 0.0081926 
0.2254882 0.4918839 -0.351116 -0.551375 
-0.166637 -0.017241 0.3234203 0.3456430 
----------------------------------------------
Generation: 3
-0.257329 -0.144825 -0.181399 -0.496695 
-0.544098 0.1017939 0.3147194 0.0425860 
0.3305811 -0.253703 -0.476517 0.1136405 

-0.416254 0.3216765 0.2135254 0.0269833 
0.5208581 -0.477277 0.2213133 -0.267254 
0.1186761 0.0341944 0.2910611 0.3925309 
-0.169557 0.3707080 -0.094292 -0.325113 

0.0734768 0.5695708 0.1344653 0.1168474 
-0.404705 -0.121967 -0.196103 0.2734492 
-0.363786 0.0666947 0.2618027 0.1145596 
-0.139147 0.1249680 -0.503837 0.0105786 
----------------------------------------------
-0.549834 -0.038927 0.4165811 -0.034984 
0.4705971 -0.315070 -0.453115 -0.218271 
0.3897592 -0.409571 -0.328436 -0.569904 

0.0053355 0.0394668 -0.122515 -0.461746 
-0.556819 0.3322114 0.3333197 0.4985823 
-0.417049 -0.566097 0.0203122 0.2017569 
0.4092972 -0.344306 -0.036458 0.3652003 

0.3436702 0.4387862 0.4907032 -0.350992 
0.1679435 0.1659108 -0.365343 0.3426293 
0.1116223 0.4586875 -0.159564 0.1986610 
-0.346578 0.2531370 -0.465703 -0.469633 
----------------------------------------------
Generation: 4
0.5576405 -0.176243 0.0221386 -0.574819 
-0.278904 0.4480085 -0.485713 0.0677765 
0.2328541 -0.249759 0.5151541 0.3489518 

0.5083602 0.2513380 0.3894033 0.5738014 
0.1805053 -0.449700 -0.473596 -0.497183 
-0.505041 -0.388003 0.5615352 0.5403190 
0.0544263 -0.258363 0.5561642 0.1512203 

0.3051288 0.0103632 -0.060067 -0.496619 
-0.559669 0.2083887 -0.251419 -0.409688 
-0.505608 -0.137099 0.3849836 -0.454973 
0.0145504 -0.183648 -0.462491 -0.180352 
----------------------------------------------
0.5355367 0.3399289 0.5563048 -0.546606 
0.4705971 -0.315070 -0.453115 -0.218271 
0.0822779 0.1529888 -0.310808 -0.523191 

0.4717208 -0.338113 0.4336962 -0.458946 
-0.213849 -0.535512 0.3075680 0.0353407 
-0.282379 -0.080821 -0.149800 -0.465390 
-0.505954 0.5279462 -0.192376 -0.252347 

-0.317591 0.4137644 -0.466473 0.0305392 
-0.313954 0.4294138 0.2707833 0.3185252 
0.2529098 -0.403607 0.1173990 0.2464943 
0.1678287 0.5711587 0.0994739 -0.375050 
----------------------------------------------
Generation: 5
-0.549834 -0.038927 0.4165811 -0.003989 
-0.050212 0.1135630 -0.298172 -0.218271 
0.3897592 -0.409571 -0.328436 -0.569904 

0.0053355 0.2148510 0.4697800 -0.543735 
-0.195645 -0.214011 -0.462825 0.3713033 
0.2543578 -0.141340 0.5329993 -0.439396 
0.5021909 0.4763385 -0.320018 0.3619255 

-0.422293 0.3537309 0.3348702 0.4102717 
-0.056414 -0.307460 0.3880357 0.2904501 
0.3611420 0.4536529 -0.418334 0.4418168 
0.5148378 0.4429025 -0.465703 -0.469633 
----------------------------------------------
0.0819269 0.3075150 0.0221386 0.1164570 
-0.334263 -0.339056 -0.381036 -0.159981 
0.2076697 -0.534439 0.5605664 -0.213324 

0.1979059 0.1676123 0.3187364 -0.226256 
-0.239590 0.4041669 0.4697264 -0.503898 
0.4260831 0.5029772 -0.248714 0.4491654 
-0.572346 -0.448377 0.2797402 0.5441033 

0.0169810 0.3711635 -0.093100 0.3425011 
0.4947274 -0.293597 -0.068635 -0.130499 
-0.477308 0.3843428 -0.339813 -0.493808 
-0.219067 0.0306735 -0.047800 0.1007349 
----------------------------------------------
Generation: 6
-0.549834 -0.038927 0.4165811 -0.003989 
-0.050212 -0.315070 -0.453115 -0.218271 
0.3897592 -0.409571 0.0652537 0.4980049 

0.0053355 0.2148510 0.4697800 -0.543735 
-0.195645 -0.214011 -0.462825 0.3713033 
0.2543578 -0.141340 0.5329993 -0.439396 
0.5021909 0.4763385 -0.320018 0.3619255 

-0.422293 0.3537309 0.3348702 0.4102717 
-0.056414 -0.307460 0.3880357 0.2904501 
0.3611420 0.4536529 -0.418334 0.4418168 
0.5148378 0.4429025 -0.465703 -0.469633 
----------------------------------------------
-0.057749 0.2494768 -0.185349 -0.244966 
-0.544626 0.0251669 -0.466627 0.2830676 
0.0731928 0.1109156 -0.309387 0.5760754 

-0.310626 -0.019835 0.2163030 0.5336757 
0.0671797 0.5515150 -0.534883 0.4968376 
-0.023089 -0.513426 -0.320279 -0.153274 
-0.388934 0.1179148 0.3690789 0.2855044 

-0.189154 0.3917485 -0.337956 0.4441230 
0.3604963 0.4818876 -0.016072 0.3817771 
0.3450799 0.0119144 -0.072126 0.1362259 
0.2290993 0.5757347 -0.473641 -0.117326 
----------------------------------------------
Generation: 7
-0.057749 0.2494768 -0.185349 -0.244966 
-0.544626 0.0251669 -0.466627 0.2830676 
0.0731928 0.1109156 -0.309387 0.5760754 

-0.310626 -0.019835 0.2163030 0.5336757 
0.0671797 0.5515150 -0.534883 0.4968376 
-0.023089 -0.513426 -0.320279 -0.153274 
0.0175908 0.1179148 0.3690789 0.2855044 

-0.189154 0.3917485 -0.337956 0.4441230 
0.2916418 -0.293597 -0.016072 0.3817771 
0.3450799 0.0119144 -0.072126 0.1362259 
0.2290993 0.5757347 -0.473641 -0.117326 
----------------------------------------------
0.5695880 -0.128828 0.4355848 0.2511593 
0.4705971 -0.315070 -0.453115 -0.218271 
0.3897592 -0.409571 0.5151541 0.0223585 

0.3889850 -0.349566 0.2163030 0.0473701 
0.3332478 -0.067370 -0.534883 0.4968376 
-0.023089 -0.513426 -0.149800 -0.465390 
-0.250558 0.1179148 0.3690789 0.2855044 

-0.189154 0.3917485 -0.337956 0.4441230 
0.3604963 0.4818876 -0.016072 0.3817771 
0.3450799 0.0119144 -0.072126 0.1362259 
0.0514078 0.5551434 -0.067122 -0.167678 
----------------------------------------------
Generation: 8
-0.345934 0.4792341 -0.185722 0.1409290 
0.1514895 0.1017939 -0.493628 -0.119496 
-0.079474 -0.061263 0.2723705 -0.292340 

0.3235519 -0.375652 -0.070133 0.1876046 
0.5208581 0.5423826 0.1205875 -0.128738 
0.2976159 -0.349014 0.2812809 0.0175629 
-0.494626 0.3850295 0.1167874 0.1960660 

-0.392694 -0.079686 -0.320453 0.3425011 
-0.056414 -0.307460 0.3880357 0.2904501 
0.3611420 0.1121138 -0.418334 -0.260993 
-0.444507 0.4333588 -0.172715 -0.369417 
----------------------------------------------
-0.345934 0.4792341 -0.185722 -0.569186 
-0.148856 0.3775301 -0.493628 -0.119496 
0.2328541 -0.249759 -0.356308 0.0543249 

-0.178490 -0.463822 0.1264634 0.3100086 
0.3473470 -0.449700 -0.534883 0.4968376 
-0.023089 -0.089374 -0.143090 -0.286798 
-0.388934 0.2111853 -0.130048 0.4513831 

0.3692994 0.3333006 0.4481840 0.0280879 
0.2533050 0.4899325 -0.501095 -0.409688 
-0.505608 -0.137099 0.3849836 -0.454973 
0.0145504 -0.183648 -0.172715 -0.369417 
----------------------------------------------
Generation: 9
-0.345934 0.4792341 -0.185722 0.1409290 
-0.148856 -0.049013 -0.493628 -0.119496 
-0.079474 0.2335281 0.1171559 0.1594518 

0.1590877 -0.193798 -0.047548 0.1876046 
0.5208581 0.5423826 0.1205875 -0.128738 
0.2976159 -0.349014 0.2812809 0.0175629 
-0.494626 0.3850295 0.1167874 0.1960660 

-0.392694 -0.079686 -0.320453 0.3425011 
-0.056414 -0.307460 0.3880357 0.2904501 
0.3611420 0.1121138 -0.418334 -0.260993 
-0.444507 0.4333588 -0.172715 -0.369417 
----------------------------------------------
0.2900898 0.5700392 4.7434604 -0.070561 
-0.079281 0.3861240 -0.453115 -0.218271 
0.3897592 -0.409571 -0.502279 0.1484805 

-0.063677 0.4066695 0.2847626 -0.380831 
0.0452513 0.5423826 0.1205875 -0.128738 
-0.364246 -0.055259 -0.110094 0.0175629 
-0.494626 -0.416356 -0.275665 0.2855044 

0.2444365 0.4980584 0.3938833 -0.043636 
0.3604963 -0.293597 0.0726515 0.0081926 
0.2254882 0.4918839 -0.351116 -0.551375 
0.2290993 0.5757347 0.3234203 0.3456430 
----------------------------------------------
Generation: 10
0.0795061 -0.015572 -0.095042 0.1409290 
0.1514895 0.3705532 0.2827579 0.2010532 
0.4372252 0.1647968 0.3726515 0.1484805 

-0.063677 0.4066695 0.2847626 -0.380831 
-0.022615 -0.088847 0.1205875 -0.267254 
0.1186761 -0.226276 0.4744841 0.5681205 
-0.349412 0.1179148 0.3690789 -0.119083 

0.2444365 0.4980584 0.3938833 -0.043636 
-0.308545 -0.032645 -0.068635 0.4211393 
-0.511234 -0.113742 -0.519423 0.0528619 
-0.576968 0.4333588 0.0412044 0.1314222 
----------------------------------------------
-0.345934 0.4792341 -0.185722 0.2841710 
0.4557726 0.1005924 -0.337632 -0.568821 
0.4528568 -0.189830 -0.309387 0.5760754 

-0.310626 -0.019835 -0.361568 0.2833384 
0.1794785 -0.513678 -0.106597 -0.324252 
0.4888754 -0.036255 0.1601229 -0.221213 
-0.250558 0.1179148 0.3690789 0.2855044 

-0.317591 0.4137644 -0.466473 0.0305392 
0.2533050 0.4899325 0.0726515 0.0081926 
-0.057782 0.4369462 -0.418640 0.2764717 
0.4956249 -0.181414 -0.172715 -0.369417 
----------------------------------------------
Generation: 11
0.0795061 -0.015572 -0.095042 0.1409290 
0.1514895 0.3705532 0.2827579 0.2010532 
0.4372252 0.1647968 0.3726515 0.1484805 

-0.063677 0.4066695 0.2847626 -0.380831 
-0.022615 -0.088847 0.1205875 -0.267254 
0.1186761 -0.226276 0.4744841 0.5681205 
-0.349412 0.1179148 0.3690789 -0.119083 

0.2444365 0.4980584 0.3938833 -0.043636 
-0.308545 -0.032645 -0.068635 0.4211393 
-0.511234 -0.113742 -0.519423 0.0528619 
-0.576968 0.4333588 0.0412044 0.1314222 
----------------------------------------------
-0.345934 0.4792341 -0.181399 -0.496695 
0.4557726 0.1005924 -0.337632 -0.568821 
0.4528568 -0.189830 -0.309387 0.5760754 

-0.310626 -0.019835 -0.361568 -0.460970 
0.1794785 -0.513678 -0.106597 -0.324252 
0.4888754 -0.036255 0.1601229 -0.221213 
-0.250558 0.1179148 0.3690789 0.2855044 

-0.317591 0.4137644 -0.466473 0.0305392 
0.2533050 0.4899325 0.0726515 0.0081926 
-0.057782 0.4369462 -0.418640 0.2764717 
0.4956249 -0.181414 -0.172715 -0.369417 
----------------------------------------------
Generation: 12
0.0795061 -0.389281 0.4722397 0.2841710 
0.4557726 0.1005924 -0.337632 0.3169155 
0.3305811 0.1109156 -0.309387 0.5760754 

-0.063677 0.4066695 0.2847626 -0.380831 
-0.022615 -0.088847 0.1205875 -0.267254 
0.1186761 -0.226276 0.4744841 0.5681205 
-0.349412 0.1179148 0.3690789 -0.119083 

0.2444365 0.4980584 0.3938833 -0.043636 
-0.308545 -0.032645 -0.068635 0.4211393 
-0.511234 -0.113742 -0.519423 -0.234860 
-0.115237 0.0294739 0.0412044 0.1314222 
----------------------------------------------
-0.057749 0.2494768 -0.185349 -0.244966 
-0.544626 0.0251669 -0.466627 0.2830676 
0.0731928 0.1109156 -0.309387 0.5760754 

-0.310626 -0.019835 0.2163030 0.5336757 
0.0671797 0.5515150 -0.534883 -0.175075 
-0.315432 0.5039634 0.3005594 -0.286798 
-0.388934 0.1179148 -0.275665 0.0808752 

-0.171020 0.3333006 0.4481840 0.0280879 
0.2533050 -0.032645 -0.068635 -0.130499 
-0.477308 0.3843428 0.4983083 -0.208381 
0.2290993 0.5757347 -0.172715 -0.117326 
----------------------------------------------
Generation: 13
0.0795061 -0.389281 0.4722397 0.2841710 
0.4557726 0.3775301 -0.493628 -0.119496 
0.0731928 0.1109156 -0.309387 0.5760754 

-0.310626 -0.019835 0.2163030 0.5336757 
0.0671797 -0.130327 -0.106597 -0.324252 
0.4888754 -0.089374 -0.143090 -0.286798 
-0.140953 0.5279462 -0.137968 -0.119083 

0.2444365 0.4980584 0.3938833 -0.043636 
-0.308545 -0.032645 -0.068635 0.4211393 
-0.511234 -0.113742 -0.519423 -0.234860 
-0.115237 0.0294739 0.0412044 0.1314222 
----------------------------------------------
-0.345934 0.4792341 -0.185722 -0.569186 
-0.148856 0.3775301 -0.493628 0.2010532 
0.4372252 0.1647968 0.3726515 0.1484805 

-0.063677 -0.463822 0.1264634 0.3100086 
0.3473470 -0.477277 -0.462825 0.3713033 
-0.023089 -0.513426 -0.320279 -0.153274 
-0.388934 0.0926800 -0.137968 -0.119083 

0.2444365 0.4980584 0.3938833 0.0305392 
-0.313954 0.4294138 -0.068635 -0.130499 
-0.477308 0.3843428 0.4983083 -0.208381 
0.2290993 0.4333588 -0.172715 -0.369417 
----------------------------------------------
Generation: 14
-0.275676 0.4792341 -0.185722 -0.569186 
-0.148856 0.3775301 -0.493628 -0.119496 
-0.079474 -0.249759 -0.356308 0.1594518 

0.1590877 -0.193798 -0.047548 0.5195768 
-0.022615 -0.449700 -0.534883 0.4968376 
-0.443070 -0.089374 -0.143090 -0.286798 
-0.140953 0.4763385 -0.320018 0.3619255 

-0.422293 0.3537309 -0.337956 0.4441230 
0.3604963 -0.293597 0.0726515 -0.130499 
-0.477308 0.4918839 -0.351116 -0.551375 
-0.166637 0.0360162 0.1960364 0.3607993 
----------------------------------------------
0.3002145 0.3059899 0.4722397 0.2841710 
0.4557726 0.1005924 -0.337632 0.3169155 
-0.313129 0.3328622 -0.013439 0.2300642 

-0.063677 0.4066695 0.2847626 -0.380831 
0.0452513 0.5423826 0.1205875 -0.128738 
-0.364246 -0.402181 0.1601229 0.0939391 
-0.250558 0.1179148 0.3690789 0.0808752 

0.2444365 0.4980584 0.3938833 0.0305392 
0.2533050 0.2304362 -0.459655 0.0081926 
0.2254882 0.4918839 0.3036422 -0.551375 
-0.166637 0.5711587 -0.124541 -0.241405 
----------------------------------------------
Generation: 15
-0.275676 0.4792341 -0.185722 0.1996770 
-0.148856 0.3775301 -0.493628 -0.119496 
-0.079474 -0.249759 -0.356308 0.1594518 

0.1590877 -0.193798 -0.047548 0.5195768 
-0.022615 -0.449700 -0.534883 0.4968376 
-0.443070 -0.089374 -0.143090 -0.286798 
-0.140953 0.4763385 -0.320018 0.3619255 

-0.422293 0.3537309 -0.337956 0.4441230 
0.3604963 -0.293597 0.0726515 -0.130499 
-0.477308 0.4918839 -0.351116 -0.551375 
-0.166637 0.0360162 0.1960364 0.3607993 
----------------------------------------------
0.0795061 -0.389281 -0.181399 -0.496695 
-0.161611 -0.067606 0.1471341 0.0425860 
0.3305811 -0.253703 0.2723705 -0.292340 

0.5083602 0.2513380 0.3894033 0.5738014 
0.1805053 -0.449700 0.3275290 -0.497183 
-0.364246 -0.402181 -0.110094 0.0175629 
-0.494626 0.2352825 0.2797402 0.5441033 

0.0169810 0.4980584 -0.337956 0.4441230 
0.2533050 0.4899325 0.0726515 0.0081926 
-0.477308 0.3843428 0.4983083 -0.234860 
-0.115237 0.0294739 0.0412044 0.1314222 
----------------------------------------------
Generation: 16
-0.275676 0.4792341 -0.185722 0.1996770 
-0.148856 0.3775301 -0.493628 -0.119496 
-0.079474 0.2335281 0.5151541 0.1594518 

0.1590877 -0.193798 -0.047548 0.5195768 
-0.022615 -0.449700 -0.534883 0.4968376 
-0.443070 -0.089374 -0.143090 -0.286798 
-0.140953 0.4763385 -0.320018 0.3619255 

-0.422293 0.3537309 -0.337956 0.4441230 
0.3604963 -0.293597 0.0726515 -0.130499 
-0.477308 0.4918839 -0.351116 -0.551375 
-0.166637 0.0360162 0.1960364 0.3607993 
----------------------------------------------
0.2900898 0.5700392 4.7434604 -0.070561 
-0.079281 0.3861240 -0.453115 -0.218271 
0.3897592 -0.409571 0.5151541 0.0223585 

0.0053355 0.2148510 0.4697800 0.5336757 
0.0671797 0.5515150 -0.534883 0.4535430 
-0.443070 0.3490034 0.1601229 -0.439396 
0.5021909 -0.258363 -0.410068 0.3619255 

-0.161870 0.4137644 -0.466473 0.0305392 
0.2533050 0.4899325 0.0726515 0.0081926 
-0.511234 0.2735056 -0.339813 -0.234860 
0.2290993 0.5757347 0.3234203 0.3456430 
----------------------------------------------
Generation: 17
-0.345934 0.4792341 0.4722397 0.2841710 
0.4557726 0.3775301 -0.493628 -0.119496 
-0.079474 0.2335281 -0.502279 -0.213324 

-0.479788 0.2148510 0.4697800 -0.354377 
-0.377355 -0.067370 -0.106597 -0.324252 
0.4888754 -0.036255 0.4744841 0.5681205 
0.3714254 -0.422796 0.3690789 -0.119083 

0.2444365 0.4980584 0.4481840 0.0280879 
-0.308545 -0.032645 -0.068635 0.4211393 
-0.511234 -0.113742 0.3849836 0.3776418 
-0.576968 0.4333588 -0.172715 -0.369417 
----------------------------------------------
0.0795061 -0.015572 -0.095042 0.1409290 
0.1514895 0.3705532 0.2827579 -0.218271 
0.3897592 -0.409571 -0.328436 -0.569904 

0.0053355 -0.349566 0.2163030 -0.380831 
0.0671797 -0.130327 -0.106597 -0.324252 
0.4888754 -0.089374 -0.143090 -0.286798 
-0.140953 0.1179148 0.3690789 0.2855044 

-0.171020 0.4137644 -0.466473 0.0280879 
0.1679435 0.4899325 -0.501095 -0.409688 
-0.505608 -0.137099 0.0482025 0.0121044 
-0.474754 0.4333588 -0.420938 0.1314222 
----------------------------------------------
Generation: 18
-0.275676 0.4792341 -0.185722 0.1996770 
-0.148856 0.3775301 -0.493628 -0.119496 
-0.079474 -0.249759 -0.356308 0.1594518 

0.1590877 -0.193798 -0.047548 0.5336757 
-0.094667 0.1353474 -0.534883 0.4968376 
-0.443070 -0.089374 -0.143090 -0.286798 
-0.140953 0.4763385 -0.320018 0.3619255 

-0.422293 0.3537309 -0.337956 0.4441230 
0.3604963 -0.293597 0.0726515 -0.130499 
-0.477308 0.4918839 -0.351116 -0.551375 
-0.166637 0.0360162 0.1960364 0.3607993 
----------------------------------------------
0.3002145 0.3059899 0.1441819 0.2367451 
-0.537869 0.3775301 -0.493628 -0.561179 
-0.079474 0.1647968 -0.540590 0.3374471 

0.1979059 -0.124841 0.2163030 0.5336757 
-0.094667 -0.088847 0.1205875 -0.128738 
-0.443070 -0.513426 0.1601229 -0.221213 
-0.494626 0.1179148 0.3690789 0.2855044 

-0.317591 0.4137644 0.3938833 -0.043636 
-0.308545 -0.032645 -0.068635 0.4211393 
-0.511234 0.2735056 -0.351116 -0.551375 
0.2290993 0.5757347 -0.124541 -0.241405 
----------------------------------------------
Generation: 19
-0.275676 0.4792341 -0.185722 0.1996770 
-0.148856 0.3775301 -0.493628 -0.119496 
-0.079474 -0.249759 -0.356308 0.1594518 

0.1590877 -0.193798 -0.047548 0.5195768 
-0.022615 -0.449700 -0.534883 0.4968376 
-0.443070 -0.089374 -0.143090 -0.286798 
-0.140953 0.4763385 -0.320018 0.3619255 

-0.422293 0.3537309 -0.337956 0.4441230 
0.3604963 -0.293597 0.0726515 -0.130499 
-0.477308 0.4918839 -0.351116 -0.551375 
-0.166637 0.0360162 0.1960364 0.3607993 
----------------------------------------------
0.0819269 0.3075150 -0.185722 -0.569186 
-0.148856 0.3775301 -0.493628 -0.461287 
-0.079474 0.1647968 -0.540590 0.3374471 

-0.479788 0.4066695 0.2847626 -0.380831 
-0.022615 -0.088847 -0.534883 0.4968376 
-0.393972 0.0883638 -0.433672 -0.221213 
-0.462291 -0.422796 -0.520458 0.5320754 

-0.171020 0.3333006 0.4481840 0.0280879 
-0.228467 0.4838654 -0.068635 -0.130499 
0.1079360 0.3843428 -0.339813 -0.493808 
-0.219067 0.0306735 -0.047800 0.5067826 
----------------------------------------------
Generation: 20
-0.275676 0.4792341 -0.185722 0.1996770 
-0.148856 0.3775301 -0.493628 -0.119496 
-0.079474 -0.249759 -0.356308 0.1594518 

0.1590877 -0.193798 -0.047548 0.5195768 
-0.022615 -0.449700 -0.534883 0.4968376 
-0.443070 -0.089374 -0.143090 -0.286798 
-0.140953 0.4763385 -0.320018 0.3619255 

-0.422293 0.3537309 -0.337956 0.4441230 
0.3604963 -0.293597 0.0726515 -0.130499 
-0.477308 0.4918839 -0.351116 -0.551375 
-0.166637 0.0360162 0.1960364 0.3607993 
----------------------------------------------
0.0795061 -0.015572 -0.181399 0.1409290 
0.4121229 0.3775301 -0.493628 -0.461287 
-0.079474 0.1647968 -0.540590 0.3374471 

-0.479788 0.4066695 0.2847626 -0.380831 
-0.022615 -0.088847 -0.534883 0.4968376 
-0.393972 0.0883638 -0.433672 -0.221213 
-0.462291 -0.422796 -0.520458 0.5320754 

-0.171020 0.3333006 0.4481840 0.0280879 
-0.228467 0.4838654 -0.068635 -0.130499 
-0.511234 0.3843428 -0.339813 -0.234860 
-0.576968 0.4333588 0.0412044 0.1314222 
----------------------------------------------
Generation: 21
0.2430659 -0.144825 -0.185722 0.1409290 
-0.148856 0.3775301 -0.493628 -0.025259 
-0.079474 -0.249759 -0.502279 0.1594518 

0.3889850 -0.349566 0.4697800 0.5336757 
-0.022615 -0.088847 -0.352111 -0.267254 
0.1186761 -0.089374 0.4093836 -0.286798 
-0.140953 0.5279462 -0.520458 0.2855044 

-0.317591 0.4137644 0.3938833 -0.043636 
0.3604963 -0.293597 0.0726515 -0.130499 
-0.477308 0.4918839 -0.351116 -0.551375 
-0.166637 -0.017241 0.1960364 -0.309087 
----------------------------------------------
0.0795061 -0.015572 -0.095042 0.5740670 
-0.544098 0.1017939 -0.493628 -0.119496 
-0.079474 0.2335281 -0.502279 -0.213324 

-0.479788 0.2148510 0.4697800 0.5523161 
-0.471769 0.5515150 -0.534883 -0.128738 
-0.443070 -0.036255 0.1601229 0.5681205 
-0.140953 0.5279462 -0.275665 0.0808752 

-0.161870 0.4980584 0.3938833 -0.446877 
-0.228467 0.4838654 0.0726515 0.3649860 
0.1079360 0.3843428 -0.339813 -0.493808 
-0.219067 0.5757347 -0.124541 0.1314222 
----------------------------------------------
Generation: 22
0.0795061 -0.015572 -0.185722 0.1409290 
-0.148856 0.3775301 -0.493628 -0.119496 
0.0731928 0.1109156 -0.309387 0.5760754 

-0.310626 -0.019835 0.2163030 0.5336757 
0.0671797 -0.214011 -0.462825 0.3713033 
-0.443070 -0.089374 -0.143090 -0.286798 
-0.140953 0.5279462 -0.275665 0.0808752 

-0.161870 0.3333006 0.4481840 0.0280879 
0.2533050 -0.293597 0.3880357 0.3649860 
0.3450799 -0.113742 -0.351116 -0.551375 
-0.166637 -0.017241 -0.420938 0.1314222 
----------------------------------------------
-0.345934 0.4792341 0.4722397 0.2841710 
0.4557726 0.3775301 -0.493628 -0.119496 
-0.079474 0.2335281 -0.502279 0.1484805 

-0.063677 0.4066695 0.2163030 -0.380831 
0.0671797 -0.130327 -0.106597 -0.324252 
0.4888754 -0.513426 -0.433672 0.2064082 
0.3714254 -0.422796 -0.520458 0.5320754 

-0.178026 0.0103632 -0.060067 0.0280879 
0.1679435 0.4899325 -0.501095 -0.409688 
-0.505608 -0.137099 0.3849836 0.3776418 
-0.576968 -0.181414 -0.172715 -0.369417 
----------------------------------------------
Generation: 23
0.0819269 -0.144825 -0.185722 0.1409290 
-0.148856 0.3775301 -0.493628 -0.119496 
-0.079474 -0.249759 -0.502279 0.1594518 

0.1979059 0.3613654 0.2163030 0.5336757 
0.3473470 -0.449700 -0.106597 0.4968376 
-0.443070 -0.089374 -0.143090 -0.221213 
-0.140953 0.4763385 -0.410068 0.3619255 

-0.161870 -0.385740 0.3938833 0.0280879 
0.2533050 0.4899325 -0.501095 0.2080582 
0.1079360 0.3843428 -0.339813 -0.493808 
-0.219067 0.0306735 -0.047800 0.5067826 
----------------------------------------------
-0.275676 0.4792341 -0.185722 0.1409290 
-0.148856 0.3775301 -0.493628 -0.119496 
-0.079474 0.1647968 -0.502279 0.0223585 

-0.479788 0.2148510 0.4697800 0.5523161 
-0.471769 0.5515150 -0.534883 0.4535430 
-0.443070 0.3490034 0.1601229 -0.439396 
0.5021909 0.4763385 -0.410068 0.3619255 

-0.161870 0.3333006 0.4481840 0.2838113 
0.2533050 0.4899325 -0.501095 -0.409688 
-0.505608 0.3843428 -0.339813 -0.551375 
-0.166637 0.0360162 0.1960364 0.3607993 
----------------------------------------------
Generation: 24
-0.275676 0.3075150 0.1441819 0.2367451 
-0.537869 0.3775301 -0.493628 -0.119496 
0.0731928 0.1109156 -0.309387 0.5760754 

-0.310626 -0.019835 0.2163030 0.5336757 
0.0671797 -0.214011 -0.462825 0.3713033 
-0.443070 -0.089374 -0.143090 -0.286798 
-0.140953 0.4763385 -0.320018 0.3619255 

-0.422293 0.3537309 -0.337956 0.4441230 
0.3604963 -0.293597 0.0726515 -0.130499 
-0.477308 0.3843428 -0.339813 -0.493808 
-0.219067 0.0360162 0.1960364 0.3607993 
----------------------------------------------
-0.345934 0.4792341 0.4722397 0.2841710 
-0.148856 0.3775301 -0.493628 -0.119496 
0.0731928 0.1109156 -0.309387 0.5760754 

-0.310626 -0.019835 0.2163030 0.5336757 
0.0671797 -0.214011 -0.462825 0.3713033 
-0.443070 -0.089374 -0.143090 -0.439396 
0.5021909 0.4763385 -0.410068 0.3619255 

-0.161870 0.4980584 0.4481840 0.0280879 
0.2533050 -0.293597 0.3880357 0.3649860 
0.3450799 -0.113742 -0.351116 -0.551375 
-0.166637 -0.017241 -0.172715 -0.369417 
----------------------------------------------
Generation: 25
0.0819269 -0.144825 -0.185722 0.1409290 
-0.148856 0.3775301 -0.493628 -0.119496 
-0.079474 -0.249759 -0.502279 0.1594518 

0.1979059 0.3613654 0.2163030 0.5336757 
0.3473470 -0.449700 -0.106597 0.4968376 
-0.443070 -0.089374 -0.143090 -0.221213 
-0.140953 0.4763385 -0.410068 0.3619255 

-0.161870 -0.385740 0.3938833 0.0280879 
0.2533050 0.4899325 -0.501095 0.2080582 
0.1079360 0.3843428 -0.339813 -0.493808 
-0.219067 0.0306735 -0.047800 0.5067826 
----------------------------------------------
-0.275676 0.3075150 0.1441819 0.2367451 
-0.537869 0.3775301 -0.493628 -0.119496 
-0.079474 0.1647968 -0.451764 0.0223585 

0.3889850 -0.349566 0.4697800 -0.543735 
-0.022615 -0.088847 -0.534883 0.4968376 
0.2134681 0.3490034 0.1601229 -0.439396 
0.5021909 0.4763385 -0.410068 0.3619255 

-0.161870 0.3333006 0.4481840 0.2838113 
0.2533050 0.4899325 -0.501095 0.3538799 
-0.505608 0.3843428 -0.339813 -0.551375 
-0.166637 0.0360162 0.1960364 0.3607993 
----------------------------------------------
Generation: 26
-0.404980 0.3075150 0.1441819 0.2367451 
-0.537869 0.3775301 -0.493628 -0.119496 
-0.079474 0.2335281 0.3726515 0.3374471 

-0.479788 0.4066695 0.2847626 -0.380831 
-0.022615 -0.088847 -0.534883 0.4968376 
-0.393972 0.0883638 -0.433672 -0.434044 
0.3714254 -0.422796 -0.520458 0.5320754 

-0.178026 0.0103632 -0.060067 0.0280879 
0.5268192 0.4899325 -0.501095 -0.409688 
-0.505608 -0.113742 -0.519423 -0.234860 
-0.576968 -0.181414 0.1960364 0.3607993 
----------------------------------------------
0.0795061 -0.015572 -0.181399 0.1409290 
0.4121229 0.3775301 -0.493628 -0.119496 
0.2328541 -0.019151 -0.502279 0.3374471 

0.0053355 0.1844404 0.2163030 0.5336757 
0.3928713 -0.088847 -0.534883 0.4968376 
-0.393972 0.0883638 -0.433672 0.5681205 
-0.140953 0.5279462 -0.275665 0.0808752 

-0.161870 0.4980584 0.3938833 -0.446877 
-0.228467 0.4838654 -0.068635 -0.130499 
0.1079360 0.3843428 -0.339813 -0.043870 
-0.474754 0.4333588 -0.420938 0.1314222 
----------------------------------------------
Generation: 27
-0.345934 0.4792341 0.4722397 -0.569186 
-0.537869 0.3775301 -0.493628 -0.119496 
0.2328541 0.1647968 -0.502279 0.1594518 

0.3889850 -0.349566 -0.047548 0.5195768 
-0.022615 -0.449700 -0.168990 0.4968376 
-0.443070 -0.089374 0.5329993 -0.439396 
-0.140953 0.5279462 -0.275665 0.0808752 

-0.161870 0.3537309 -0.337956 0.4441230 
0.3604963 -0.293597 0.0726515 0.0081926 
0.2254882 0.4918839 -0.351116 -0.493808 
-0.219067 0.0306735 -0.172715 0.4198031 
----------------------------------------------
-0.345934 -0.144825 -0.185722 0.1409290 
0.1514895 -0.049013 0.3147194 0.3787534 
0.3305811 -0.249759 -0.356308 0.1594518 

-0.479788 0.4066695 0.2163030 -0.380831 
0.3928713 -0.088847 -0.534883 0.3713033 
-0.443070 -0.089374 -0.143090 -0.286798 
-0.140953 0.4763385 -0.320018 0.3619255 

-0.422293 0.3537309 -0.337956 0.4441230 
0.3604963 -0.293597 0.0726515 -0.130499 
-0.477308 0.3843428 -0.339813 -0.493808 
-0.576968 0.4333588 -0.172715 -0.369417 
----------------------------------------------
Generation: 28
-0.345934 0.4792341 0.4722397 -0.569186 
-0.537869 0.3775301 -0.493628 -0.119496 
0.2328541 0.1647968 -0.502279 0.1594518 

0.3889850 -0.349566 -0.047548 0.5195768 
-0.022615 -0.449700 -0.168990 0.4979384 
-0.443070 -0.089374 0.5329993 -0.439396 
-0.140953 0.5279462 -0.275665 0.0808752 

-0.161870 0.3537309 -0.337956 0.4441230 
0.3604963 -0.293597 0.0726515 0.0081926 
0.2254882 0.4918839 -0.351116 -0.493808 
-0.219067 0.0306735 -0.172715 0.4198031 
----------------------------------------------
0.0819269 -0.144825 -0.185722 0.1409290 
-0.148856 0.3775301 -0.493628 -0.561179 
0.0731928 0.1109156 -0.309387 0.5760754 

-0.310626 -0.019835 0.2163030 0.5336757 
0.0671797 -0.214011 -0.462825 0.3713033 
-0.443070 -0.089374 0.2080115 0.2064082 
0.3714254 -0.422796 -0.520458 0.0808752 

0.2444365 0.4980584 0.4481840 0.2838113 
-0.106854 0.5544946 0.0726515 0.0081926 
0.2254882 0.3843428 -0.339813 -0.493808 
-0.219067 0.0306735 0.0148999 0.5067826 
----------------------------------------------
Generation: 29
-0.345934 0.4792341 0.4722397 -0.569186 
-0.537869 0.3775301 -0.493628 -0.119496 
0.2328541 0.1647968 -0.502279 0.1594518 

0.3889850 -0.349566 -0.047548 0.5195768 
-0.022615 -0.449700 -0.168990 0.4979384 
-0.443070 -0.061989 0.5329993 -0.439396 
-0.140953 0.5279462 -0.275665 0.0808752 

-0.161870 0.3537309 -0.337956 0.4441230 
0.3604963 -0.293597 0.0726515 0.0081926 
0.2254882 0.4918839 -0.351116 -0.493808 
-0.219067 0.0306735 -0.172715 0.4198031 
----------------------------------------------
-0.275676 0.3075150 0.1441819 -0.569186 
-0.148856 0.3775301 -0.493628 -0.119496 
-0.079474 0.2335281 -0.309387 0.5760754 

-0.310626 -0.019835 0.2163030 0.5336757 
0.0671797 -0.214011 -0.462825 0.3713033 
-0.443070 0.3490034 0.1601229 -0.439396 
0.5021909 0.4763385 -0.542436 0.5320754 

-0.161870 0.3333006 0.4481840 0.2838113 
0.2533050 0.4354095 -0.501095 -0.409688 
-0.069264 0.3843428 -0.339813 -0.493808 
-0.219067 0.0360162 0.1960364 0.3607993 
----------------------------------------------
Generation: 30
-0.275676 0.3075150 0.1441819 0.2367451 
-0.537869 0.3775301 -0.493628 -0.119496 
-0.079474 -0.249759 -0.502279 0.5760754 

-0.310626 -0.019835 0.2163030 -0.543735 
-0.022615 -0.088847 -0.352111 0.4535430 
-0.443070 0.3490034 0.1601229 -0.439396 
-0.140953 0.5279462 -0.275665 0.0808752 

-0.161870 0.3333006 0.4481840 0.4441230 
0.3604963 -0.293597 0.0726515 -0.130499 
-0.477308 0.3843428 -0.339813 -0.493808 
-0.219067 0.0360162 0.1960364 0.3607993 
----------------------------------------------
-0.345934 0.4792341 0.4722397 0.2841710 
0.4557726 0.3775301 -0.493628 -0.119496 
-0.079474 0.2335281 -0.540590 0.3374471 

-0.479788 0.1844404 0.2163030 0.5336757 
0.3928713 -0.088847 -0.534883 0.4968376 
-0.393972 0.0883638 -0.433672 0.5681205 
-0.140953 0.5279462 -0.275665 0.0808752 

-0.161870 0.4980584 0.4481840 0.2838113 
0.2533050 0.4899325 -0.501095 0.0081926 
-0.157991 -0.113742 0.1381142 -0.551375 
-0.166637 -0.338047 -0.172715 -0.369417 
----------------------------------------------
Generation: 31
-0.345934 0.4792341 -0.185722 0.2841710 
0.4557726 0.3775301 -0.493628 -0.119496 
0.2328541 -0.019151 -0.502279 0.3374471 

0.0430716 -0.349566 0.2163030 0.5336757 
0.3473470 -0.449700 -0.106597 0.4968376 
-0.443070 -0.089374 -0.143090 -0.221213 
-0.140953 0.5279462 -0.275665 0.0808752 

-0.161870 0.3333006 0.4481840 0.4441230 
0.3604963 -0.293597 0.0726515 -0.130499 
-0.477308 0.3843428 -0.339813 -0.493808 
-0.219067 0.0306735 -0.172715 0.4198031 
----------------------------------------------
0.2900898 0.5700392 -0.082153 0.2841710 
0.4557726 -0.149577 -0.493628 -0.119496 
-0.079474 0.2335281 -0.502279 0.1483717 

-0.479788 0.2148510 0.4697800 -0.380831 
-0.094667 -0.088847 0.1205875 0.4968376 
-0.443070 -0.089374 -0.143090 0.5681205 
-0.140953 0.4763385 -0.410068 0.0808752 

-0.161870 0.3333006 0.4481840 0.2838113 
0.2533050 0.4899325 -0.501095 0.2080582 
0.1079360 0.3843428 -0.339813 -0.234860 
0.2290993 0.5757347 0.3234203 0.3456430 
----------------------------------------------
Generation: 32
-0.345934 0.4792341 -0.185722 0.1409290 
0.4121229 0.3775301 -0.493628 -0.119496 
0.2328541 -0.019151 -0.502279 0.3374471 

0.0053355 0.1844404 0.2163030 0.5336757 
0.3928713 -0.088847 -0.534883 0.4968376 
-0.393972 0.0883638 0.1601229 -0.439396 
0.5021909 0.5279462 -0.275665 0.0808752 

-0.161870 0.4980584 0.3938833 0.4441230 
0.3604963 -0.293597 0.0726515 0.0081926 
0.2254882 0.4918839 -0.351116 -0.493808 
-0.219067 0.0306735 -0.172715 0.4198031 
----------------------------------------------
-0.245215 -0.144825 -0.185722 0.2841710 
0.4557726 0.3775301 -0.493628 -0.476421 
0.2328541 -0.019151 -0.502279 0.3374471 

0.0430716 -0.349566 0.2163030 -0.380831 
0.0671797 -0.214011 -0.462825 0.3713033 
-0.443070 -0.036255 0.1601229 -0.439396 
-0.140953 0.4763385 -0.320018 0.3619255 

-0.422293 0.3537309 -0.337956 0.4441230 
0.3604963 -0.293597 0.0726515 0.2080582 
0.2254882 0.4918839 -0.351116 -0.493808 
-0.219067 0.0306735 -0.047800 0.5067826 
----------------------------------------------
Generation: 33
-0.275676 0.3075150 0.1441819 -0.241992 
-0.537869 0.3775301 -0.493628 -0.119496 
0.2328541 -0.019151 -0.502279 0.3374471 

0.0430716 -0.349566 0.2163030 -0.380831 
0.0671797 -0.214011 -0.462825 0.3713033 
-0.443070 -0.036255 0.1601229 -0.286798 
-0.140953 0.4763385 -0.320018 0.3619255 

-0.161870 0.4980584 0.3938833 0.2838113 
0.3604963 -0.293597 -0.501095 0.2080582 
0.1079360 0.3843428 0.1359905 -0.551375 
-0.166637 0.0360162 0.1960364 0.3607993 
----------------------------------------------
-0.275676 0.5700392 -0.082153 0.2841710 
-0.537869 0.3775301 -0.493628 -0.119496 
0.2328541 -0.019151 -0.502279 0.3374471 

0.0053355 0.1844404 -0.047548 0.5195768 
-0.022615 -0.449700 -0.534883 0.4968376 
0.2134681 0.3490034 0.1601229 0.2064082 
0.3714254 -0.422796 -0.520458 0.0808752 

-0.161870 0.3537309 -0.337956 0.4441230 
0.3604963 -0.293597 0.0726515 0.0081926 
0.2254882 0.4918839 -0.351116 -0.493808 
-0.219067 0.0306735 0.1960364 0.3607993 
----------------------------------------------
Generation: 34
-0.345934 0.4792341 0.4722397 -0.569186 
-0.537869 0.3705532 0.2827579 0.2010532 
0.4372252 -0.064815 -0.502279 0.1594518 

-0.310626 -0.019835 0.2163030 0.5336757 
0.0671797 -0.214011 -0.462825 0.3713033 
-0.443070 -0.036255 0.5329993 -0.439396 
-0.140953 0.5279462 -0.320018 0.0808752 

-0.161870 0.3537309 0.0723505 0.2667972 
0.3604963 -0.293597 0.0726515 0.0081926 
0.2254882 0.4918839 -0.351116 -0.493808 
-0.219067 0.0306735 -0.172715 0.4198031 
----------------------------------------------
-0.245215 -0.144825 -0.185722 0.1409290 
0.4557726 0.3775301 -0.493628 -0.119496 
-0.079474 0.2335281 -0.309387 0.5760754 

-0.310626 -0.019835 0.2163030 0.5336757 
0.0671797 -0.214011 -0.462825 0.3713033 
-0.443070 -0.036255 -0.143090 0.2064082 
0.4185770 0.4763385 -0.410068 0.0808752 

-0.161870 0.3333006 0.4481840 0.2838113 
0.2533050 0.4899325 -0.501095 0.3649860 
0.3450799 -0.113742 -0.339813 -0.551375 
-0.166637 0.0360162 0.1960364 0.5067826 
----------------------------------------------
Generation: 35
0.0819269 -0.144825 -0.185722 0.5363095 
-0.148856 0.3775301 -0.493628 -0.561179 
0.2796564 0.1109156 -0.502279 0.3374471 

-0.036189 -0.019835 0.2163030 0.5336757 
0.0671797 -0.214011 0.1205875 0.3713033 
-0.443070 0.3490034 0.1601229 -0.439396 
-0.140953 0.4763385 0.4282555 0.0808752 

-0.356891 0.3537309 -0.337956 0.4441230 
0.3604963 -0.293597 0.0726515 0.0081926 
0.2254882 0.3843428 -0.339813 -0.493808 
-0.219067 0.0306735 0.0148999 0.5067826 
----------------------------------------------
-0.275676 0.3075150 0.1441819 -0.241992 
-0.537869 0.3775301 -0.493628 -0.119496 
0.2328541 -0.019151 -0.502279 0.3374471 

0.0430716 -0.349566 0.2163030 0.5336757 
-0.022615 -0.031848 -0.534883 0.4968376 
-0.393972 0.1654142 0.1601229 -0.286798 
-0.140953 0.5279462 -0.275665 -0.048967 

-0.161870 0.3333006 0.4481840 0.0280879 
0.2533050 -0.293597 0.0726515 -0.130499 
0.1079360 0.3843428 -0.339813 -0.493808 
-0.219067 0.0306735 0.1960364 0.3607993 
----------------------------------------------
Generation: 36
0.0819269 -0.144825 -0.185722 -0.430180 
0.4557726 0.3775301 -0.493628 -0.119496 
0.3305811 -0.249759 -0.356308 0.1594518 

0.4588159 0.3613654 0.2163030 0.5336757 
-0.022615 -0.031848 -0.534883 0.4968376 
-0.393972 0.3490034 -0.143090 0.0939391 
-0.140953 0.5279462 -0.275665 0.0808752 

-0.161870 0.3537309 -0.337956 0.4441230 
0.3604963 -0.293597 -0.501095 -0.409688 
-0.477308 0.3843428 -0.339813 -0.493808 
-0.219067 0.0306735 -0.172715 0.5067826 
----------------------------------------------
-0.275676 0.3075150 0.1441819 -0.241992 
-0.537869 0.3775301 -0.493628 -0.119496 
0.2328541 -0.019151 -0.502279 0.1594518 

0.3889850 -0.349566 0.2163030 0.5336757 
0.3928713 0.2759454 -0.462825 0.3713033 
-0.393972 0.0883638 0.1601229 -0.439396 
0.5021909 0.5279462 -0.275665 0.0808752 

-0.161870 0.4980584 0.3938833 0.4441230 
0.3604963 -0.293597 -0.501095 0.2080582 
0.1079360 0.3843428 0.1359905 -0.551375 
-0.166637 0.0360162 0.1960364 0.3607993 
----------------------------------------------
Generation: 37
0.0819269 -0.144825 -0.185722 -0.430180 
0.4557726 0.3775301 -0.493628 -0.119496 
0.3305811 -0.249759 -0.356308 0.1594518 

0.4588159 0.3613654 0.2163030 0.5336757 
-0.022615 -0.031848 -0.534883 0.4968376 
-0.393972 0.3490034 -0.143090 0.0939391 
-0.140953 0.4943438 -0.275665 0.0808752 

-0.161870 0.3537309 -0.337956 0.4441230 
0.3604963 -0.293597 -0.501095 -0.409688 
-0.477308 0.3843428 -0.339813 -0.493808 
-0.219067 0.0306735 -0.172715 0.5067826 
----------------------------------------------
-0.245215 -0.144825 0.1441819 -0.569186 
-0.537869 0.3775301 -0.493628 -0.119496 
-0.079474 0.2335281 -0.502279 0.3374471 

0.0053355 -0.349566 0.4697800 0.5336757 
0.3928713 0.2709515 -0.534883 0.3713033 
-0.443070 -0.089374 -0.143090 -0.439396 
0.5021909 0.5279462 -0.275665 0.0808752 

-0.161870 0.4980584 0.3938833 0.4441230 
0.3604963 -0.293597 0.0726515 0.0081926 
0.2254882 0.4918839 -0.351116 -0.493808 
-0.219067 0.0306735 -0.047800 0.5067826 
----------------------------------------------
Generation: 38
0.0819269 -0.144825 -0.185722 -0.341593 
0.4557726 0.3775301 -0.493628 -0.119496 
0.3305811 -0.019151 -0.502279 0.1594518 

-0.232156 -0.019835 0.2163030 0.5336757 
-0.022615 -0.482210 -0.534883 0.4968376 
-0.393972 0.1654142 0.1601229 -0.439396 
0.5021909 0.5279462 -0.275665 0.0808752 

-0.161870 0.3537309 -0.337956 0.4441230 
0.3604963 -0.293597 -0.501095 -0.409688 
-0.477308 0.3843428 -0.339813 -0.493808 
-0.219067 0.0306735 -0.172715 0.5067826 
----------------------------------------------
-0.245215 -0.048572 -0.185722 0.1409290 
-0.148856 -0.149577 -0.493628 -0.119496 
-0.079474 0.2335281 -0.130809 0.3374471 

-0.479788 0.3613654 0.2163030 0.5336757 
0.0671797 -0.214011 -0.462825 0.3713033 
-0.443070 -0.036255 0.5329993 -0.439396 
0.5021909 0.5279462 -0.275665 0.0808752 

-0.161870 0.4980584 0.3938833 0.4441230 
0.3604963 -0.241454 0.0726515 0.0081926 
0.2254882 0.3843428 -0.351116 -0.493808 
-0.219067 0.0306735 -0.047800 0.5067826 
----------------------------------------------
Generation: 39
0.0819269 -0.144825 -0.185722 -0.341593 
0.4557726 0.3775301 -0.493628 -0.119496 
0.2328541 -0.019151 -0.130809 0.1594518 

-0.310626 -0.019835 0.2163030 0.5336757 
0.0671797 -0.214011 -0.462825 0.3713033 
-0.443070 -0.036255 -0.143090 -0.221213 
-0.140953 0.5279462 -0.275665 0.3619255 

-0.356891 0.3537309 -0.337956 0.4441230 
0.3604963 -0.293597 0.0726515 -0.409688 
-0.477308 0.3843428 -0.339813 -0.493808 
-0.219067 0.0306735 -0.172715 0.5067826 
----------------------------------------------
0.2900898 0.4792341 0.4722397 -0.569186 
-0.537869 0.3775301 -0.493628 -0.119496 
0.2328541 -0.019151 -0.502279 0.3374471 

0.0053355 0.1844404 -0.047548 0.5195768 
-0.022615 -0.449700 -0.534883 0.4968376 
0.2134681 0.2618206 0.1601229 -0.495994 
0.3714254 -0.422796 -0.520458 0.0808752 

-0.161870 0.3537309 -0.337956 0.4441230 
0.3604963 -0.293597 0.0726515 0.0081926 
0.2254882 0.4918839 -0.351116 -0.493808 
-0.219067 0.0306735 0.3234203 0.3456430 
----------------------------------------------
Generation: 40
0.0819269 -0.144825 -0.185722 -0.341593 
0.4557726 0.3775301 -0.493628 -0.119496 
0.3305811 -0.019151 -0.502279 0.1594518 

-0.232156 -0.019835 0.2163030 0.5336757 
0.3928713 -0.088847 -0.462825 0.3713033 
-0.443070 -0.089374 0.2080115 0.2013058 
-0.140953 0.4763385 -0.320018 0.0808752 

-0.161870 0.3537309 -0.337956 0.4441230 
0.3604963 -0.293597 -0.501095 -0.409688 
-0.477308 0.3843428 -0.339813 -0.493808 
-0.219067 0.0306735 -0.172715 0.5067826 
----------------------------------------------
0.2900898 0.5700392 -0.082153 0.2841710 
-0.537869 0.3775301 -0.493628 -0.119496 
-0.079474 0.2335281 -0.130809 0.5760754 

-0.310626 -0.193798 -0.047548 0.5336757 
-0.022615 -0.031848 -0.534883 0.3713033 
-0.443070 -0.089374 0.1601229 -0.439396 
0.5021909 0.5279462 -0.275665 -0.048967 

-0.161870 0.3537309 -0.337956 0.4441230 
0.3604963 -0.293597 0.0726515 0.0081926 
0.2254882 0.4918839 -0.351116 -0.551375 
-0.474754 0.0306735 0.3234203 0.3456430 
----------------------------------------------
Generation: 41
0.0819269 -0.144825 -0.185722 -0.341593 
0.4557726 0.3775301 -0.493628 -0.119496 
0.3305811 -0.019151 -0.502279 0.1594518 

-0.232156 -0.019835 0.2163030 0.5336757 
0.3928713 -0.088847 -0.462825 0.3713033 
-0.443070 -0.089374 0.2080115 0.2013058 
-0.140953 0.4763385 -0.320018 0.0808752 

-0.161870 0.3537309 -0.337956 0.4441230 
0.3604963 -0.293597 -0.501095 -0.409688 
-0.477308 0.3843428 -0.339813 -0.493808 
-0.219067 0.0306735 -0.172715 0.5067826 
----------------------------------------------
0.2900898 0.5700392 -0.082153 0.2841710 
-0.537869 0.3775301 -0.493628 -0.119496 
-0.079474 0.2335281 -0.130809 0.5760754 

-0.310626 -0.193798 0.0882804 0.5336757 
0.3928713 -0.088847 -0.534883 0.4968376 
-0.443070 0.2618206 0.1601229 -0.495994 
0.3714254 -0.422796 -0.520458 0.0808752 

-0.161870 0.4980584 0.3938833 0.4441230 
0.3604963 -0.293597 0.0726515 0.0081926 
0.2254882 0.4918839 -0.351116 -0.551375 
-0.474754 0.0306735 0.3234203 0.3456430 
----------------------------------------------
Generation: 42
0.0819269 -0.144825 -0.185722 -0.341593 
0.4557726 0.3775301 -0.493628 -0.119496 
0.3305811 -0.019151 -0.502279 0.1594518 

-0.232156 -0.019835 0.2163030 0.5336757 
0.3928713 -0.088847 -0.462825 0.3713033 
-0.443070 0.1654142 0.1601229 -0.439396 
-0.140953 0.4763385 -0.320018 0.0808752 

-0.161870 0.3537309 -0.337956 0.4441230 
0.3604963 -0.293597 -0.501095 -0.409688 
-0.477308 0.3843428 -0.339813 -0.493808 
-0.219067 0.0306735 -0.172715 0.5067826 
----------------------------------------------
0.2900898 0.5700392 -0.082153 0.2841710 
-0.537869 0.3775301 -0.493628 -0.119496 
-0.079474 0.2335281 -0.130809 0.5760754 

-0.310626 -0.193798 0.0882804 0.5336757 
0.3928713 -0.088847 -0.534883 0.4968376 
-0.443070 0.2618206 0.1601229 -0.495994 
0.3714254 -0.422796 -0.520458 0.0808752 

-0.161870 0.4980584 0.3938833 0.4441230 
0.3604963 -0.293597 0.0726515 0.0081926 
0.2254882 0.4918839 -0.351116 -0.551375 
-0.474754 0.0306735 0.3234203 0.3456430 
----------------------------------------------
Generation: 43
-0.345934 0.4792341 0.4722397 0.1409290 
-0.537869 0.3775301 -0.493628 -0.119496 
0.3305811 -0.019151 -0.502279 0.1594518 

-0.232156 -0.019835 0.2163030 0.5336757 
-0.022615 -0.482210 -0.534883 0.3713033 
-0.443070 -0.089374 0.2080115 0.2013058 
-0.140953 0.4763385 -0.275665 0.0808752 

-0.161870 0.4980584 0.3938833 0.1457422 
0.3604963 -0.293597 -0.501095 0.2080582 
0.1079360 0.3843428 0.1359905 -0.551375 
-0.219067 0.0306735 -0.172715 0.4198031 
----------------------------------------------
-0.345934 0.4792341 0.4722397 0.1409290 
0.4121229 0.3775301 -0.493628 -0.119496 
-0.079474 0.2335281 -0.309387 0.5760754 

0.1046273 0.1844404 -0.047548 0.5195768 
-0.022615 -0.449700 -0.534883 0.4968376 
-0.443070 -0.089374 0.5329993 0.2013058 
-0.140953 0.4763385 -0.520458 0.0808752 

-0.161870 0.4980584 0.3938833 0.2667972 
0.3604963 -0.293597 0.0726515 0.0081926 
0.2254882 0.4918839 -0.351116 -0.493808 
-0.219067 0.0306735 -0.172715 0.4198031 
----------------------------------------------
Generation: 44
0.0819269 -0.144825 -0.185722 -0.341593 
0.4557726 0.3775301 -0.493628 -0.119496 
0.3305811 -0.019151 -0.502279 0.1594518 

-0.232156 -0.019835 0.2163030 0.5336757 
0.3928713 -0.088847 -0.462825 0.3713033 
-0.443070 0.0287274 0.2826415 -0.495994 
0.5021909 0.5279462 -0.275665 0.0808752 

-0.161870 0.4980584 0.3938833 0.4441230 
0.3604963 -0.241454 0.0726515 0.0081926 
0.2254882 0.4918839 -0.339813 -0.493808 
-0.219067 0.0306735 -0.172715 0.5067826 
----------------------------------------------
-0.345934 0.4792341 -0.185722 0.1409290 
-0.148856 -0.149577 -0.493628 -0.119496 
-0.079474 0.2335281 -0.130809 0.3374471 

-0.479788 0.3613654 0.2163030 0.5336757 
0.3928713 -0.088847 -0.462825 0.3713033 
-0.443070 -0.036255 0.5329993 -0.439396 
0.5021909 0.5279462 -0.275665 0.0808752 

-0.161870 0.4980584 -0.320520 0.4441230 
0.3604963 -0.293597 0.0726515 0.0081926 
0.2254882 0.3843428 -0.351116 -0.493808 
-0.219067 0.0306735 0.1960364 0.4198031 
----------------------------------------------
Generation: 45
-0.345934 0.4792341 0.4722397 0.1409290 
-0.537869 0.3775301 -0.493628 -0.119496 
0.3305811 -0.019151 -0.502279 0.1594518 

-0.232156 -0.019835 0.2163030 -0.380831 
0.3928713 -0.088847 -0.462825 0.3713033 
-0.443070 -0.089374 0.2080115 -0.221213 
-0.140953 0.5279462 -0.275665 0.3619255 

-0.356891 0.4980584 0.0723505 0.2667972 
0.3604963 -0.293597 0.0726515 0.0081926 
0.2254882 0.3843428 -0.351116 -0.493808 
-0.219067 0.0306735 -0.172715 0.4198031 
----------------------------------------------
0.2900898 -0.144825 -0.185722 -0.341593 
-0.148856 0.3775301 -0.493628 -0.119496 
-0.079474 0.2335281 -0.130809 0.3374471 

-0.310626 -0.019835 0.2163030 0.5336757 
0.0671797 -0.214011 -0.534883 0.3713033 
-0.443070 -0.089374 0.5329993 -0.439396 
0.5021909 0.5279462 -0.275665 0.0808752 

-0.161870 0.3537309 0.0723505 0.4441230 
0.3604963 -0.241454 0.0726515 0.0046809 
0.2254882 0.4918839 -0.351116 -0.551375 
-0.474754 0.0306735 0.3234203 0.3456430 
----------------------------------------------
Generation: 46
0.0819269 -0.144825 -0.185722 0.2841710 
-0.537869 0.3775301 -0.493628 -0.119496 
0.3305811 -0.019151 -0.502279 0.1594518 

-0.232156 -0.019835 0.2163030 -0.380831 
0.3928713 -0.088847 -0.462825 0.3713033 
-0.443070 -0.089374 0.2080115 -0.221213 
-0.140953 0.5279462 -0.275665 0.3619255 

-0.356891 0.4980584 0.0723505 0.2667972 
0.3604963 -0.293597 0.0726515 0.0081926 
0.2254882 0.4918839 -0.351116 -0.551375 
-0.474754 0.0306735 -0.172715 0.5067826 
----------------------------------------------
-0.345934 -0.144825 -0.185722 -0.569186 
-0.148856 0.3775301 -0.493628 -0.119496 
0.2328541 -0.019151 -0.540590 0.3374471 

0.4120716 0.3613654 0.2163030 0.5336757 
0.3928713 -0.088847 -0.534883 0.1454237 
-0.443070 0.3490034 0.1601229 -0.439396 
0.5021909 0.5279462 -0.275665 0.3619255 

-0.356891 0.4980584 0.3938833 0.4441230 
0.3604963 -0.293597 0.0726515 0.0081926 
0.1079360 0.3843428 -0.351116 -0.551375 
-0.474754 0.0306735 -0.172715 0.4198031 
----------------------------------------------
Generation: 47
-0.275676 -0.144825 0.4722397 0.1409290 
-0.537869 0.3775301 -0.493628 -0.119496 
0.3305811 -0.019151 -0.502279 0.1594518 

0.3634416 -0.019835 0.2163030 0.5336757 
0.0671797 -0.449700 -0.534883 0.4968376 
-0.443070 -0.089374 0.5329993 -0.439396 
0.5021909 0.5279462 -0.275665 0.0808752 

-0.161870 0.3537309 0.0723505 0.2667972 
0.3604963 -0.293597 0.0726515 0.0081926 
0.2254882 0.4918839 -0.351116 -0.493808 
-0.219067 0.0306735 -0.172715 0.3607993 
----------------------------------------------
-0.345934 0.4792341 -0.185722 0.1409290 
-0.148856 -0.149577 -0.493628 -0.119496 
-0.079474 0.2335281 -0.130809 0.3374471 

-0.479788 0.3613654 0.2163030 0.5336757 
0.3928713 -0.088847 -0.534883 -0.079249 
-0.443070 -0.089374 0.2080115 -0.495994 
0.5021909 0.5279462 -0.275665 0.0808752 

-0.161870 0.4980584 0.3938833 0.4441230 
0.3604963 -0.241454 0.0726515 0.0081926 
0.2254882 0.3843428 -0.351116 -0.493808 
-0.219067 0.0306735 -0.536090 0.4198031 
----------------------------------------------
Generation: 48
-0.275676 -0.144825 -0.185722 0.1409290 
-0.537869 0.3775301 -0.493628 -0.119496 
0.3305811 -0.019151 -0.502279 0.1594518 

0.3634416 -0.019835 0.2163030 0.5336757 
0.3928713 -0.088847 -0.534883 0.1454237 
-0.443070 0.3490034 0.1601229 -0.439396 
0.5021909 0.5279462 -0.275665 0.0808752 

-0.161870 0.4980584 0.3938833 0.1457422 
0.3604963 -0.293597 0.0726515 0.0081926 
0.2254882 0.3843428 -0.339813 -0.493808 
-0.219067 0.0360162 0.1960364 0.3607993 
----------------------------------------------
-0.345934 0.4792341 0.4722397 -0.569186 
-0.148856 0.3775301 -0.493628 -0.119496 
0.2328541 -0.019151 -0.540590 0.3374471 

0.4120716 0.3613654 0.2163030 0.5336757 
0.3928713 -0.088847 -0.534883 0.1454237 
-0.443070 0.3490034 0.1601229 -0.439396 
0.5021909 0.5279462 -0.275665 0.0808752 

-0.161870 0.4980584 0.3938833 0.1457422 
0.3604963 -0.293597 -0.501095 0.2080582 
0.1079360 0.3843428 0.1359905 -0.551375 
-0.219067 0.0306735 -0.536090 0.4198031 
----------------------------------------------
Generation: 49
-0.275676 -0.144825 -0.185722 0.1409290 
-0.537869 0.3775301 -0.493628 -0.119496 
0.3305811 -0.019151 -0.502279 0.1594518 

0.3634416 -0.019835 0.2163030 0.5336757 
0.3928713 -0.088847 -0.534883 0.1454237 
-0.443070 0.3490034 0.1601229 -0.439396 
0.5021909 0.5279462 -0.275665 0.0808752 

-0.161870 0.4980584 0.3938833 0.1457422 
0.3604963 -0.293597 0.0726515 0.0081926 
0.2254882 0.3843428 -0.339813 -0.493808 
-0.219067 0.0360162 0.1960364 0.3607993 
----------------------------------------------
-0.345934 -0.144825 -0.185722 0.1409290 
0.4121229 0.3775301 -0.493628 -0.119496 
0.2328541 -0.019151 -0.436394 0.3374471 

-0.232156 -0.019835 0.2163030 -0.380831 
0.3928713 -0.088847 -0.462825 0.4968376 
-0.443070 -0.089374 0.5329993 -0.439396 
-0.140953 0.5279462 -0.275665 0.0808752 

-0.356891 0.4696687 -0.337956 0.4441230 
0.3604963 -0.293597 0.0726515 0.0081926 
0.1079360 0.3843428 -0.351116 -0.551375 
-0.474754 0.0306735 -0.536090 0.4198031 
----------------------------------------------
Generation: 50
-0.345934 0.4792341 -0.185722 0.1409290 
-0.482560 0.3775301 -0.493628 -0.119496 
0.3305811 -0.019151 -0.502279 0.1594518 

-0.310626 -0.019835 0.2163030 -0.380831 
-0.022615 -0.325437 -0.534883 0.1454237 
-0.519033 0.3490034 0.1601229 -0.439396 
0.5021909 0.5279462 -0.275665 0.0808752 

-0.161870 0.4980584 0.3938833 0.4441230 
0.3604963 -0.293597 0.0726515 0.0081926 
0.2254882 0.4918839 -0.511428 -0.551375 
-0.474754 0.0306735 0.0148999 0.4198031 
----------------------------------------------
-0.345934 0.4792341 -0.185722 -0.341593 
-0.537869 0.3775301 -0.493628 -0.119496 
0.3305811 -0.019151 -0.502279 0.1594518 

-0.310626 -0.193798 0.2163030 0.5336757 
0.3928713 -0.088847 -0.462825 0.3713033 
-0.443070 -0.089374 0.2080115 -0.221213 
-0.140953 0.4763385 -0.320018 0.0808752 

-0.161870 0.4980584 0.0723505 0.2667972 
0.3604963 -0.293597 0.0726515 0.0081926 
0.2254882 0.3843428 -0.351116 -0.493808 
-0.219067 0.0306735 -0.172715 0.4198031 
----------------------------------------------
Generation: 51
-0.275676 -0.144825 -0.185722 0.1409290 
-0.537869 0.3775301 -0.493628 -0.119496 
0.3305811 -0.019151 -0.502279 0.1594518 

0.3634416 -0.019835 0.2163030 0.5336757 
0.3928713 -0.088847 -0.534883 0.1454237 
-0.443070 0.0883638 0.1601229 -0.439396 
0.5021909 0.5279462 -0.275665 0.0808752 

-0.161870 0.4980584 0.3938833 0.1457422 
0.3604963 -0.293597 0.0726515 0.0081926 
0.4984701 0.3843428 -0.339813 -0.493808 
-0.219067 0.0360162 0.1960364 0.3607993 
----------------------------------------------
0.2900898 0.5700392 -0.185722 0.1409290 
0.4121229 0.3775301 -0.493628 -0.119496 
0.3305811 -0.019151 -0.502279 0.1594518 

-0.479788 -0.019835 0.2163030 0.5336757 
0.3928713 -0.226253 -0.534883 0.3713033 
-0.443070 -0.089374 0.2080115 0.2013058 
0.5021909 0.5279462 -0.275665 0.0808752 

-0.161870 0.4696687 -0.337956 0.4441230 
0.3604963 -0.241454 0.0726515 0.0081926 
0.2254882 0.4918839 -0.339813 -0.493808 
-0.219067 0.0306735 -0.172715 0.3456430 
----------------------------------------------
Generation: 52
-0.275676 -0.144825 -0.185722 0.1409290 
-0.537869 0.3775301 -0.493628 -0.119496 
0.3305811 -0.019151 -0.502279 0.1594518 

0.3634416 -0.019835 0.2163030 0.5336757 
0.3928713 -0.088847 -0.534883 0.3713033 
-0.443070 -0.089374 0.1106813 -0.439396 
0.5021909 0.5279462 -0.275665 0.0808752 

-0.356891 0.4980584 0.3938833 0.4441230 
0.3604963 -0.293597 0.0726515 0.0081926 
0.2254882 0.4918839 -0.339813 -0.493808 
-0.219067 0.0360162 0.1960364 0.3607993 
----------------------------------------------
-0.345934 0.4792341 0.4722397 0.1409290 
-0.537869 0.3775301 -0.493628 -0.119496 
0.3305811 -0.019151 -0.502279 0.1594518 

-0.479788 0.2148510 0.2163030 0.5336757 
0.3928713 -0.226253 -0.462825 0.4968376 
-0.443070 -0.089374 0.5329993 -0.439396 
-0.140953 0.5279462 -0.275665 0.0808752 

-0.356891 0.4696687 -0.337956 0.4441230 
0.3604963 -0.241454 0.0726515 0.0081926 
0.2254882 0.4918839 -0.339813 -0.493808 
-0.219067 0.0306735 -0.172715 0.4198031 
----------------------------------------------
Generation: 53
-0.345934 -0.144825 -0.185722 0.1409290 
-0.537869 0.3775301 0.4046845 -0.119496 
0.3305811 -0.019151 -0.487374 0.1594518 

0.3634416 -0.019835 0.2163030 0.5336757 
0.0671797 -0.088847 -0.534883 0.3713033 
-0.443070 -0.089374 0.2080115 -0.495994 
0.5021909 0.5279462 -0.275665 0.0808752 

-0.161870 0.4980584 0.3938833 0.1457422 
0.3604963 -0.293597 -0.501095 0.2080582 
0.1079360 0.4918839 -0.339813 -0.493808 
-0.474754 0.0306735 -0.172715 0.4198031 
----------------------------------------------
-0.345934 0.4792341 0.4722397 0.1409290 
-0.537869 0.3775301 -0.493628 -0.119496 
0.3305811 -0.019151 -0.502279 0.1594518 

0.3634416 -0.019835 0.2163030 0.5336757 
0.3928713 -0.088847 -0.534883 0.1454237 
-0.443070 0.3490034 0.1601229 -0.439396 
0.5021909 0.5279462 -0.275665 0.3619255 

-0.356891 0.4980584 0.3938833 0.4441230 
0.3604963 -0.293597 0.0726515 0.0081926 
0.2254882 0.4918839 -0.351116 -0.493808 
-0.219067 0.0306735 -0.172715 0.4198031 
----------------------------------------------
Generation: 54
-0.345934 0.4792341 -0.185722 0.1409290 
-0.537869 0.3775301 0.1108743 -0.119496 
0.3305811 -0.019151 -0.502279 0.1594518 

0.3634416 -0.019835 0.2163030 0.5336757 
-0.022615 -0.088847 -0.462825 0.1454237 
-0.443070 0.0287274 0.2080115 -0.286798 
-0.140953 0.4763385 -0.320018 0.0808752 

-0.161870 0.4980584 0.0723505 0.2667972 
0.3604963 -0.293597 0.0726515 0.0081926 
0.2254882 0.3843428 -0.339813 -0.493808 
-0.219067 0.0306735 -0.172715 0.4198031 
----------------------------------------------
-0.345934 0.4792341 -0.185722 0.1409290 
0.4121229 0.3775301 0.4046845 -0.119496 
0.3305811 -0.019151 -0.502279 0.1594518 

0.3634416 -0.019835 0.2163030 0.5336757 
0.3928713 -0.088847 -0.534883 0.1454237 
-0.443070 -0.036255 0.5329993 0.4289464 
0.5021909 0.4763385 -0.275665 0.0808752 

-0.356891 0.4696687 -0.337956 0.4441230 
0.3604963 -0.293597 0.0726515 0.0081926 
0.1079360 0.3843428 -0.339813 -0.493808 
-0.219067 0.0306735 -0.172715 0.4198031 
----------------------------------------------
Generation: 55
-0.345934 -0.144825 -0.185722 0.1409290 
-0.537869 0.3775301 0.4046845 -0.119496 
0.3305811 -0.019151 -0.502279 0.1594518 

0.3634416 -0.019835 0.2163030 -0.380831 
0.3928713 -0.088847 -0.462825 0.3713033 
-0.443070 0.0883638 0.1601229 -0.439396 
0.5021909 0.5279462 -0.275665 0.0808752 

-0.356891 0.4980584 0.3938833 0.4441230 
0.3604963 -0.293597 0.0726515 0.0081926 
-0.207960 0.4918839 0.2695798 -0.493808 
-0.219067 0.0306735 -0.172715 0.4198031 
----------------------------------------------
-0.345934 -0.144825 -0.185722 0.1409290 
-0.537869 0.3775301 -0.493628 -0.119496 
0.3305811 -0.019151 -0.502279 0.1594518 

0.3634416 -0.019835 0.2163030 0.5336757 
-0.022615 -0.088847 -0.462825 0.4968376 
-0.443070 0.3490034 0.1106813 -0.439396 
0.5021909 0.5279462 -0.275665 0.3619255 

-0.356891 0.4980584 0.3938833 0.4441230 
0.3604963 -0.293597 0.0726515 0.0081926 
0.1079360 0.3843428 -0.351116 -0.551375 
-0.474754 0.0306735 -0.536090 0.4198031 
----------------------------------------------
Generation: 56
-0.345934 0.4792341 -0.185722 0.1409290 
-0.537869 0.3775301 -0.493628 -0.119496 
0.4965119 -0.019151 -0.502279 0.1594518 

-0.232156 -0.019835 0.2163030 -0.380831 
0.3928713 -0.088847 -0.462825 0.4968376 
-0.443070 0.0287274 0.2080115 -0.286798 
-0.140953 0.4763385 -0.275665 0.0808752 

-0.161870 0.4980584 0.3938833 0.4441230 
0.3604963 -0.293597 0.0726515 0.0081926 
0.1079360 0.4918839 -0.339813 -0.493808 
-0.219067 0.0306735 0.0148999 0.4198031 
----------------------------------------------
0.2900898 0.5700392 -0.185722 0.1409290 
0.4121229 0.3775301 -0.493628 -0.119496 
0.3305811 -0.019151 -0.502279 0.1594518 

-0.235393 0.2148510 0.2163030 0.5336757 
0.3928713 -0.226253 -0.462825 0.4968376 
-0.443070 -0.089374 0.5329993 -0.439396 
-0.140953 0.5279462 -0.275665 0.0808752 

-0.161870 0.4696687 0.3938833 0.4441230 
0.3604963 -0.293597 0.0726515 0.0081926 
0.1079360 0.4918839 -0.339813 -0.493808 
-0.219067 0.0306735 -0.172715 0.3456430 
----------------------------------------------
Generation: 57
-0.345934 -0.144825 -0.185722 0.1409290 
-0.537869 0.3775301 0.4046845 -0.119496 
0.3305811 -0.019151 -0.502279 0.1594518 

0.3634416 -0.019835 0.2163030 -0.380831 
0.3928713 -0.088847 -0.534883 0.3713033 
-0.443070 0.0883638 0.1601229 -0.439396 
0.5021909 0.5279462 -0.275665 0.0808752 

-0.356891 0.4980584 0.3938833 0.4441230 
0.3604963 -0.293597 0.0726515 0.0081926 
-0.207960 0.4918839 -0.351116 -0.493808 
-0.474754 0.0306735 0.0148999 0.4198031 
----------------------------------------------
-0.345934 0.4792341 -0.185722 0.1409290 
-0.537869 0.3775301 0.4046845 -0.119496 
0.3305811 -0.019151 -0.436394 0.1594518 

0.3634416 -0.019835 0.2163030 0.5336757 
0.3928713 -0.088847 -0.534883 0.1454237 
-0.443070 -0.089374 -0.010403 -0.286798 
0.5021909 0.5279462 -0.275665 0.3619255 

-0.356891 0.4980584 0.3938833 0.4441230 
0.3604963 -0.293597 0.0726515 0.0081926 
-0.207960 0.4918839 -0.351116 -0.493808 
-0.219067 0.0306735 -0.172715 0.4198031 
----------------------------------------------
Generation: 58
-0.345934 -0.144825 -0.185722 0.1409290 
-0.537869 0.3775301 0.4046845 -0.119496 
0.3305811 -0.019151 -0.502279 0.1594518 

0.3634416 -0.019835 0.2163030 -0.380831 
0.3928713 -0.088847 -0.462825 -0.135414 
-0.443070 0.0287274 0.2080115 -0.286798 
-0.140953 0.5279462 -0.275665 0.3619255 

-0.356891 0.4696687 -0.337956 0.4441230 
0.3604963 -0.293597 0.0726515 0.0081926 
0.1079360 0.4918839 -0.351116 -0.493808 
-0.219067 0.0306735 -0.172715 0.4198031 
----------------------------------------------
-0.345934 -0.144825 -0.185722 0.1409290 
-0.537869 0.3775301 -0.493628 -0.119496 
0.4965119 -0.019151 -0.502279 0.1594518 

-0.426242 -0.019835 0.2163030 0.5336757 
0.3928713 -0.088847 -0.534883 0.1454237 
-0.443070 0.0287274 0.2080115 -0.286798 
-0.140953 0.4763385 -0.275665 0.0808752 

-0.001358 0.4980584 0.3938833 0.4441230 
0.3604963 -0.293597 0.0726515 0.0081926 
0.2254882 0.4918839 -0.339813 -0.493808 
-0.219067 0.0306735 -0.172715 0.4198031 
----------------------------------------------
Generation: 59
-0.345934 -0.144825 -0.185722 0.1409290 
-0.537869 0.3775301 0.4046845 -0.119496 
0.3305811 -0.019151 -0.502279 0.1594518 

0.3634416 -0.019835 0.2163030 -0.380831 
0.3928713 -0.088847 -0.462825 0.3713033 
-0.443070 0.0287274 0.2080115 -0.286798 
-0.140953 0.4763385 -0.275665 0.0808752 

-0.161870 0.4980584 0.3938833 0.4441230 
0.3604963 -0.293597 0.0726515 0.0081926 
0.2254882 0.4918839 -0.339813 -0.493808 
-0.219067 0.0306735 -0.172715 0.4198031 
----------------------------------------------
-0.345934 -0.144825 -0.185722 0.1409290 
-0.537869 0.3775301 -0.493628 -0.119496 
0.3305811 -0.019151 -0.502279 0.1594518 

0.3634416 -0.019835 0.2163030 0.5336757 
0.3928713 -0.088847 -0.534883 0.1454237 
-0.443070 -0.448260 0.2080115 -0.439396 
-0.234732 0.5279462 -0.275665 0.3619255 

-0.356891 0.4696687 0.3938833 0.4441230 
0.3604963 -0.293597 0.0726515 0.0081926 
0.2254882 0.4918839 -0.351116 -0.493808 
-0.219067 0.0306735 -0.172715 0.4198031 
----------------------------------------------
Generation: 60
-0.345934 -0.144825 -0.185722 0.1409290 
-0.537869 0.3775301 0.4046845 -0.119496 
0.3305811 -0.019151 -0.502279 0.1594518 

0.3634416 -0.019835 0.2163030 -0.380831 
0.3928713 -0.088847 -0.462825 -0.135414 
-0.443070 0.0287274 0.2080115 -0.439396 
0.5021909 0.5279462 -0.275665 0.0808752 

-0.161870 0.4980584 0.3938833 0.4441230 
0.3604963 -0.293597 0.0726515 0.0081926 
0.1079360 0.4918839 -0.351116 -0.493808 
-0.219067 0.0306735 0.4206956 0.4198031 
----------------------------------------------
-0.345934 -0.144825 -0.185722 0.1409290 
-0.537869 0.3775301 0.4046845 -0.119496 
0.3305811 -0.019151 -0.502279 0.1594518 

0.3634416 -0.019835 0.2163030 -0.380831 
0.3928713 -0.088847 -0.462825 -0.135414 
-0.443070 0.0287274 0.2080115 -0.286798 
-0.140953 0.5279462 -0.275665 0.3619255 

-0.356891 0.4696687 -0.337956 0.4441230 
0.3604963 -0.293597 0.0726515 0.0081926 
0.1079360 0.4918839 -0.351116 -0.551375 
-0.219067 0.0306735 -0.172715 0.4198031 
----------------------------------------------
Generation: 61
-0.345934 -0.144825 -0.185722 0.1409290 
-0.331995 0.3775301 0.4046845 -0.119496 
0.3305811 -0.019151 -0.436394 0.1594518 

0.3634416 -0.019835 0.2163030 -0.380831 
0.3928713 -0.088847 -0.534883 0.1454237 
-0.443070 -0.036255 0.5329993 -0.221213 
-0.140953 0.5279462 -0.275665 0.0808752 

-0.161870 0.4980584 0.3938833 0.4441230 
0.3604963 -0.293597 0.0726515 0.0081926 
0.1079360 0.4918839 -0.351116 -0.551375 
-0.219067 0.0306735 -0.172715 0.4198031 
----------------------------------------------
-0.345934 -0.144825 -0.185722 0.1409290 
-0.537869 0.3775301 0.4046845 -0.119496 
0.3305811 -0.019151 -0.502279 0.1594518 

0.3634416 -0.019835 0.2163030 -0.380831 
0.3928713 -0.088847 -0.462825 0.1454237 
-0.443070 0.0287274 0.2080115 -0.286798 
-0.140953 0.4763385 -0.275665 0.0808752 

-0.161870 0.4980584 0.3938833 0.4441230 
0.3604963 -0.293597 0.0726515 0.0081926 
0.1079360 0.4918839 -0.351116 -0.493808 
-0.219067 0.0306735 -0.172715 0.4198031 
----------------------------------------------
Generation: 62
-0.345934 -0.144825 -0.185722 0.1409290 
-0.331995 0.3775301 0.4046845 -0.119496 
0.3305811 -0.019151 -0.436394 0.1594518 

0.3634416 -0.019835 -0.088699 -0.380831 
0.3928713 -0.088847 -0.462825 -0.135414 
-0.443070 0.0287274 0.2080115 -0.286798 
0.5021909 0.5279462 -0.275665 0.0808752 

-0.161870 0.4980584 0.3938833 0.4441230 
0.3604963 -0.293597 0.0726515 0.0081926 
0.1079360 0.4918839 -0.351116 -0.493808 
-0.219067 0.0306735 -0.172715 0.4198031 
----------------------------------------------
-0.345934 -0.144825 -0.185722 0.3534056 
-0.537869 0.3775301 0.4046845 -0.119496 
0.3305811 -0.019151 -0.502279 0.1594518 

0.3634416 -0.019835 0.2163030 -0.380831 
0.3928713 -0.088847 -0.534883 -0.135414 
-0.443070 -0.089374 0.2080115 -0.286798 
0.5021909 0.5279462 -0.275665 0.3619255 

-0.161870 0.4980584 0.3938833 0.4441230 
0.3604963 -0.293597 0.0726515 0.0081926 
-0.514254 0.4918839 -0.351116 -0.493808 
-0.219067 0.0306735 -0.172715 0.4198031 
----------------------------------------------
Generation: 63
-0.275676 -0.144825 -0.185722 0.1409290 
-0.331995 0.3775301 0.4046845 -0.119496 
0.3305811 -0.019151 -0.436394 0.1594518 

0.3634416 -0.019835 0.2163030 -0.380831 
0.3928713 -0.088847 -0.534883 0.1454237 
-0.443070 -0.036255 0.5329993 -0.286798 
0.5021909 0.4763385 -0.275665 0.0808752 

-0.161870 0.4980584 0.3938833 0.4441230 
0.3604963 -0.293597 0.0726515 0.0081926 
0.1079360 0.4918839 -0.351116 -0.493808 
-0.219067 0.0306735 -0.172715 0.3607993 
----------------------------------------------
-0.345934 -0.144825 -0.185722 0.1409290 
-0.537869 0.3775301 0.4046845 -0.119496 
0.3305811 -0.019151 -0.502279 0.1594518 

0.3031408 -0.019835 0.2163030 -0.380831 
0.3928713 -0.088847 -0.462825 0.3713033 
-0.443070 0.0287274 0.2080115 -0.286798 
0.5021909 0.4763385 -0.275665 0.0808752 

-0.356891 0.4980584 0.3938833 0.4441230 
0.3604963 -0.293597 0.2917193 0.0081926 
0.2254882 0.4918839 -0.351116 -0.493808 
-0.219067 0.0306735 -0.536090 0.4198031 
----------------------------------------------
Generation: 64
-0.345934 -0.144825 -0.185722 0.1409290 
-0.331995 0.3775301 0.4046845 -0.119496 
0.3305811 -0.019151 -0.502279 0.1594518 

0.3634416 -0.019835 0.2163030 -0.380831 
0.3928713 -0.088847 -0.462825 -0.135414 
-0.443070 -0.036255 0.5329993 -0.221213 
-0.140953 0.5279462 -0.320018 0.0053677 

-0.356891 0.4696687 0.3938833 0.4441230 
0.3604963 -0.293597 0.0726515 0.0081926 
-0.207960 0.4918839 -0.351116 -0.551375 
-0.219067 0.0306735 -0.172715 0.4198031 
----------------------------------------------
-0.345934 -0.144825 -0.185722 0.1409290 
-0.537869 0.3775301 0.4046845 -0.119496 
0.3305811 -0.019151 -0.502279 0.1594518 

0.3634416 -0.019835 0.2163030 -0.380831 
0.3928713 -0.088847 -0.534883 -0.135414 
-0.443070 -0.089374 0.2080115 -0.286798 
0.5021909 0.5279462 -0.275665 0.0808752 

-0.161870 0.4980584 0.3938833 0.4441230 
0.3604963 -0.293597 0.0726515 0.0081926 
0.1079360 0.4918839 -0.351116 -0.493808 
-0.219067 0.0306735 -0.172715 0.4198031 
----------------------------------------------
Generation: 65
-0.345934 -0.144825 -0.185722 0.1409290 
-0.331995 0.3775301 0.4046845 -0.119496 
0.3305811 -0.019151 -0.502279 0.1594518 

0.3634416 -0.019835 0.2163030 -0.380831 
0.3928713 -0.088847 -0.462825 -0.135414 
-0.443070 -0.089374 0.1106813 -0.303919 
0.5021909 0.5279462 -0.275665 0.3619255 

-0.356891 0.4980584 0.3938833 0.4441230 
0.3604963 -0.293597 0.0726515 0.0081926 
-0.514254 0.4918839 -0.351116 -0.493808 
-0.219067 0.0306735 -0.172715 0.4198031 
----------------------------------------------
-0.345934 -0.144825 -0.185722 0.1409290 
-0.537869 0.3775301 0.4046845 -0.119496 
0.3305811 -0.019151 -0.502279 0.1594518 

0.3634416 -0.019835 0.2163030 -0.380831 
0.3928713 -0.088847 -0.462825 -0.135414 
-0.443070 0.0287274 0.2080115 -0.221213 
-0.140953 0.4763385 -0.320018 0.0053677 

-0.356891 0.4696687 0.3938833 0.4441230 
0.3604963 -0.293597 0.0726515 0.0081926 
-0.207960 0.4918839 -0.351116 -0.493808 
-0.219067 0.0306735 -0.172715 0.4198031 
----------------------------------------------
Generation: 66
-0.345934 -0.144825 -0.185722 0.1409290 
-0.537869 0.3775301 0.4046845 -0.119496 
0.3305811 -0.019151 -0.502279 0.1594518 

0.3634416 -0.019835 0.2163030 -0.380831 
0.3928713 -0.088847 -0.462825 -0.135414 
-0.443070 0.0287274 0.2080115 -0.286798 
0.5021909 0.5279462 -0.275665 0.0808752 

-0.356891 0.4980584 0.3938833 0.4441230 
0.3604963 -0.293597 0.0726515 0.0081926 
0.2254882 0.4918839 -0.351116 -0.493808 
-0.219067 0.0306735 0.4206956 0.4198031 
----------------------------------------------
-0.345934 -0.023739 -0.185722 0.1409290 
-0.537869 0.3775301 0.4046845 -0.119496 
0.3305811 -0.019151 -0.502279 0.1594518 

0.3634416 -0.019835 0.2163030 -0.380831 
0.3928713 -0.088847 -0.534883 0.1454237 
-0.443070 -0.036255 0.5329993 -0.286798 
-0.140953 0.4763385 -0.275665 0.3619255 

-0.356891 0.4980584 -0.478233 0.3807800 
0.3604963 -0.241454 0.0726515 0.0081926 
0.2254882 0.4918839 -0.351116 -0.493808 
-0.219067 0.0306735 -0.172715 0.4198031 
----------------------------------------------
Generation: 67
-0.345934 -0.144825 -0.185722 0.1409290 
-0.331995 0.3775301 0.4046845 -0.119496 
0.3305811 -0.019151 -0.502279 0.1594518 

0.3634416 -0.019835 0.2163030 -0.380831 
0.3928713 -0.088847 -0.462825 -0.135414 
-0.443070 0.0287274 0.2080115 -0.286798 
-0.140953 0.4763385 -0.275665 0.0808752 

-0.356891 0.4980584 0.3938833 0.4441230 
0.3604963 -0.293597 0.0726515 0.0081926 
-0.514254 0.4918839 -0.339813 -0.493808 
-0.219067 0.0306735 -0.172715 0.4198031 
----------------------------------------------
-0.345934 -0.144825 -0.185722 0.1409290 
-0.537869 0.3775301 0.4046845 -0.119496 
0.3305811 0.4207486 -0.502279 0.1594518 

0.3634416 -0.019835 0.2163030 -0.380831 
0.3928713 -0.088847 -0.462825 -0.135414 
-0.443070 0.0287274 0.2080115 -0.286798 
-0.140953 0.4763385 -0.275665 0.0808752 

-0.161870 0.4980584 0.3938833 0.4441230 
0.3604963 -0.293597 0.0726515 0.0081926 
0.1079360 0.4918839 -0.351116 -0.493808 
-0.219067 0.0306735 -0.115287 0.4198031 
----------------------------------------------
Generation: 68
-0.345934 -0.144825 -0.185722 0.1409290 
-0.537869 0.3775301 0.4046845 -0.119496 
0.3305811 -0.019151 -0.502279 0.1594518 

0.3634416 -0.019835 0.2163030 -0.380831 
0.3928713 -0.088847 -0.462825 -0.135414 
-0.443070 0.0287274 0.2080115 -0.286798 
0.5021909 0.5279462 -0.275665 0.0808752 

-0.161870 0.4980584 0.3938833 0.4441230 
0.3604963 -0.293597 0.0726515 0.0081926 
0.1079360 0.4918839 -0.351116 -0.551375 
-0.219067 0.0306735 0.2925772 0.4198031 
----------------------------------------------
-0.345934 -0.023739 -0.185722 0.1409290 
-0.537869 0.3775301 0.4046845 -0.119496 
0.3305811 -0.019151 -0.502279 0.1594518 

0.0907098 -0.019835 0.2163030 -0.380831 
0.3928713 0.1668366 -0.462825 -0.135414 
-0.443070 0.0287274 0.5329993 -0.286798 
-0.140953 0.4763385 -0.275665 0.3619255 

-0.356891 0.4980584 -0.478233 0.3807800 
0.3604963 -0.293597 0.0726515 0.0081926 
0.1880322 0.4918839 0.3319144 -0.551375 
-0.219067 0.0306735 -0.172715 0.4198031 
----------------------------------------------
Generation: 69
-0.345934 -0.144825 -0.185722 0.1409290 
-0.331995 0.3775301 0.4046845 -0.119496 
0.3305811 -0.019151 -0.502279 0.1594518 

0.3634416 -0.019835 0.2163030 -0.171433 
0.3928713 -0.088847 -0.462825 -0.135414 
-0.443070 0.0287274 0.2080115 -0.248652 
-0.140953 0.4763385 -0.275665 0.0808752 

-0.356891 0.4980584 0.3938833 0.4441230 
0.3604963 -0.293597 0.0726515 0.0081926 
0.2254882 0.4918839 0.1903540 -0.493808 
-0.219067 0.0306735 -0.172715 0.4198031 
----------------------------------------------
-0.345934 -0.144825 -0.185722 0.1409290 
-0.331995 0.3775301 0.4046845 -0.119496 
0.3305811 -0.019151 -0.502279 0.1594518 

0.3031408 -0.019835 0.2163030 -0.380831 
0.3928713 -0.088847 -0.462825 0.3713033 
-0.443070 0.0287274 0.2080115 -0.286798 
0.5021909 0.4763385 -0.275665 0.0808752 

-0.356891 0.4980584 0.3938833 0.4441230 
0.3604963 -0.293597 0.0726515 0.0081926 
-0.207960 0.4918839 0.1903540 -0.493808 
-0.219067 0.0306735 -0.172715 0.4198031 
----------------------------------------------
Generation: 70
-0.345934 -0.144825 -0.185722 0.1409290 
-0.331995 0.3775301 0.4046845 -0.119496 
0.3305811 0.4207486 -0.502279 0.1594518 

0.3634416 -0.019835 0.2163030 -0.380831 
0.3928713 -0.088847 -0.462825 -0.135414 
-0.443070 0.0287274 0.2080115 -0.286798 
0.5021909 0.5279462 -0.275665 0.0808752 

-0.161870 0.4980584 0.3938833 0.4441230 
0.3604963 -0.293597 0.0726515 0.0081926 
0.2254882 0.4918839 -0.351116 -0.551375 
-0.219067 0.0306735 0.2925772 0.4198031 
----------------------------------------------
-0.345934 -0.144825 -0.185722 0.1409290 
-0.331995 0.3775301 0.4046845 -0.119496 
0.3305811 -0.019151 -0.502279 0.1594518 

0.3634416 0.0849454 0.5451618 -0.380831 
0.3928713 -0.088847 -0.534883 -0.135414 
-0.443070 0.0287274 0.2080115 -0.248652 
-0.140953 0.4763385 -0.275665 0.3619255 

-0.356891 0.4980584 0.3938833 0.4441230 
0.3604963 -0.293597 0.0726515 0.0081926 
0.1079360 0.4918839 -0.351116 -0.493808 
-0.474754 0.0306735 -0.172715 0.4198031 
----------------------------------------------
Generation: 71
-0.345934 -0.144825 -0.185722 0.1409290 
-0.331995 0.3775301 0.4046845 -0.119496 
0.3305811 -0.019151 -0.502279 0.1594518 

0.3634416 -0.019835 0.2163030 -0.380831 
0.3928713 -0.088847 -0.462825 -0.135414 
-0.443070 0.0287274 0.2080115 -0.286798 
0.5021909 0.5279462 -0.275665 0.0808752 

-0.161870 0.4980584 0.3938833 0.4441230 
0.3604963 -0.293597 0.0726515 0.0081926 
0.1079360 0.4918839 -0.351116 -0.551375 
-0.219067 0.0306735 0.2925772 0.4198031 
----------------------------------------------
-0.345934 -0.023739 -0.185722 0.1409290 
-0.331995 0.3775301 0.4046845 -0.119496 
0.3305811 0.4207486 -0.502279 0.1594518 

0.3634416 -0.019835 0.2163030 -0.380831 
0.3928713 -0.088847 -0.462825 -0.135414 
-0.443070 0.0287274 0.5329993 -0.439396 
-0.140953 0.4763385 -0.275665 0.3619255 

-0.356891 0.4696687 -0.337956 0.4441230 
0.3604963 -0.293597 0.0726515 0.0081926 
0.1079360 0.4918839 -0.351116 -0.493808 
-0.219067 0.0306735 -0.172715 0.4198031 
----------------------------------------------
Generation: 72
-0.345934 -0.144825 -0.185722 0.1409290 
-0.331995 0.3775301 0.4046845 -0.119496 
0.3305811 -0.019151 -0.502279 0.1594518 

0.3634416 -0.019835 0.2163030 -0.380831 
0.3928713 -0.088847 -0.462825 -0.135414 
-0.443070 0.0287274 0.2080115 -0.286798 
0.5021909 0.5279462 -0.275665 0.0808752 

-0.161870 0.4980584 0.3938833 0.4441230 
0.3604963 -0.293597 0.0726515 0.0081926 
0.1079360 0.4918839 -0.351116 -0.551375 
-0.219067 0.0306735 0.2925772 0.4198031 
----------------------------------------------
-0.345934 -0.144825 -0.185722 0.1409290 
-0.331995 0.3775301 0.4046845 -0.119496 
0.3305811 -0.019151 -0.502279 0.1594518 

0.3634416 -0.019835 0.2163030 -0.380831 
0.3928713 -0.088847 -0.462825 -0.135414 
-0.443070 0.0287274 0.2080115 -0.286798 
0.5021909 0.5279462 -0.275665 0.0808752 

-0.161870 0.4980584 0.3938833 0.4441230 
0.3604963 -0.293597 0.0726515 0.0081926 
0.1079360 0.4918839 -0.351116 -0.493808 
-0.219067 0.0306735 -0.172715 0.4198031 
----------------------------------------------
Generation: 73
-0.345934 -0.144825 -0.185722 0.1409290 
-0.331995 0.3775301 0.4046845 -0.119496 
0.3305811 -0.019151 -0.502279 0.1594518 

0.3031408 -0.019835 0.2163030 -0.380831 
0.3928713 -0.088847 -0.534883 -0.135414 
-0.443070 0.0287274 0.2080115 -0.248652 
0.5021909 0.5279462 -0.275665 0.0808752 

-0.161870 0.4980584 0.3938833 -0.404181 
0.3604963 -0.293597 0.0726515 0.0081926 
0.1079360 0.4918839 -0.351116 -0.493808 
-0.219067 0.0306735 0.2925772 0.4198031 
----------------------------------------------
-0.345934 -0.144825 -0.185722 0.1409290 
-0.331995 0.3775301 0.4046845 -0.119496 
0.3305811 -0.019151 -0.502279 0.1594518 

0.3634416 -0.019835 0.2163030 -0.380831 
0.3928713 -0.088847 -0.462825 -0.135414 
-0.443070 0.0287274 0.2080115 -0.248652 
-0.140953 0.5279462 -0.275665 0.0808752 

-0.161870 0.4980584 0.3938833 0.4441230 
0.3604963 -0.293597 0.0726515 0.0081926 
0.1079360 0.4918839 -0.351116 -0.493808 
-0.219067 0.0306735 0.2925772 0.4198031 
----------------------------------------------
Generation: 74
-0.345934 -0.144825 -0.185722 0.1409290 
-0.331995 0.3775301 0.4046845 -0.119496 
0.3305811 -0.019151 -0.502279 0.1594518 

0.3634416 0.0849454 0.5451618 -0.380831 
0.3928713 -0.088847 -0.534883 -0.135414 
-0.443070 0.0287274 0.2080115 -0.248652 
0.5021909 0.5279462 -0.275665 0.0808752 

-0.161870 0.4980584 0.3938833 -0.404181 
0.3604963 -0.293597 0.0726515 0.0081926 
0.1079360 0.4918839 -0.351116 -0.493808 
-0.219067 0.0306735 0.2925772 0.4198031 
----------------------------------------------
-0.345934 -0.144825 -0.185722 0.1409290 
-0.331995 0.3775301 0.4046845 -0.119496 
0.3305811 0.4207486 -0.502279 0.1594518 

0.3634416 -0.019835 0.2163030 -0.380831 
0.3928713 -0.088847 -0.462825 -0.135414 
-0.443070 0.0287274 0.2080115 -0.248652 
-0.140953 0.5279462 -0.275665 0.0808752 

-0.161870 0.4980584 0.3938833 0.4441230 
0.3604963 -0.293597 0.0726515 0.0081926 
0.1079360 0.4918839 -0.351116 -0.493808 
-0.219067 0.0306735 -0.172715 0.4198031 
----------------------------------------------
Generation: 75
-0.345934 -0.144825 -0.185722 0.1409290 
-0.331995 0.3775301 0.4046845 -0.119496 
0.3305811 0.4207486 -0.502279 0.1594518 

0.3634416 -0.019835 0.2163030 -0.380831 
0.3928713 -0.088847 -0.462825 -0.135414 
-0.443070 0.0287274 0.2080115 -0.167169 
0.5021909 0.5279462 -0.275665 0.0808752 

-0.161870 0.4980584 0.3938833 -0.404181 
0.3604963 -0.293597 0.0726515 0.0081926 
0.1079360 0.4918839 -0.351116 -0.493808 
-0.219067 0.0306735 0.2925772 0.4198031 
----------------------------------------------
-0.345934 -0.144825 -0.185722 0.1409290 
-0.537869 0.3775301 0.4046845 0.5468890 
0.3305811 -0.019151 -0.436394 0.1594518 

0.3634416 -0.019835 0.2163030 -0.380831 
0.3928713 -0.088847 -0.462825 -0.135414 
-0.443070 0.0287274 0.2080115 -0.458411 
-0.140953 0.5279462 -0.275665 0.0808752 

-0.161870 0.4980584 0.3938833 0.4441230 
0.3604963 -0.293597 0.0726515 0.0081926 
0.2254882 0.4918839 -0.351116 -0.551375 
-0.219067 0.0306735 0.2925772 0.4198031 
----------------------------------------------
Generation: 76
-0.345934 -0.144825 -0.185722 0.1409290 
-0.331995 0.3775301 0.4046845 -0.119496 
0.3305811 -0.019151 -0.436394 0.1594518 

0.3634416 -0.019835 0.2163030 -0.380831 
0.3928713 -0.088847 -0.462825 -0.135414 
-0.443070 0.0287274 0.2080115 -0.286798 
0.5021909 0.5279462 -0.275665 0.0808752 

-0.161870 0.4980584 0.3938833 -0.404181 
0.3604963 -0.293597 0.0726515 0.0081926 
0.1079360 0.4918839 -0.351116 -0.493808 
-0.219067 0.0306735 0.2925772 0.4198031 
----------------------------------------------
-0.345934 -0.144825 -0.185722 0.1409290 
-0.331995 0.3775301 0.4046845 -0.119496 
0.3305811 -0.019151 -0.502279 0.1594518 

0.3634416 -0.019835 0.2163030 -0.380831 
0.3928713 0.5450560 -0.462825 -0.135414 
-0.443070 0.0287274 0.2080115 -0.248652 
-0.140953 0.5279462 -0.275665 0.0808752 

-0.356891 0.4980584 0.3938833 0.4441230 
0.3604963 -0.293597 0.0726515 0.0081926 
0.1079360 0.4918839 -0.351116 -0.493808 
-0.219067 0.0306735 -0.172715 0.4198031 
----------------------------------------------
Generation: 77
-0.345934 -0.144825 -0.185722 0.1409290 
-0.331995 0.3775301 0.4046845 -0.119496 
0.3305811 -0.019151 -0.436394 0.1594518 

0.3634416 -0.019835 0.2163030 -0.380831 
0.3928713 0.1668366 -0.462825 -0.135414 
-0.443070 0.0287274 0.2080115 -0.458411 
0.5021909 0.5279462 -0.275665 0.0808752 

-0.161870 0.4980584 0.3938833 -0.404181 
0.3604963 -0.293597 0.0726515 0.0081926 
0.1079360 0.4918839 -0.351116 -0.493808 
-0.219067 0.0306735 0.2925772 0.4198031 
----------------------------------------------
-0.345934 -0.144825 -0.185722 0.1409290 
-0.331995 -0.288107 0.4046845 -0.119496 
0.3305811 0.4207486 -0.502279 0.1594518 

0.3634416 -0.019835 0.2163030 -0.380831 
0.3928713 -0.088847 -0.462825 -0.135414 
-0.443070 0.0287274 0.3794807 -0.439396 
0.5021909 0.5279462 -0.275665 0.0808752 

-0.356891 0.4696687 0.0723505 0.4441230 
0.3604963 -0.293597 0.0726515 0.0081926 
0.1079360 0.4918839 -0.351116 -0.493808 
-0.219067 0.0306735 -0.172715 0.4198031 
----------------------------------------------
Generation: 78
-0.345934 -0.144825 -0.185722 0.1409290 
-0.331995 0.3775301 0.4046845 -0.119496 
0.3305811 -0.019151 -0.436394 0.1594518 

0.3634416 -0.019835 0.2163030 -0.380831 
0.3928713 -0.088847 -0.462825 -0.135414 
-0.443070 0.0287274 0.2080115 -0.286798 
0.5021909 0.5279462 -0.275665 0.0808752 

-0.161870 0.4980584 0.3938833 -0.404181 
0.3604963 -0.293597 0.0726515 0.0081926 
0.1079360 0.4918839 -0.351116 -0.493808 
-0.219067 0.0306735 0.2925772 0.4198031 
----------------------------------------------
-0.345934 -0.144825 -0.185722 0.1409290 
-0.331995 0.3775301 0.4046845 -0.119496 
0.3305811 0.4207486 -0.502279 0.1594518 

0.3634416 -0.019835 0.2163030 -0.380831 
0.3928713 -0.088847 -0.462825 -0.135414 
-0.443070 0.0287274 0.2080115 -0.458411 
-0.140953 0.5279462 -0.275665 0.0808752 

-0.161870 0.4980584 0.3938833 -0.404181 
0.3604963 -0.293597 0.0726515 0.0081926 
0.2254882 0.4918839 -0.351116 -0.551375 
-0.219067 0.0306735 0.2925772 0.4198031 
----------------------------------------------
Generation: 79
-0.345934 -0.144825 -0.185722 0.1409290 
-0.331995 0.3775301 0.4046845 -0.119496 
0.3305811 -0.019151 -0.502279 0.1594518 

0.3634416 -0.019835 0.2163030 -0.380831 
0.3928713 -0.088847 -0.462825 -0.135414 
-0.443070 0.0287274 0.5329993 -0.439396 
0.5021909 0.5279462 -0.275665 0.0808752 

-0.161870 0.4980584 0.3938833 -0.404181 
0.3604963 -0.293597 0.0726515 0.0081926 
0.1079360 0.4918839 -0.351116 -0.551375 
-0.219067 0.0306735 0.2925772 0.4198031 
----------------------------------------------
-0.345934 -0.144825 -0.185722 0.1409290 
-0.331995 0.3775301 0.4046845 -0.119496 
0.3305811 0.4207486 -0.502279 0.1594518 

0.3634416 -0.019835 0.2163030 -0.380831 
0.3928713 -0.088847 -0.462825 -0.135414 
-0.443070 0.0287274 0.2080115 -0.458411 
0.5021909 0.5279462 -0.275665 0.0808752 

-0.161870 0.4980584 0.3938833 -0.404181 
0.3604963 -0.293597 0.0726515 0.0081926 
0.1079360 0.4918839 -0.351116 -0.551375 
-0.219067 0.0306735 0.2925772 0.4198031 
----------------------------------------------
Generation: 80
-0.345934 -0.144825 -0.185722 0.1409290 
-0.331995 0.3775301 0.4046845 -0.119496 
0.3305811 -0.019151 -0.502279 0.1594518 

0.3634416 -0.019835 0.2163030 -0.380831 
0.3928713 -0.088847 -0.462825 -0.135414 
-0.443070 -0.036255 0.5329993 -0.439396 
0.5021909 0.5279462 -0.275665 0.0808752 

-0.161870 0.4980584 0.3938833 -0.404181 
0.3604963 -0.293597 0.0726515 0.0081926 
0.1079360 0.4918839 -0.351116 -0.493808 
-0.219067 0.0306735 0.2925772 0.4198031 
----------------------------------------------
-0.345934 -0.144825 -0.185722 0.1409290 
-0.331995 0.3775301 0.4046845 -0.119496 
0.3305811 -0.019151 -0.502279 0.1594518 

0.3634416 -0.019835 0.2163030 -0.380831 
0.3928713 -0.088847 -0.462825 -0.135414 
-0.443070 0.0287274 0.2080115 -0.286798 
0.5021909 0.5279462 -0.275665 0.0808752 

-0.161870 0.4980584 0.3938833 0.4441230 
0.3604963 -0.293597 0.0726515 0.0081926 
0.1079360 0.4918839 -0.351116 -0.551375 
0.1238474 0.0306735 0.2925772 0.4198031 
----------------------------------------------
Generation: 81
-0.345934 -0.144825 -0.185722 0.1409290 
-0.331995 0.3775301 0.4046845 -0.119496 
0.3305811 -0.019151 -0.436394 0.1594518 

0.3634416 -0.019835 0.2163030 -0.380831 
0.2949116 -0.088847 -0.462825 -0.135414 
-0.443070 -0.036255 0.5329993 -0.439396 
0.5021909 0.5279462 -0.275665 0.0808752 

-0.161870 0.4980584 0.3938833 -0.404181 
0.3604963 -0.293597 0.0726515 0.0081926 
0.2254882 0.4918839 -0.351116 -0.551375 
-0.219067 0.0306735 0.2925772 0.4198031 
----------------------------------------------
-0.345934 -0.144825 -0.185722 0.1409290 
-0.331995 0.3775301 0.4046845 -0.119496 
0.3305811 -0.019151 -0.502279 0.1594518 

0.3634416 -0.019835 0.2163030 0.1535731 
0.3928713 -0.088847 -0.462825 -0.135414 
-0.443070 0.0287274 0.2080115 -0.439396 
0.5021909 0.5279462 -0.275665 0.0808752 

-0.356891 0.4696687 0.0723505 0.4441230 
0.3604963 -0.293597 0.0726515 0.0081926 
0.1079360 0.4918839 -0.351116 -0.493808 
-0.219067 0.0306735 0.2925772 0.4198031 
----------------------------------------------
Generation: 82
-0.345934 -0.144825 -0.185722 0.1409290 
-0.331995 0.3775301 0.4046845 -0.119496 
0.3305811 -0.019151 -0.502279 0.1594518 

0.3634416 -0.019835 0.2163030 -0.380831 
0.2949116 -0.088847 -0.462825 -0.135414 
-0.443070 0.0287274 0.2080115 -0.439396 
-0.140953 0.4763385 -0.275665 0.3619255 

-0.356891 0.4980584 0.3938833 0.4441230 
0.3604963 -0.293597 0.0726515 0.0081926 
0.1079360 0.4918839 -0.351116 -0.493808 
-0.219067 0.0306735 0.2925772 0.4198031 
----------------------------------------------
-0.345934 -0.144825 -0.185722 0.1409290 
-0.331995 0.3775301 0.4046845 -0.119496 
0.3305811 0.4207486 -0.502279 0.1594518 

0.3634416 -0.019835 0.2163030 -0.380831 
0.3928713 -0.088847 -0.462825 -0.135414 
-0.443070 -0.036255 0.5329993 -0.439396 
0.5021909 0.5279462 -0.275665 0.0808752 

-0.161870 0.4980584 0.3938833 -0.404181 
0.3604963 -0.293597 0.0726515 0.0081926 
0.2254882 0.4918839 -0.351116 -0.493808 
-0.219067 0.0306735 0.2925772 0.4198031 
----------------------------------------------
Generation: 83
-0.345934 -0.144825 -0.185722 0.1409290 
-0.331995 0.3775301 0.4046845 -0.119496 
0.3305811 -0.019151 -0.436394 0.1594518 

0.3634416 -0.019835 0.2163030 -0.380831 
0.3928713 -0.088847 -0.462825 -0.135414 
-0.443070 0.0287274 0.2080115 -0.248652 
0.5021909 0.5279462 -0.275665 0.0808752 

-0.161870 0.4980584 0.3938833 0.4441230 
0.3604963 -0.293597 0.0726515 0.0081926 
0.1079360 0.4918839 -0.351116 -0.493808 
-0.219067 0.0306735 0.2925772 0.4198031 
----------------------------------------------
-0.345934 -0.144825 -0.185722 0.1409290 
-0.331995 0.3775301 0.4046845 -0.119496 
0.3305811 -0.019151 -0.502279 0.1594518 

0.3031408 -0.019835 0.2163030 -0.380831 
0.2949116 -0.088847 -0.462825 -0.135414 
-0.443070 0.0287274 0.2080115 -0.439396 
0.5021909 0.5279462 -0.275665 0.0808752 

-0.356891 0.4696687 0.0723505 0.4441230 
0.3604963 -0.293597 0.0726515 0.0081926 
0.1079360 0.4918839 -0.351116 -0.551375 
0.1238474 0.0306735 0.2925772 0.4198031 
----------------------------------------------
Generation: 84
-0.345934 -0.144825 -0.185722 0.1409290 
-0.331995 0.3775301 0.4046845 -0.119496 
0.3305811 -0.019151 -0.436394 0.1594518 

0.3634416 -0.019835 0.2163030 -0.380831 
0.2949116 -0.088847 -0.462825 -0.135414 
-0.443070 0.0287274 0.2080115 -0.248652 
0.5021909 0.5279462 -0.275665 0.0808752 

-0.161870 0.4980584 0.3938833 -0.404181 
0.3604963 -0.293597 0.0726515 0.0081926 
0.1079360 0.4918839 -0.351116 -0.551375 
-0.219067 0.0306735 0.2925772 0.4198031 
----------------------------------------------
-0.345934 -0.144825 -0.185722 0.1409290 
-0.331995 0.3775301 0.4046845 -0.119496 
0.3305811 -0.019151 -0.502279 0.1594518 

0.3634416 -0.019835 0.2163030 -0.380831 
0.2949116 -0.088847 -0.462825 -0.135414 
-0.443070 0.0287274 0.2080115 -0.458411 
0.5021909 0.5279462 -0.275665 0.0808752 

-0.161870 0.4980584 0.3938833 0.4441230 
0.3604963 -0.293597 0.0726515 0.0081926 
0.1079360 0.4918839 -0.351116 -0.493808 
-0.219067 0.0306735 0.2925772 0.4198031 
----------------------------------------------
Generation: 85
-0.345934 -0.144825 -0.185722 0.1409290 
-0.331995 0.3775301 0.4046845 -0.119496 
0.3305811 -0.019151 -0.502279 0.1594518 

0.0613626 -0.019835 0.2163030 -0.380831 
0.2949116 -0.088847 -0.462825 -0.135414 
-0.443070 0.0287274 0.2080115 -0.248652 
0.5021909 0.5279462 -0.275665 0.0808752 

-0.356891 0.4696687 0.0723505 0.4441230 
0.3604963 -0.293597 0.0726515 0.0081926 
0.1079360 0.4918839 -0.351116 -0.493808 
-0.219067 0.0306735 0.2925772 0.4198031 
----------------------------------------------
-0.449574 -0.144825 -0.185722 -0.284217 
-0.331995 0.3775301 0.4046845 -0.119496 
0.3305811 -0.019151 -0.502279 0.1594518 

0.3634416 -0.019835 0.2163030 -0.380831 
0.2949116 -0.088847 -0.462825 -0.135414 
-0.443070 0.0287274 0.2080115 -0.248652 
0.5021909 0.5279462 -0.275665 0.0808752 

-0.356891 0.4980584 0.3938833 -0.404181 
0.3604963 -0.293597 0.0726515 0.0081926 
0.1079360 0.4918839 -0.351116 -0.493808 
-0.219067 0.0306735 0.2925772 0.4198031 
----------------------------------------------
Generation: 86
-0.345934 -0.144825 -0.185722 0.1409290 
-0.331995 0.3775301 0.4046845 -0.119496 
0.3305811 -0.019151 -0.436394 0.1594518 

0.3634416 -0.019835 0.2163030 -0.380831 
0.3928713 -0.088847 -0.534883 -0.135414 
-0.443070 0.0287274 0.2080115 -0.458411 
-0.140953 0.4763385 -0.275665 0.0808752 

-0.161870 0.4980584 0.3938833 0.4441230 
0.3604963 -0.293597 0.0726515 0.0081926 
0.2254882 0.4918839 -0.351116 -0.551375 
-0.219067 0.0306735 0.0244359 0.4198031 
----------------------------------------------
-0.345934 -0.144825 -0.185722 0.1409290 
-0.331995 0.3775301 0.4046845 -0.119496 
0.3305811 0.4207486 -0.502279 0.1594518 

0.3634416 -0.019835 0.2163030 -0.380831 
0.2949116 -0.088847 -0.462825 -0.135414 
-0.443070 0.0287274 0.2080115 -0.248652 
0.5021909 0.5279462 -0.275665 0.0808752 

-0.356891 0.4696687 0.3938833 0.4441230 
-0.197682 -0.293597 0.0726515 0.0081926 
-0.283738 0.4918839 -0.351116 -0.493808 
-0.219067 0.0306735 0.2925772 0.4198031 
----------------------------------------------
Generation: 87
-0.345934 -0.144825 -0.185722 0.1409290 
-0.331995 0.3775301 0.4046845 -0.119496 
0.3305811 -0.019151 -0.436394 0.1594518 

0.3634416 -0.019835 0.2163030 -0.380831 
0.3928713 -0.088847 -0.462825 -0.135414 
-0.443070 0.0287274 0.2080115 -0.286798 
0.3252816 0.5279462 -0.275665 0.0808752 

-0.356891 0.4696687 0.0723505 0.4441230 
0.3604963 -0.293597 0.0726515 0.0081926 
0.1079360 0.4918839 -0.351116 -0.551375 
0.1238474 0.0306735 0.2925772 0.4198031 
----------------------------------------------
-0.345934 -0.144825 -0.185722 0.3157989 
-0.331995 -0.280642 0.4046845 -0.119496 
0.3305811 0.4207486 -0.502279 0.1594518 

0.3634416 -0.019835 0.2163030 -0.380831 
0.3928713 -0.088847 -0.462825 -0.135414 
-0.443070 -0.036255 0.5329993 -0.286798 
0.5021909 0.5279462 -0.275665 0.0808752 

-0.356891 0.4696687 0.0723505 0.4441230 
0.3604963 -0.293597 0.0726515 0.0081926 
0.1079360 0.4918839 -0.351116 -0.551375 
0.1238474 0.0306735 0.2925772 0.4198031 
----------------------------------------------
Generation: 88
-0.345934 -0.144825 -0.185722 0.1409290 
-0.331995 0.3775301 0.4046845 -0.119496 
0.3305811 -0.019151 -0.436394 0.1594518 

0.3634416 -0.019835 0.2163030 -0.280342 
0.3928713 -0.088847 -0.462825 -0.135414 
-0.443070 0.0287274 0.5329993 0.2976851 
0.5021909 0.5279462 -0.275665 0.0808752 

-0.356891 0.4696687 0.0723505 0.4441230 
0.3604963 -0.293597 0.0726515 0.0081926 
0.1079360 0.4918839 -0.351116 -0.551375 
0.1238474 0.0306735 0.2925772 0.4198031 
----------------------------------------------
-0.345934 -0.144825 -0.185722 0.1409290 
-0.331995 0.3775301 0.4046845 -0.119496 
0.3305811 -0.019151 -0.436394 0.1594518 

0.3634416 -0.019835 0.2163030 -0.380831 
0.3928713 -0.088847 -0.462825 -0.135414 
-0.443070 0.0287274 0.2080115 -0.248652 
0.5021909 0.5279462 -0.275665 0.0808752 

-0.356891 0.4696687 0.3938833 0.4441230 
-0.197682 -0.293597 0.0726515 0.0081926 
-0.283738 0.4918839 -0.351116 -0.493808 
-0.219067 0.0306735 0.2925772 0.4198031 
----------------------------------------------
Generation: 89
-0.345934 -0.144825 -0.185722 0.1409290 
-0.331995 0.3775301 0.4046845 -0.119496 
0.3305811 -0.019151 -0.502279 0.1594518 

0.3634416 -0.019835 0.2163030 -0.380831 
0.3928713 -0.088847 -0.534883 -0.135414 
-0.443070 0.0287274 0.2080115 -0.458411 
-0.140953 0.4763385 -0.275665 0.0808752 

-0.161870 0.4696687 0.3938833 0.4441230 
0.3604963 -0.293597 0.0726515 0.0081926 
0.1079360 0.4918839 -0.351116 -0.493808 
-0.219067 0.0306735 0.2925772 0.4198031 
----------------------------------------------
-0.345934 -0.144825 -0.185722 0.1409290 
-0.331995 0.3775301 0.4046845 -0.119496 
0.3305811 -0.019151 -0.436394 0.1594518 

0.3634416 -0.019835 0.2163030 -0.380831 
0.3928713 -0.088847 -0.462825 -0.135414 
-0.443070 0.0287274 0.5329993 0.2976851 
0.5021909 0.5279462 -0.275665 0.0808752 

-0.356891 0.4696687 0.3938833 0.4441230 
0.3604963 -0.293597 0.0726515 0.0081926 
0.1079360 0.4918839 -0.351116 -0.551375 
-0.068878 0.0306735 0.2925772 -0.007969 
----------------------------------------------
Generation: 90
-0.345934 -0.144825 -0.185722 0.1409290 
-0.331995 0.3775301 0.4046845 -0.119496 
0.3305811 -0.019151 -0.436394 0.1594518 

0.3634416 -0.019835 0.2163030 -0.380831 
0.3928713 -0.088847 -0.462825 -0.135414 
-0.443070 0.0287274 0.2080115 -0.458411 
-0.429714 0.5279462 -0.275665 0.0808752 

-0.356891 0.4696687 0.0723505 0.4441230 
0.3604963 -0.293597 0.0726515 0.0081926 
0.1079360 0.4918839 -0.351116 -0.551375 
0.1238474 0.0306735 0.2925772 0.4198031 
----------------------------------------------
-0.345934 0.2953306 -0.185722 0.1409290 
-0.331995 0.3775301 0.4046845 -0.119496 
0.3305811 -0.019151 -0.436394 0.1594518 

0.3634416 -0.019835 0.2163030 -0.380831 
0.2949116 -0.088847 -0.462825 -0.135414 
-0.443070 -0.036255 0.5329993 -0.458411 
0.5021909 0.5279462 -0.275665 0.0808752 

-0.356891 0.4696687 0.3938833 0.4441230 
0.3604963 -0.293597 0.0726515 0.0081926 
0.1079360 0.4918839 -0.351116 -0.551375 
-0.219067 0.0306735 0.2925772 0.4198031 
----------------------------------------------
Generation: 91
-0.345934 -0.144825 -0.185722 -0.358594 
-0.331995 0.3775301 0.4046845 -0.119496 
0.3305811 -0.019151 -0.436394 0.1594518 

0.3634416 -0.019835 0.2163030 -0.380831 
0.3928713 -0.088847 -0.462825 -0.135414 
-0.443070 0.0287274 0.2080115 -0.458411 
-0.429714 0.5279462 -0.275665 0.0808752 

-0.356891 0.4696687 0.0723505 0.4441230 
0.3604963 -0.293597 0.0726515 0.0081926 
0.1079360 0.4918839 -0.351116 -0.493808 
-0.219067 0.0306735 0.2925772 0.4198031 
----------------------------------------------
-0.345934 -0.144825 -0.185722 0.1409290 
-0.331995 0.3775301 0.4046845 -0.119496 
0.3305811 -0.019151 -0.436394 0.1594518 

0.3634416 -0.019835 0.2163030 -0.380831 
0.2949116 -0.088847 -0.462825 -0.135414 
-0.443070 0.0287274 0.2080115 -0.248652 
0.5021909 0.5279462 -0.275665 0.0808752 

-0.356891 0.4696687 0.0723505 0.4441230 
0.3604963 -0.293597 0.0726515 0.0081926 
0.1079360 0.4918839 -0.351116 -0.551375 
-0.219067 0.0306735 0.2925772 0.4198031 
----------------------------------------------
Generation: 92
-0.345934 -0.144825 -0.185722 0.1409290 
-0.331995 0.3775301 0.4046845 -0.119496 
0.3305811 -0.019151 -0.436394 0.1594518 

0.3634416 -0.019835 0.2163030 -0.380831 
0.3928713 -0.088847 -0.462825 0.5736831 
-0.443070 0.0287274 0.2080115 -0.458411 
-0.140953 0.4763385 -0.275665 0.0808752 

-0.242972 0.4696687 0.0723505 0.4441230 
0.3604963 -0.293597 0.0726515 0.0081926 
0.1079360 0.4918839 -0.351116 -0.551375 
-0.219067 0.0306735 0.2925772 0.4198031 
----------------------------------------------
-0.345934 -0.489557 -0.092933 0.1409290 
-0.331995 0.3775301 0.4046845 -0.119496 
0.3305811 -0.019151 -0.436394 0.1594518 

0.1874902 -0.019835 0.2163030 -0.380831 
0.2949116 -0.088847 -0.462825 -0.135414 
-0.443070 0.0287274 0.2080115 -0.458411 
-0.140953 0.4763385 -0.275665 0.0808752 

-0.356891 0.4696687 0.0723505 0.4441230 
0.3604963 -0.293597 0.0726515 0.0081926 
0.1079360 0.4918839 -0.351116 -0.493808 
-0.219067 0.0306735 0.2925772 0.4198031 
----------------------------------------------
Generation: 93
-0.345934 -0.144825 -0.185722 0.1409290 
-0.331995 0.3775301 0.4046845 -0.119496 
0.3305811 -0.019151 -0.436394 0.1594518 

0.3634416 -0.019835 0.2238900 -0.380831 
0.2949116 -0.088847 -0.462825 -0.135414 
-0.443070 0.0287274 0.2080115 -0.248652 
0.3252816 0.5279462 -0.275665 0.0808752 

-0.161870 0.4980584 0.3938833 0.4441230 
0.3604963 -0.293597 0.0726515 0.0081926 
0.1079360 0.4918839 -0.351116 -0.551375 
-0.068878 0.0306735 0.2925772 -0.007969 
----------------------------------------------
-0.345934 -0.144825 -0.185722 0.1409290 
-0.331995 0.3775301 0.4046845 -0.119496 
0.3305811 -0.019151 -0.502279 0.1594518 

0.3634416 -0.548091 0.2163030 -0.380831 
0.3928713 -0.088847 -0.462825 -0.135414 
-0.443070 -0.036255 0.5329993 -0.248652 
-0.429714 0.5279462 -0.275665 0.0808752 

-0.356891 0.4980584 3.4820029 0.4441230 
0.3604963 -0.293597 0.0726515 0.0081926 
0.1079360 0.4918839 -0.351116 -0.493808 
-0.219067 0.0306735 0.2925772 0.4198031 
----------------------------------------------
Generation: 94
-0.345934 -0.144825 -0.185722 0.1409290 
-0.331995 0.3775301 0.4046845 -0.119496 
0.3305811 -0.019151 -0.502279 0.1594518 

0.3634416 -0.019835 0.2163030 -0.380831 
0.3928713 -0.088847 -0.462825 -0.135414 
-0.443070 0.0287274 0.2080115 -0.458411 
0.5021909 0.5279462 -0.275665 0.0808752 

-0.356891 0.4696687 0.0723505 0.4441230 
0.3604963 -0.293597 0.0726515 0.0081926 
0.2254882 0.4918839 -0.351116 -0.551375 
-0.219067 0.0306735 0.2925772 0.4198031 
----------------------------------------------
-0.345934 -0.144825 -0.185722 0.1409290 
-0.331995 0.3775301 0.4046845 -0.119496 
0.3305811 -0.019151 -0.436394 0.1594518 

0.3634416 -0.019835 0.2163030 -0.380831 
0.2949116 -0.088847 -0.462825 -0.135414 
-0.443070 0.0287274 0.5329993 -0.248652 
0.5021909 0.5279462 -0.275665 0.0808752 

-0.161870 0.4980584 0.3938833 0.4441230 
0.3604963 -0.293597 0.0726515 0.0081926 
0.1079360 0.4918839 -0.351116 -0.551375 
-0.219067 0.0306735 0.2925772 0.4198031 
----------------------------------------------
Generation: 95
-0.345934 -0.144825 -0.185722 -0.535991 
-0.331995 0.3775301 0.4046845 -0.119496 
0.3305811 -0.019151 -0.436394 0.1594518 

0.1874902 -0.019835 0.2163030 -0.380831 
0.3928713 -0.088847 -0.462825 -0.135414 
-0.443070 0.0287274 0.2080115 -0.248652 
0.5021909 0.5279462 -0.275665 0.0808752 

-0.161870 0.4696687 0.0723505 0.4441230 
0.3604963 -0.293597 0.0726515 0.0081926 
0.1079360 0.4918839 -0.351116 -0.551375 
0.1238474 0.0306735 0.2925772 0.4198031 
----------------------------------------------
-0.345934 -0.144825 -0.185722 0.1409290 
-0.331995 0.3775301 0.4046845 -0.119496 
0.3305811 -0.019151 -0.436394 0.1594518 

0.1874902 -0.019835 0.2163030 -0.380831 
0.2949116 -0.088847 -0.462825 -0.135414 
-0.443070 0.0287274 0.2080115 -0.458411 
-0.140953 0.4763385 -0.275665 0.0808752 

-0.356891 0.4696687 0.0723505 0.4441230 
0.3604963 -0.293597 0.0726515 0.0081926 
0.1079360 0.4918839 -0.351116 -0.551375 
0.1238474 0.0306735 0.2925772 0.4198031 
----------------------------------------------
Generation: 96
-0.345934 -0.144825 -0.185722 0.1409290 
-0.331995 0.3840111 0.4046845 -0.119496 
0.3305811 -0.019151 -0.436394 0.1594518 

0.3634416 -0.019835 0.2163030 -0.380831 
0.3928713 -0.088847 -0.462825 -0.135414 
-0.443070 0.0287274 0.5329993 -0.248652 
0.5021909 0.5279462 -0.275665 0.0808752 

-0.161870 0.4980584 0.3938833 0.4441230 
0.3604963 -0.293597 0.0726515 0.0081926 
0.1079360 0.4918839 -0.351116 -0.493808 
0.1238474 0.0306735 0.2925772 0.4198031 
----------------------------------------------
-0.345934 -0.144825 -0.185722 0.1409290 
-0.331995 0.3775301 0.4046845 -0.119496 
0.3305811 -0.019151 -0.436394 0.1594518 

0.3634416 -0.019835 0.2163030 -0.380831 
0.3928713 -0.088847 -0.534883 -0.135414 
0.4696668 0.0287274 0.2080115 -0.458411 
0.5021909 0.5279462 -0.275665 0.0808752 

-0.161870 0.4980584 0.3938833 0.4441230 
0.3604963 -0.293597 0.0726515 0.0081926 
0.1079360 0.4918839 -0.351116 -0.551375 
-0.068878 0.0306735 0.2925772 0.4198031 
----------------------------------------------
Generation: 97
-0.345934 -0.144825 -0.185722 0.1409290 
-0.331995 0.3775301 0.4046845 -0.119496 
0.3305811 -0.019151 -0.436394 0.1594518 

0.3634416 -0.019835 0.2163030 -0.380831 
0.2949116 -0.088847 -0.462825 -0.135414 
-0.443070 0.0287274 0.2080115 -0.439396 
0.3252816 0.4763385 -0.275665 0.0808752 

-0.356891 0.4980584 0.3938833 0.4441230 
0.3604963 -0.293597 0.0726515 0.0081926 
0.1079360 0.4918839 -0.351116 -0.493808 
-0.219067 0.0306735 0.2925772 0.4198031 
----------------------------------------------
-0.345934 -0.144825 -0.185722 0.1409290 
-0.331995 0.3775301 0.4046845 -0.119496 
0.3305811 -0.019151 -0.502279 0.1594518 

0.3634416 -0.019835 0.2163030 -0.380831 
0.2949116 -0.088847 -0.462825 -0.135414 
-0.443070 0.0287274 0.2080115 -0.248652 
-0.140953 0.4763385 -0.275665 0.0808752 

-0.356891 0.4980584 0.3938833 0.4441230 
0.3604963 -0.293597 0.0726515 0.0081926 
0.1079360 0.4918839 -0.351116 -0.493808 
-0.219067 0.0306735 0.2925772 0.4198031 
----------------------------------------------
Generation: 98
-0.345934 -0.144825 -0.185722 0.1409290 
-0.331995 0.3775301 0.4046845 -0.119496 
0.3305811 -0.019151 -0.436394 0.1594518 

0.3677363 -0.019835 0.2163030 -0.380831 
0.2949116 -0.088847 -0.462825 -0.135414 
-0.443070 0.0287274 0.5329993 -0.248652 
0.5021909 0.5279462 -0.275665 0.0808752 

-0.356891 0.4980584 0.3938833 0.4441230 
0.3604963 -0.293597 0.0726515 0.0081926 
0.1079360 0.4918839 -0.351116 -0.551375 
-0.219067 0.0306735 0.2925772 0.4198031 
----------------------------------------------
-0.345934 -0.144825 -0.185722 -0.535991 
-0.331995 0.3775301 0.4046845 -0.119496 
0.3305811 -0.019151 -0.436394 0.1594518 

0.3634416 -0.019835 0.2163030 -0.380831 
0.3928713 -0.088847 -0.462825 -0.135414 
-0.443070 0.0287274 0.2080115 -0.458411 
-0.140953 0.4763385 -0.275665 0.0808752 

-0.161870 0.4980584 0.3938833 0.4441230 
0.3604963 -0.293597 0.0726515 0.0081926 
0.2254882 0.4918839 -0.351116 -0.551375 
-0.219067 0.0306735 0.2925772 0.4198031 
----------------------------------------------
Generation: 99
0.3544562 -0.144825 -0.185722 0.1409290 
-0.331995 0.3775301 0.4046845 -0.119496 
0.3305811 -0.019151 -0.436394 0.1594518 

0.3634416 -0.019835 0.2163030 -0.380831 
0.3928713 -0.088847 -0.462825 -0.135414 
-0.443070 0.0287274 0.5329993 -0.248652 
0.3252816 0.4763385 -0.275665 0.0808752 

-0.356891 0.4696687 0.0723505 0.4441230 
0.3604963 -0.293597 0.0726515 0.0081926 
0.1079360 0.4564767 -0.351116 -0.551375 
-0.219067 0.0306735 0.3618499 0.4198031 
----------------------------------------------
