Generation: 1
-0.508676 0.0236270 -0.146454 0.2905157 
-0.154123 -0.385883 -0.531330 -0.039452 
-0.449183 -0.160786 -0.066057 0.0472323 

-0.420546 0.5063906 -0.272624 0.3364859 
0.0778536 0.0854334 0.3064686 0.1293808 
0.2779449 0.0242178 0.0804191 -0.013907 
0.0205361 0.2499599 -0.380069 -0.151621 

-0.336376 -0.357731 0.4048050 -0.471784 
1.8722153 0.5285344 -0.025199 0.4226456 
0.1461662 0.5455222 -0.192911 -0.090855 
-0.404722 0.3896359 0.1768222 0.3234937 
----------------------------------------------
0.0997735 -0.113449 0.4344931 0.3208407 
-0.377622 0.0197040 -0.394724 0.4711625 
0.3352589 0.1164157 -0.442360 0.4338586 

0.5021619 -0.069077 0.5628982 0.5170039 
-0.232186 -0.430769 -0.340717 0.0284376 
-0.244217 0.4093063 -0.197434 0.0046320 
-0.397035 -0.453724 -0.506830 0.5598471 

-0.105141 -0.151681 -0.057420 0.3909453 
-0.096317 0.0058093 -0.273766 0.2270564 
-0.381211 0.4272948 0.5049369 0.3368855 
0.0947826 0.4845791 -0.527851 0.5537581 
----------------------------------------------
Generation: 2
-0.072554 -0.474925 -0.218836 -0.384453 
-0.015898 -0.059722 0.1049252 -0.529847 
-0.319130 -0.096328 -0.313776 -0.193877 

0.5482867 0.1318024 0.4563721 -0.167099 
-0.559793 0.1239514 -0.005691 0.5049882 
-0.540507 -0.212783 0.1059357 0.0271088 
-0.544639 0.1156105 0.2235303 0.5266605 

0.2803875 -0.545818 0.5653685 0.1824259 
0.1940009 -0.156482 0.0986550 0.3305764 
0.5338426 -0.058691 0.2014047 -0.081508 
-0.362074 -0.070391 -0.165851 -0.394147 
----------------------------------------------
0.3887040 0.3111704 -0.284928 0.4381677 
-0.264219 0.5350214 0.0742022 0.4788811 
-0.243716 0.5557342 -0.170662 -0.393162 

0.2311181 0.0316488 0.5760641 0.1260166 
0.5300438 0.5620455 -0.018817 -0.520043 
-0.418670 0.4002151 -0.194218 0.1396862 
-0.571296 0.4798036 -0.087129 0.2198474 

0.0614813 0.3272203 -0.109368 0.1911585 
-0.220137 0.2075253 0.3821218 -0.319681 
-0.303697 0.5176422 0.1312701 0.1355659 
-0.286057 0.3283317 0.0469505 -0.233326 
----------------------------------------------
Generation: 3
0.3465597 -0.463370 -0.034068 0.4533017 
0.2858960 -0.348595 0.2170093 -0.013496 
-0.490237 0.2264626 -0.210526 0.1839087 

-0.418417 0.3847818 0.0419949 -0.057935 
0.5234452 -0.154211 0.5429197 -0.116913 
0.0421529 -0.563692 0.0412091 -0.279010 
-0.280694 0.0525793 -0.151525 -0.066617 

-0.390646 0.5764415 0.5186825 -0.059882 
0.3900191 -0.098521 -0.445616 -0.420966 
-0.066682 0.5366393 0.5593736 -0.420065 
-0.175312 -0.539887 -0.158122 0.4213042 
----------------------------------------------
-0.513142 -0.387892 0.2227310 -0.008312 
-0.506406 0.4630852 0.4976446 -0.147189 
-0.514565 -0.195199 -0.053457 -0.164570 

0.0314746 0.5519778 -0.269756 -0.572074 
-0.450660 -0.108923 -0.218902 -0.310039 
-0.017549 0.0875337 -0.228939 -0.478469 
-0.263797 -0.571454 0.1570717 -0.549143 

-0.463648 0.1056482 0.5339409 0.5429320 
-0.412541 -0.351297 0.1721925 0.2933588 
0.0071152 0.2197185 -0.343500 0.0134427 
-0.486672 0.5155961 0.5476044 -0.218573 
----------------------------------------------
Generation: 4
0.3465597 -0.463370 -0.034068 0.4533017 
0.2858960 -0.348595 0.2170093 -0.013496 
-0.490237 0.2264626 -0.210526 0.1839087 

-0.418417 0.3847818 0.0419949 -0.057935 
0.5234452 -0.154211 0.5429197 -0.116913 
0.0421529 -0.563692 0.0412091 -0.279010 
-0.280694 0.0525793 -0.151525 -0.066617 

-0.390646 0.5764415 0.5186825 -0.059882 
0.3900191 -0.098521 -0.445616 -0.420966 
-0.066682 0.5366393 0.5593736 -0.420065 
-0.175312 -0.539887 -0.158122 0.4213042 
----------------------------------------------
-0.072554 -0.474925 -0.218836 0.5229956 
0.3648147 -0.250347 0.4788109 0.2755998 
-0.475217 0.4980350 -0.292019 -0.559848 

-0.434986 0.0378402 0.3507264 0.3169383 
-0.245485 0.2448731 -0.559344 0.2910978 
-0.406863 0.5114969 -0.031321 0.0128924 
0.2755140 0.2749907 0.3877936 0.1257025 

0.1509897 -0.462028 -0.341849 -0.237445 
-0.404815 0.0063490 0.0986550 0.3305764 
0.5338426 -0.058691 0.2014047 0.1810535 
-0.362074 -0.070391 -0.165851 -0.394147 
----------------------------------------------
Generation: 5
0.3465597 -0.463370 -0.034068 0.4533017 
0.2858960 -0.348595 0.2170093 -0.013496 
-0.490237 0.2264626 -0.210526 0.1839087 

-0.418417 0.3847818 0.0419949 -0.057935 
0.5234452 -0.154211 0.5429197 -0.116913 
0.0421529 -0.563692 -0.384197 -0.279010 
-0.280694 0.0525793 -0.151525 -0.066617 

-0.390646 0.5764415 0.5186825 -0.059882 
0.3900191 -0.098521 -0.445616 0.2933588 
-0.197475 0.5366393 0.5593736 -0.420065 
-0.175312 -0.539887 -0.158122 0.4213042 
----------------------------------------------
-0.416863 0.0782258 -0.434274 -0.336149 
-0.571972 0.3231170 0.0133220 -0.376470 
-0.566530 -0.096328 -0.313776 -0.193877 

0.5482867 0.1318024 0.4563721 -0.167099 
-0.559793 0.1239514 -0.005691 0.5049882 
-0.540507 0.4002151 -0.194218 0.1396862 
-0.571296 0.4798036 -0.087129 0.2198474 

0.0614813 0.3272203 -0.109368 0.1911585 
-0.220137 0.2075253 0.3821218 -0.104918 
-0.303697 0.5176422 0.1312701 -0.081508 
-0.362074 -0.070391 -0.165851 0.2771046 
----------------------------------------------
Generation: 6
0.3465597 -0.463370 -0.034068 0.4533017 
0.2858960 -0.348595 0.2170093 -0.032008 
-0.514565 -0.195199 -0.053457 -0.164570 

0.0314746 0.5548769 0.2355821 0.1396814 
-0.252318 0.2895684 -0.449753 -0.116913 
0.0421529 -0.563692 0.0412091 -0.279010 
-0.280694 0.0525793 -0.151525 -0.066617 

-0.390646 0.5764415 0.5186825 -0.059882 
0.3900191 -0.098521 -0.445616 -0.420966 
-0.066682 0.5366393 0.5593736 -0.420065 
-0.175312 -0.539887 -0.158122 0.4213042 
----------------------------------------------
0.2095594 -0.141628 -0.102944 0.5692998 
0.3962909 0.1662761 -0.442799 0.2636398 
-0.164430 -0.411649 -0.155935 -0.486956 

-0.291120 -0.101040 0.0419949 0.4165218 
-0.184831 0.1978788 0.2210547 0.2317641 
-0.225092 0.3837339 0.3551385 -0.131724 
-0.264397 0.1156105 0.2235303 0.5266605 

0.2803875 -0.545818 0.5653685 0.1824259 
0.1940009 -0.086173 -0.407185 0.3521051 
-0.315429 -0.346865 0.4234444 -0.003143 
-0.016126 0.4433958 0.1120951 0.1130228 
----------------------------------------------
Generation: 7
-0.513142 -0.387892 0.2227310 -0.008312 
-0.506406 -0.189932 0.4593173 0.5090220 
0.4123254 -0.508110 -0.155935 -0.486956 

-0.079802 -0.207521 -0.255874 -0.057935 
0.5234452 -0.154211 0.5429197 -0.116913 
0.0421529 -0.563692 0.0412091 -0.279010 
-0.530102 0.2749907 0.3877936 -0.066617 

-0.390646 -0.560277 -0.502155 0.0123556 
-0.549368 0.5731948 0.4952822 -0.443034 
-0.329999 0.3963987 0.0083398 -0.280434 
0.0290204 -0.031425 -0.446797 -0.218573 
----------------------------------------------
0.1654381 0.3111704 -0.284928 0.4381677 
-0.264219 0.5350214 0.0792177 0.1910769 
-0.302369 -0.520573 -0.338996 0.2534617 

0.4757192 -0.440128 0.1386959 0.4165218 
-0.184831 0.1978788 0.2210547 -0.116913 
0.0421529 -0.563692 0.0412091 -0.279010 
-0.280694 0.0525793 -0.151525 -0.066617 

-0.390646 0.5764415 -0.109368 -0.471784 
0.3900191 -0.098521 -0.445616 -0.420966 
-0.303697 0.5176422 0.1312701 0.1355659 
-0.399260 0.3283317 0.0469505 -0.233326 
----------------------------------------------
Generation: 8
-0.416863 0.0782258 -0.434274 -0.336149 
-0.571972 0.3231170 0.0133220 -0.376470 
-0.566530 0.2264626 0.5683951 0.1839087 

0.0314746 0.3847818 0.0419949 -0.057935 
0.5234452 -0.154211 0.5429197 -0.116913 
0.0421529 -0.563692 0.0412091 -0.279010 
-0.280694 0.0525793 -0.151525 -0.066617 

0.0614813 0.3272203 -0.109368 0.1911585 
-0.220137 0.2075253 0.3821218 -0.104918 
-0.303697 0.5176422 0.4025682 -0.081508 
-0.362074 -0.070391 -0.165851 0.2771046 
----------------------------------------------
-0.124491 0.2240475 -0.431740 0.0343544 
0.3849003 -0.463384 0.5486722 -0.347759 
-0.490237 0.2264626 0.5683951 0.1839087 

0.4757192 0.2744799 -0.407264 0.1545458 
0.4077210 0.4364848 0.1547831 0.2317641 
-0.225092 0.3837339 0.3551385 -0.131724 
-0.264397 0.4289728 0.3536331 0.3714408 

0.1756036 0.3272203 -0.109368 -0.471784 
0.3900191 -0.098521 -0.445616 -0.420966 
-0.303697 0.5176422 0.1312701 0.1355659 
-0.399260 -0.219458 0.5522732 -0.423420 
----------------------------------------------
Generation: 9
0.4697100 0.2855210 0.5278185 0.5229956 
0.3648147 -0.250347 0.4788109 -0.147189 
-0.514565 -0.195199 0.3839110 -0.486956 

-0.291120 -0.101040 0.0419949 0.4165218 
-0.184831 0.1978788 0.2210547 0.2317641 
-0.225092 0.3837339 0.1605998 -0.528898 
0.2896191 0.2375316 -0.093071 0.3335434 

-0.339851 -0.085672 -0.439595 -0.446165 
-0.565204 0.5657733 -0.445616 -0.420966 
-0.066682 0.5047570 0.0534410 0.5579837 
0.4372581 -0.083986 -0.273898 0.1148583 
----------------------------------------------
0.3887040 0.3111704 -0.284928 0.4381677 
-0.264219 -0.540591 -0.265147 0.2636398 
-0.164430 -0.411649 -0.155935 0.1839087 

-0.418417 0.3847818 0.1713788 -0.375961 
0.5234452 -0.154211 0.5429197 -0.116913 
0.0421529 -0.563692 0.0412091 -0.279010 
-0.530102 0.2749907 0.3877936 -0.066617 

-0.390646 -0.560277 -0.502155 0.0123556 
-0.549368 0.5731948 0.4952822 -0.443034 
-0.329999 0.3963987 0.0083398 -0.280434 
0.0290204 -0.031425 0.0469505 -0.233326 
----------------------------------------------
Generation: 10
0.3887040 -0.463370 -0.034068 0.4533017 
0.2858960 -0.348595 0.2170093 -0.013496 
-0.490237 0.2264626 -0.186006 0.1839087 

-0.265140 0.2787438 -0.255874 -0.493158 
-0.160282 -0.395089 -0.449753 -0.116913 
0.0421529 -0.563692 0.5238260 -0.341159 
0.4425997 0.2837612 0.1570717 -0.549143 

-0.463648 0.1956697 -0.439595 0.5429320 
-0.412541 -0.351297 0.1721925 -0.350662 
0.0329515 0.3860562 0.3939073 0.4805708 
-0.438039 0.5155961 0.0469505 -0.233326 
----------------------------------------------
-0.311418 0.4075620 -0.180705 -0.201255 
0.1661514 0.4843327 -0.166480 -0.298005 
-0.517423 -0.017856 0.3799336 -0.164570 

0.0314746 -0.031147 0.3507264 0.4165218 
-0.184831 0.2214234 0.1180322 0.0677002 
0.3198683 0.2355255 0.3551385 -0.131724 
-0.264397 0.4289728 -0.151525 -0.066617 

-0.390646 0.3272203 -0.109368 0.1911585 
-0.220137 0.2075253 0.0010347 -0.420966 
-0.431274 0.5176422 0.1312701 0.0134427 
-0.486672 -0.539887 -0.158122 0.2728351 
----------------------------------------------
Generation: 11
-0.124491 0.2240475 -0.431740 0.0343544 
0.3849003 -0.250347 -0.020071 0.4806035 
0.0161537 0.2264626 -0.186006 0.1839087 

-0.462653 -0.031147 0.3507264 0.3169383 
-0.184831 0.1978788 0.2210547 -0.469843 
0.4070960 0.4027632 -0.295963 -0.519749 
-0.159820 0.4289728 0.3536331 0.3714408 

0.1756036 0.3272203 -0.109368 -0.471784 
0.3900191 -0.086173 -0.185088 0.3959314 
-0.303697 0.5176422 0.1312701 0.1355659 
-0.399260 -0.219458 0.5522732 -0.423420 
----------------------------------------------
0.3465597 -0.463370 -0.180705 -0.201255 
0.1661514 -0.413526 0.5512917 0.4806035 
0.0161537 0.0046301 0.4842833 -0.425287 

0.4757192 -0.440128 -0.255899 0.1396814 
0.4716220 0.2214234 -0.453500 0.4875331 
-0.055249 -0.196936 -0.368346 -0.470360 
0.3059623 0.4289728 0.1570717 -0.549143 

-0.330562 0.3272203 0.5339409 0.5429320 
-0.220137 0.2075253 0.3821218 -0.104918 
-0.303697 0.5176422 0.1312701 -0.081508 
-0.362074 -0.070391 -0.165851 0.4213042 
----------------------------------------------
Generation: 12
0.4291050 0.3111704 -0.284928 0.4381677 
-0.264219 0.3262253 0.4593173 -0.437475 
0.0161537 0.0046301 -0.460866 0.2138437 

-0.462653 -0.031147 0.0419949 -0.057935 
0.5234452 -0.154211 0.2210547 -0.469843 
0.4070960 0.4027632 -0.295963 -0.519749 
-0.159820 0.2749907 0.3877936 0.2976118 

-0.100488 -0.560277 -0.502155 0.0123556 
-0.549368 0.5657733 0.0184829 -0.350662 
0.0329515 0.3860562 0.3939073 0.4805708 
-0.438039 -0.419829 0.0469505 -0.233326 
----------------------------------------------
0.1654381 -0.463370 -0.434274 -0.336149 
0.2858960 -0.348595 0.2170093 -0.032008 
-0.514565 -0.195199 -0.053457 -0.164570 

0.0314746 0.5548769 0.2355821 0.3169383 
-0.245485 0.2448731 -0.518072 0.3377862 
0.1629537 0.1516278 0.5238260 -0.341159 
0.4425997 0.4289728 0.3536331 0.3335434 

-0.479635 0.3833490 -0.109368 0.1911585 
-0.220137 0.2075253 0.3821218 -0.104918 
-0.303697 0.5176422 -0.470737 0.1355659 
-0.399260 0.3283317 0.0469505 -0.233326 
----------------------------------------------
Generation: 13
0.3887040 -0.463370 -0.284928 0.1978082 
0.1661514 0.4843327 -0.166480 0.2636398 
-0.164430 -0.411649 -0.155935 -0.486956 

-0.291120 -0.101040 0.0419949 0.4165218 
-0.184831 0.1978788 0.2210547 0.2317641 
-0.225092 0.3837339 0.1605998 -0.519749 
-0.159820 0.4077813 0.3536331 0.3714408 

0.1756036 0.3272203 -0.109368 -0.471784 
-0.275432 0.5402348 -0.116264 -0.371058 
-0.329999 0.5176422 0.0083398 0.1355659 
-0.486672 0.5155961 0.0469505 -0.233326 
----------------------------------------------
0.3887040 0.3111704 -0.209887 0.0508726 
0.3542857 -0.272055 0.2014055 -0.347759 
-0.490237 0.2264626 0.5683951 0.1633136 

-0.287450 0.2744799 0.3507264 0.3169383 
-0.245485 0.2448731 -0.518072 -0.116913 
0.0421529 0.3837339 0.3551385 -0.528898 
0.4515890 -0.516866 -0.493541 0.5386347 

0.4200806 0.1956697 -0.109368 -0.471784 
0.3900191 -0.098521 -0.445616 -0.420966 
-0.303697 0.5176422 0.1312701 0.1355659 
-0.286057 0.3283317 0.0469505 -0.233326 
----------------------------------------------
Generation: 14
0.3887040 -0.463370 -0.284928 0.1978082 
-0.571972 -0.250347 -0.020071 0.4806035 
-0.164430 -0.411649 -0.338996 0.2534617 

0.4757192 -0.440128 0.1386959 0.4165218 
-0.184831 0.1978788 -0.176948 -0.520043 
-0.418670 -0.103752 0.3551385 -0.528898 
0.2896191 -0.516866 0.3536331 0.2198474 

0.1756036 0.3272203 -0.109368 -0.471784 
0.3900191 -0.098521 -0.445616 0.5739544 
-0.431274 0.5176422 0.1312701 0.1355659 
-0.486672 0.5155961 0.0469505 -0.233326 
----------------------------------------------
-0.095118 0.3844466 -0.102944 0.5692998 
0.2858960 -0.348595 0.2170093 -0.013496 
-0.490237 -0.195199 -0.053457 -0.164570 

0.0314746 0.5548769 0.2355821 0.3169383 
-0.245485 0.2448731 -0.518072 0.3377862 
0.1629537 -0.103752 0.3551385 -0.528898 
-0.280694 0.0525793 0.1140298 0.2976118 

-0.100488 -0.560277 -0.502155 0.0123556 
-0.549368 0.5731948 0.4952822 -0.443034 
-0.329999 0.3963987 -0.470737 0.1355659 
-0.286057 0.3283317 0.0469505 0.1690808 
----------------------------------------------
Generation: 15
0.0109206 -0.474925 -0.102944 0.5692998 
0.2858960 -0.348595 0.2170093 -0.013496 
-0.490237 0.2264626 -0.186006 0.1839087 

0.0314746 0.5548769 0.2355821 0.3169383 
-0.245485 0.2448731 -0.518072 0.3377862 
0.1629537 -0.103752 0.3551385 -0.528898 
-0.280694 0.0525793 0.1140298 0.2976118 

-0.100488 -0.560277 -0.502155 0.0123556 
-0.549368 0.5731948 0.4952822 -0.443034 
-0.329999 0.3963987 -0.470737 0.1355659 
0.4372581 -0.083986 -0.165851 -0.394147 
----------------------------------------------
-0.095118 0.3844466 -0.102944 0.5692998 
0.2858960 -0.348595 0.2170093 -0.013496 
-0.490237 0.0502238 0.5683951 0.1961751 

-0.418417 0.3847818 0.1713788 -0.375961 
-0.567331 0.1978788 -0.176948 -0.520043 
-0.418670 -0.103752 0.3551385 -0.528898 
0.4425997 0.2837612 -0.493541 -0.099077 

0.3228615 0.5764415 -0.109368 -0.471784 
0.3900191 -0.098521 0.1721925 -0.350662 
0.0329515 0.3860562 0.3939073 -0.280434 
0.4372581 0.5155961 0.0469505 0.1690808 
----------------------------------------------
Generation: 16
0.3887040 0.3111704 -0.434274 -0.336149 
-0.264219 0.5350214 0.0792177 0.1910769 
-0.302369 -0.017856 0.3799336 -0.164570 

0.0314746 -0.521326 0.1386959 0.4165218 
-0.184831 0.1978788 -0.176948 -0.520043 
-0.418670 -0.103752 0.3551385 -0.519749 
-0.159820 0.4289728 -0.151525 -0.066617 

-0.390646 0.1956697 -0.439595 0.5429320 
-0.412541 -0.351297 0.1721925 -0.350662 
0.0329515 0.3860562 0.3939073 -0.280434 
0.4372581 0.5155961 0.0469505 -0.233326 
----------------------------------------------
0.3887040 0.3111704 -0.284928 0.0343544 
0.3849003 -0.463384 0.5486722 0.1910769 
0.0161537 0.0046301 -0.460866 0.2138437 

-0.462653 -0.031147 0.3507264 0.3169383 
-0.245485 0.2448731 -0.518072 0.3377862 
0.1629537 0.1516278 0.5238260 -0.279010 
-0.530102 0.2749907 0.3877936 0.3714408 

0.1756036 0.3272203 -0.218961 -0.471784 
-0.275432 0.5402348 -0.116264 0.3685985 
-0.329999 0.3963987 0.5110393 0.1355659 
0.4372581 0.5155961 0.0469505 -0.233326 
----------------------------------------------
Generation: 17
-0.095118 0.3844466 -0.102944 0.5692998 
0.3556419 -0.348595 0.2170093 -0.013496 
-0.490237 0.5512099 0.5683951 -0.193877 

-0.118330 -0.521326 0.1386959 0.4165218 
-0.184831 -0.395089 -0.449753 0.1293808 
0.2779449 -0.252960 -0.384197 -0.279010 
-0.159820 -0.233243 0.1570717 -0.549143 

-0.355740 -0.097296 0.2730867 -0.381721 
-0.111270 0.0815488 -0.185088 0.3959314 
-0.303697 0.5176422 0.1312701 0.1355659 
-0.399260 0.1670415 0.2431887 0.1690808 
----------------------------------------------
-0.513142 0.3111704 -0.209887 0.4381677 
-0.264219 0.5350214 0.0792177 -0.331174 
0.0161537 0.2264626 0.5683951 0.1839087 

0.0314746 0.5061022 0.3507264 0.3169383 
-0.245485 0.2448731 -0.518072 0.3377862 
0.0421529 -0.563692 -0.384197 -0.279010 
-0.280694 0.3714628 -0.493541 0.2000589 

-0.073538 -0.331029 0.0512772 -0.471784 
0.3900191 -0.098521 -0.445616 -0.420966 
-0.431274 0.5176422 0.1312701 0.1355659 
-0.438039 0.5155961 0.0469505 -0.218573 
----------------------------------------------
Generation: 18
-0.513142 -0.387892 0.2227310 -0.008312 
-0.506406 -0.348595 0.3431890 0.5589903 
0.0161537 0.0046301 -0.460866 0.2138437 

-0.169184 -0.031147 0.3507264 0.3169383 
-0.245485 0.2448731 -0.518072 0.1293808 
0.2779449 -0.252960 -0.384197 -0.279010 
-0.280694 0.4798036 -0.525812 0.3714408 

0.1756036 0.3272203 -0.109368 -0.471784 
-0.220137 0.2075253 0.3821218 -0.104918 
-0.303697 0.5176422 0.0982179 0.5667879 
-0.438039 0.5155961 0.0469505 -0.218573 
----------------------------------------------
0.3887040 0.3111704 -0.209887 0.0508726 
0.2758462 -0.250347 -0.020071 0.4806035 
0.0161537 0.0046301 -0.460866 -0.193877 

-0.118330 -0.521326 0.1386959 0.4165218 
-0.184831 0.2448731 0.0360552 0.3377862 
0.0421529 -0.563692 0.3551385 -0.519749 
-0.159820 -0.516866 -0.564003 0.3335434 

0.4395466 0.3272203 -0.109368 -0.471784 
0.3900191 -0.098521 0.1721925 -0.350662 
-0.329999 0.5176422 0.0982179 -0.280434 
-0.438039 0.5155961 0.0469505 -0.233326 
----------------------------------------------
Generation: 19
0.3887040 0.3844466 -0.102944 0.5692998 
0.3556419 -0.348595 0.2170093 -0.013496 
-0.490237 0.5512099 0.5683951 -0.193877 

-0.118330 -0.521326 0.1386959 0.4165218 
-0.184831 -0.395089 -0.449753 0.1293808 
0.2779449 -0.252960 -0.384197 -0.279010 
-0.159820 -0.233243 0.1570717 -0.549143 

-0.355740 -0.097296 0.2730867 -0.381721 
-0.111270 0.0815488 -0.185088 0.3959314 
-0.303697 0.5176422 0.0083398 0.5579837 
0.4372581 0.5155961 0.0469505 -0.233326 
----------------------------------------------
-0.072554 -0.474925 -0.102944 0.5692998 
0.2858960 -0.348595 0.2170093 -0.013496 
-0.490237 -0.520573 -0.338996 -0.193877 

-0.118330 -0.521326 0.1386959 0.4165218 
-0.184831 0.1978788 -0.176948 -0.520043 
-0.418670 -0.103752 -0.194218 -0.341159 
0.0576272 0.4289728 0.3536331 0.3714408 

0.1756036 0.0525591 -0.109368 0.1911585 
-0.220137 0.5402348 -0.116264 -0.371058 
-0.303697 0.3963987 0.0982179 -0.280434 
0.4372581 -0.083986 -0.165851 -0.394147 
----------------------------------------------
Generation: 20
-0.095118 0.3844466 -0.131383 0.2078260 
0.2858960 -0.348595 0.2170093 -0.013496 
-0.490237 0.0502238 0.5683951 -0.193877 

-0.118330 -0.031147 0.3507264 0.3169383 
-0.245485 0.2448731 0.5266355 0.4567340 
0.1629537 0.1516278 0.5238260 -0.341159 
-0.159820 -0.269537 0.1570717 -0.549143 

-0.330562 -0.560277 0.0512772 -0.172016 
-0.220137 -0.098521 0.0184829 -0.420966 
-0.431274 0.5176422 0.1312701 0.1355659 
-0.438039 0.4016319 0.0469505 0.1690808 
----------------------------------------------
-0.095118 0.3844466 -0.434274 -0.336149 
0.3556419 -0.348595 0.2170093 -0.013496 
0.0161537 0.0046301 0.5683951 0.1839087 

0.0314746 -0.031147 0.1386959 0.4165218 
0.0233177 -0.108923 -0.218902 -0.310039 
-0.017549 -0.439111 -0.295963 -0.519749 
-0.159820 -0.516866 -0.564003 0.3335434 

-0.479635 0.3833490 -0.109368 -0.381721 
-0.111270 0.0815488 -0.425174 0.3959314 
-0.303697 0.5176422 0.0982179 -0.280434 
0.4372581 -0.083986 -0.165851 0.1690808 
----------------------------------------------
Generation: 21
-0.095118 0.3844466 -0.131383 0.2078260 
0.2858960 -0.348595 0.2170093 -0.013496 
-0.490237 0.0502238 0.5683951 -0.193877 

-0.118330 -0.031147 0.3507264 0.3169383 
-0.245485 0.2448731 0.5266355 0.4567340 
0.1629537 0.1516278 0.5238260 -0.341159 
-0.159820 0.0525793 0.1140298 0.2976118 

-0.100488 -0.560277 0.0512772 -0.172016 
-0.220137 -0.098521 0.0184829 -0.420966 
-0.431274 0.5176422 0.1312701 0.1355659 
-0.438039 0.4016319 0.0469505 0.1690808 
----------------------------------------------
-0.095118 0.3844466 -0.102944 0.5692998 
0.3556419 -0.272055 0.0792177 0.1910769 
0.0161537 0.0046301 0.5683951 -0.193877 

-0.118330 -0.521326 0.1386959 0.4165218 
-0.184831 0.2448731 0.0360552 0.3377862 
-0.017549 -0.439111 -0.295963 -0.519749 
-0.159820 -0.516866 -0.564003 0.3335434 

0.3228615 0.3272203 -0.109368 -0.471784 
-0.220137 0.0815488 -0.185088 0.3959314 
-0.303697 0.5176422 0.1499304 0.1355659 
-0.399260 0.1670415 0.2431887 0.1690808 
----------------------------------------------
Generation: 22
-0.095118 0.3844466 -0.131383 0.2078260 
0.2858960 -0.348595 0.2170093 -0.013496 
-0.490237 0.0502238 0.5683951 -0.193877 

-0.118330 -0.031147 0.3507264 0.3169383 
-0.245485 0.2448731 0.5266355 0.4567340 
0.1629537 0.1516278 0.5238260 -0.341159 
-0.159820 0.0525793 0.1140298 0.2976118 

-0.100488 -0.560277 0.0512772 -0.172016 
-0.220137 -0.098521 0.0184829 -0.420966 
-0.431274 0.5176422 0.1312701 0.1355659 
-0.438039 0.4016319 0.0469505 0.1690808 
----------------------------------------------
-0.021786 0.3844466 -0.131383 0.2078260 
0.2858960 -0.348595 0.2170093 -0.013496 
-0.490237 0.0502238 0.5683951 -0.193877 

-0.118330 0.5548769 0.2355821 0.3169383 
-0.245485 0.1978788 -0.518072 0.3377862 
0.0421529 -0.103752 0.3551385 -0.528898 
-0.280694 -0.269537 -0.493541 -0.099077 

0.3228615 0.3272203 -0.109368 -0.471784 
-0.220137 -0.098521 0.0184829 -0.420966 
-0.431274 0.5176422 0.1312701 0.1355659 
-0.438039 0.4016319 0.0469505 0.1690808 
----------------------------------------------
Generation: 23
-0.095118 0.3844466 -0.131383 0.2078260 
0.2858960 -0.348595 0.2170093 -0.013496 
-0.490237 0.0502238 0.5683951 -0.164570 

0.0314746 0.5548769 0.1386959 0.3169383 
-0.245485 0.2448731 0.5266355 0.4567340 
0.1629537 0.1516278 0.5238260 -0.341159 
-0.159820 0.0525793 0.1140298 0.2976118 

-0.100488 -0.560277 0.0512772 -0.172016 
-0.220137 -0.098521 0.0184829 -0.420966 
-0.431274 0.5176422 0.1312701 0.1355659 
-0.438039 0.4016319 0.0469505 0.1690808 
----------------------------------------------
0.0109206 0.1911419 -0.099082 0.4381677 
-0.264219 0.5350214 0.0792177 -0.013496 
-0.490237 0.2264626 -0.186006 -0.193877 

-0.118330 -0.521326 0.1386959 0.4165218 
-0.245485 0.2448731 0.5266355 0.4567340 
0.1629537 0.1516278 0.5238260 -0.341159 
-0.159820 0.0525793 0.1140298 0.2976118 

-0.100488 -0.560277 0.0512772 -0.172016 
-0.220137 -0.098521 0.0184829 -0.420966 
-0.431274 0.5176422 0.1312701 -0.081508 
-0.286057 0.1668679 -0.165851 -0.394147 
----------------------------------------------
Generation: 24
-0.513142 0.3844466 -0.131383 0.4381677 
-0.264219 0.5350214 0.0792177 -0.331174 
-0.164430 0.2264626 -0.210526 0.1839087 

-0.462653 -0.521326 0.1386959 0.3169383 
-0.184831 0.2448731 -0.518072 0.1293808 
0.2779449 -0.252960 -0.384197 -0.528898 
0.2896191 0.5704544 0.3536331 0.3714408 

0.1756036 0.3272203 -0.109368 0.1911585 
-0.220137 0.2075253 0.3821218 -0.104918 
-0.329999 0.5176422 0.1312701 0.1355659 
-0.286057 -0.219458 0.2431887 -0.218573 
----------------------------------------------
0.0109206 -0.474925 0.1514340 0.5692998 
0.2858960 -0.441906 0.2170093 -0.013496 
0.0161537 0.0046301 0.3799336 -0.164570 

0.0314746 0.3847818 0.1713788 0.4165218 
0.0233177 -0.404683 -0.218902 -0.310039 
-0.017549 -0.439111 -0.295963 -0.519749 
-0.159820 0.4077813 -0.087129 0.2198474 

0.1756036 0.3272203 -0.109368 -0.471784 
-0.220137 0.2075253 -0.445616 -0.420966 
-0.431274 0.5176422 -0.470737 0.1355659 
0.4372581 0.1668679 -0.165851 -0.394147 
----------------------------------------------
Generation: 25
-0.095118 0.3844466 -0.131383 0.4381677 
-0.264219 0.5350214 0.0792177 -0.331174 
-0.164430 0.2264626 -0.210526 0.1839087 

-0.462653 -0.521326 0.1386959 0.4165218 
-0.184831 0.2448731 -0.518072 0.1293808 
0.0421529 -0.563692 -0.384197 -0.279010 
0.2896191 0.5704544 0.3536331 0.3714408 

0.1756036 0.3272203 -0.109368 0.1911585 
0.3900191 -0.098521 -0.445616 -0.420966 
-0.329999 0.5176422 0.1312701 0.1355659 
-0.399260 -0.083986 -0.165851 0.1690808 
----------------------------------------------
-0.416863 0.1026788 -0.209887 0.5692998 
0.2858960 -0.348595 0.2170093 -0.013496 
-0.490237 0.2264626 0.5683951 -0.193877 

-0.118330 -0.521326 0.3507264 0.4165218 
-0.184831 0.1978788 -0.072943 -0.520043 
-0.418670 0.3837339 -0.194218 -0.341159 
-0.280694 0.3714628 -0.493541 0.2976118 

0.1756036 0.3272203 -0.109368 -0.471784 
-0.220137 0.0815488 -0.185088 0.3959314 
-0.303697 -0.254622 0.5110393 0.1355659 
0.4372581 0.5155961 -0.165851 0.2771046 
----------------------------------------------
Generation: 26
-0.416863 0.3111704 -0.434274 0.2078260 
0.2858960 -0.348595 0.2170093 -0.013496 
-0.490237 0.0502238 0.5683951 -0.193877 

-0.118330 0.0692521 0.3507264 0.3169383 
-0.420177 -0.384438 0.5266355 -0.520043 
-0.418670 -0.103752 0.3551385 -0.528898 
-0.280694 0.0525793 -0.564003 0.3335434 

-0.479635 -0.560277 0.0512772 -0.172016 
-0.220137 -0.098521 0.0184829 -0.420966 
-0.431274 0.5176422 0.1312701 -0.081508 
-0.399260 -0.070391 -0.165851 0.2771046 
----------------------------------------------
-0.416863 0.1026788 -0.209887 0.5692998 
0.2858960 -0.348595 0.2170093 -0.013496 
-0.490237 0.2264626 0.5683951 -0.193877 

-0.118330 -0.521326 0.3507264 0.4165218 
-0.184831 0.1978788 -0.072943 -0.520043 
-0.418670 0.3837339 -0.194218 -0.341159 
-0.280694 0.3714628 -0.493541 0.2976118 

0.1756036 0.3272203 -0.109368 -0.471784 
-0.220137 0.0815488 -0.185088 0.3959314 
-0.303697 -0.254622 0.5110393 -0.280434 
0.4372581 -0.083986 -0.165851 0.2771046 
----------------------------------------------
Generation: 27
-0.513142 0.3111704 -0.434274 -0.336149 
0.2858960 -0.348595 0.2170093 -0.013496 
-0.490237 0.2264626 0.5683951 -0.193877 

-0.118330 -0.521326 0.1386959 0.4165218 
-0.184831 0.1978788 -0.176948 0.4567340 
0.1629537 0.1516278 0.5238260 -0.341159 
-0.159820 0.0525793 0.1140298 0.2976118 

-0.100488 -0.560277 0.0512772 -0.172016 
-0.220137 -0.098521 0.0184829 -0.420966 
-0.431274 0.5176422 0.1312701 -0.081508 
-0.286057 0.3283317 0.0469505 -0.218573 
----------------------------------------------
-0.513142 -0.387892 -0.434274 0.2078260 
0.2858960 -0.348595 0.2170093 -0.331174 
-0.164430 -0.010675 -0.210526 0.1839087 

-0.462653 -0.521326 0.3507264 0.4165218 
-0.184831 0.1978788 -0.072943 0.1293808 
0.2779449 -0.252960 0.2093055 -0.528898 
0.2896191 0.5704544 -0.493541 0.3335434 

-0.390646 0.3272203 -0.109368 -0.172016 
-0.220137 -0.098521 -0.425174 0.3959314 
-0.303697 0.5176422 0.0982179 -0.280434 
0.4372581 -0.083986 -0.002521 0.2279689 
----------------------------------------------
Generation: 28
-0.021786 0.1026788 -0.284928 -0.484172 
0.3849003 -0.463384 0.5486722 0.1910769 
-0.490237 0.0502238 0.5683951 -0.168368 

0.0314746 0.3847818 0.1713788 0.3169383 
-0.245485 0.2448731 0.5266355 0.4567340 
0.2779449 -0.563692 -0.384197 -0.528898 
-0.280694 0.0525793 -0.564003 0.3335434 

-0.479635 0.3833490 -0.109368 -0.471784 
-0.220137 0.5657733 -0.425174 -0.104918 
-0.329999 0.3963987 0.3939073 0.4805708 
-0.286057 0.4016319 0.0469505 0.1690808 
----------------------------------------------
-0.072554 -0.474925 -0.153578 -0.336149 
-0.568490 -0.250347 -0.020071 0.1910769 
0.0161537 0.3475808 0.5683951 -0.164570 

0.0314746 -0.031147 0.1386959 0.4165218 
-0.184831 0.1978788 -0.072943 0.1293808 
0.2779449 -0.252960 0.2093055 -0.341159 
-0.280694 0.3714628 -0.493541 0.2976118 

0.1756036 0.3833490 -0.109368 -0.471784 
-0.220137 0.0815488 -0.185088 -0.420966 
-0.431274 0.5176422 0.1312701 0.1355659 
-0.399260 0.1670415 -0.165851 -0.394147 
----------------------------------------------
Generation: 29
-0.095118 0.3844466 -0.209887 0.0508726 
-0.264219 -0.463384 0.2170093 -0.013496 
0.0161537 -0.195199 -0.210526 0.1839087 

-0.462653 -0.521326 0.3507264 0.4165218 
-0.184831 0.1978788 -0.072943 -0.520043 
-0.418670 0.3837339 0.2093055 -0.341159 
-0.280694 0.2837612 0.3604518 0.0576683 

-0.390646 0.3272203 -0.109368 -0.456062 
0.3900191 -0.098521 -0.116264 -0.371058 
-0.329999 0.3963987 0.1312701 0.4805708 
-0.286057 0.3283317 0.2431887 0.1690808 
----------------------------------------------
-0.095118 0.3844466 -0.102944 0.5692998 
0.3849003 -0.463384 0.5486722 0.1910769 
-0.490237 0.0502238 0.2427919 0.1839087 

0.0314746 -0.031147 0.1386959 0.3169383 
-0.245485 0.2448731 0.5266355 0.4567340 
-0.418670 -0.103752 -0.251017 -0.341159 
0.1457206 0.3714628 -0.493541 0.2976118 

-0.100488 0.3272203 -0.109368 -0.471784 
-0.220137 -0.098521 0.0184829 -0.420966 
-0.431274 0.5176422 0.1312701 0.1355659 
-0.438039 -0.070391 -0.165851 0.1690808 
----------------------------------------------
Generation: 30
-0.513142 0.1026788 -0.170135 0.4381677 
-0.264219 0.5350214 0.0792177 -0.331174 
0.0161537 0.0046301 0.5683951 0.1839087 

0.0314746 -0.031147 0.1386959 0.4165218 
-0.184831 -0.395089 -0.449753 -0.310039 
-0.246125 -0.103752 0.3551385 -0.528898 
-0.280694 0.0525793 0.3536331 0.2976118 

-0.100488 0.3495709 -0.109368 0.1911585 
-0.220137 0.2075253 0.3821218 -0.104918 
-0.017333 0.3963987 0.0982179 -0.280434 
-0.399260 -0.070391 0.0469505 -0.025170 
----------------------------------------------
-0.021786 0.3844466 -0.131383 0.2078260 
0.2858960 -0.348595 0.2170093 -0.013496 
-0.490237 0.0932048 0.5683951 0.1839087 

0.0314746 -0.031147 0.1386959 0.3169383 
-0.245485 0.2448731 0.5266355 0.4567340 
-0.246125 -0.103752 0.3551385 -0.528898 
0.2896191 0.5704544 -0.564003 0.3335434 

-0.390646 0.3272203 -0.109368 -0.471784 
-0.220137 0.2075253 0.3821218 -0.104918 
0.1418276 0.5047570 0.1312701 0.1355659 
-0.438039 0.4016319 0.0469505 0.1690808 
----------------------------------------------
Generation: 31
0.3887040 0.3844466 -0.131383 0.2078260 
0.3542857 -0.463384 0.2170093 -0.013496 
0.0161537 -0.195199 -0.210526 0.1839087 

-0.462653 -0.521326 0.3507264 0.4165218 
-0.184831 0.1978788 -0.072943 -0.520043 
-0.418670 0.3837339 0.2093055 -0.341159 
-0.280694 0.4077813 -0.087129 0.2976118 

-0.100488 0.3833490 -0.109368 -0.471784 
0.3900191 0.0213303 -0.445616 -0.420966 
-0.329999 0.4422545 0.3939073 0.4805708 
-0.286057 0.5155961 -0.347362 -0.233326 
----------------------------------------------
0.3887040 0.3111704 -0.209887 0.1874128 
0.3542857 -0.348595 0.2170093 -0.013496 
-0.516065 0.0502238 0.5683951 -0.164570 

0.0314746 0.5548769 0.1386959 0.4165218 
-0.184831 0.1978788 -0.176948 -0.520043 
0.1629537 0.1516278 0.5238260 -0.341159 
-0.159820 0.4077813 -0.493541 0.2976118 

-0.100488 0.3272203 -0.109368 -0.471784 
-0.220137 -0.098521 0.0184829 0.0497746 
-0.431274 0.4183095 0.1312701 0.4805708 
-0.286057 0.5155961 -0.347362 -0.233326 
----------------------------------------------
Generation: 32
-0.416863 0.1026788 -0.284928 -0.336149 
0.3542857 -0.348595 0.2170093 0.1910769 
0.0161537 0.0046301 -0.460866 0.2138437 

-0.462653 -0.031147 0.3507264 -0.327976 
-0.184831 0.2448731 -0.518072 0.4567340 
-0.246125 -0.563692 -0.384197 -0.528898 
-0.280694 0.0525793 -0.564003 0.2976118 

-0.100488 0.3272203 -0.109368 -0.471784 
-0.220137 -0.098521 0.0184829 -0.420966 
-0.431274 0.5176422 0.1312701 -0.081508 
-0.439503 -0.070391 -0.165851 0.2771046 
----------------------------------------------
-0.021786 0.3844466 -0.131383 0.4381677 
-0.170008 0.5350214 0.0792177 -0.013496 
0.0161537 0.0046301 -0.460866 0.2138437 

0.0314746 0.5548769 0.1386959 0.3169383 
-0.245485 0.2448731 -0.449753 0.1293808 
0.2779449 -0.252960 0.5238260 -0.528898 
-0.280694 0.3714628 -0.493541 0.2976118 

-0.100488 0.3272203 -0.109368 -0.471784 
-0.220137 0.0815488 -0.185088 -0.420966 
-0.431274 0.5176422 0.1312701 0.1355659 
-0.438039 0.4016319 0.0469505 0.1690808 
----------------------------------------------
Generation: 33
-0.416863 0.3844466 -0.102944 0.5692998 
0.2858960 0.5350214 0.0792177 0.1910769 
0.0161537 0.0046301 0.5683951 -0.193877 

0.3830754 0.5548769 0.1386959 0.4165218 
-0.245485 0.2448731 -0.449753 0.1293808 
0.2779449 -0.252960 -0.295963 -0.519749 
-0.159820 0.4077813 -0.087129 0.2198474 

0.1756036 0.3272203 -0.109368 -0.471784 
-0.111270 0.0815488 -0.425174 0.3959314 
-0.303697 0.5176422 0.1312701 0.1355659 
-0.438039 0.3283317 -0.165851 0.2771046 
----------------------------------------------
0.3887040 0.3844466 -0.131383 0.2078260 
0.3542857 -0.463384 0.2170093 -0.013496 
0.0161537 -0.195199 -0.210526 0.1839087 

-0.462653 -0.521326 0.1386959 0.4165218 
-0.245485 0.1978788 -0.072943 -0.520043 
-0.418670 0.3837339 0.2093055 -0.341159 
-0.280694 0.4077813 -0.087129 0.2976118 

-0.100488 0.3833490 -0.109368 -0.471784 
0.3900191 0.0213303 -0.445616 -0.420966 
-0.329999 0.4422545 0.1312701 0.1355659 
-0.438039 -0.070391 -0.165851 -0.233326 
----------------------------------------------
Generation: 34
-0.416863 0.1026788 -0.170135 0.1874128 
-0.571972 0.5350214 0.2170093 -0.013496 
-0.490237 0.0502238 0.5683951 -0.193877 

-0.118330 -0.521326 0.3507264 0.4165218 
0.0233177 -0.108923 -0.072943 0.1293808 
0.2779449 0.3837339 -0.194218 -0.341159 
-0.280694 0.4077813 -0.087129 0.3335434 

-0.390646 0.3272203 -0.109368 -0.471784 
-0.220137 0.2075253 -0.116264 -0.420966 
-0.329999 0.5176422 0.1312701 -0.280434 
-0.438039 -0.070391 -0.165851 0.2771046 
----------------------------------------------
-0.416863 0.3844466 -0.131383 0.5692998 
0.2858960 0.5350214 0.0792177 0.1910769 
0.0161537 0.0046301 0.5683951 0.1839087 

0.0314746 -0.031147 0.1386959 0.4165218 
-0.184831 -0.395089 -0.449753 -0.310039 
-0.246125 -0.103752 0.1605998 -0.519749 
-0.159820 0.4077813 -0.493541 0.2976118 

-0.100488 0.3495709 -0.109368 0.1911585 
-0.220137 0.2075253 0.3821218 -0.420966 
-0.431274 0.5176422 0.1312701 0.1355659 
-0.438039 -0.070391 -0.165851 0.2771046 
----------------------------------------------
Generation: 35
-0.416863 0.3844466 -0.131383 0.5692998 
0.2858960 0.5350214 0.0792177 0.1910769 
0.0161537 -0.195199 -0.210526 0.1839087 

-0.118330 0.5548769 0.1386959 0.4165218 
-0.245485 0.2448731 -0.449753 0.1293808 
0.2779449 -0.252960 0.5238260 -0.528898 
-0.280694 0.3714628 -0.493541 0.3335434 

-0.390646 0.3272203 -0.109368 -0.471784 
-0.220137 0.0815488 -0.185088 -0.420966 
-0.431274 0.5176422 0.1312701 0.1355659 
-0.438039 -0.070391 -0.165851 0.2771046 
----------------------------------------------
-0.513142 -0.474925 -0.153578 -0.336149 
-0.568490 -0.463384 0.2170093 -0.013496 
0.0161537 -0.195199 -0.210526 0.1839087 

-0.462653 -0.521326 -0.568547 0.4165218 
-0.184831 -0.395089 -0.449753 0.1293808 
-0.017549 -0.439111 0.1605998 -0.519749 
-0.159820 0.2837612 -0.493541 0.2976118 

-0.100488 0.3272203 -0.109368 -0.471784 
-0.220137 -0.098521 0.0184829 -0.420966 
-0.431274 0.5176422 -0.477835 -0.280434 
-0.399260 -0.070391 0.0469505 -0.025170 
----------------------------------------------
Generation: 36
-0.072554 -0.474925 -0.417955 -0.336149 
-0.264219 0.5350214 0.0792177 -0.013496 
-0.490237 0.0046301 0.5683951 0.4750385 

0.1476475 0.5548769 0.1386959 0.4165218 
-0.245485 0.2448731 -0.449753 0.1293808 
-0.246125 -0.439111 0.1605998 -0.528898 
0.4425997 -0.516866 -0.493541 0.1390047 

-0.479635 0.3272203 -0.109368 -0.471784 
-0.220137 -0.098521 -0.185088 -0.420966 
-0.431274 0.5176422 0.0112355 0.1355659 
-0.399260 0.1670415 -0.165851 -0.394147 
----------------------------------------------
-0.072554 -0.474925 -0.153578 -0.336149 
-0.264219 0.5350214 0.0792177 -0.013496 
0.0161537 0.3475808 0.5683951 0.1839087 

0.0314746 -0.031147 0.1386959 0.3169383 
0.0233177 -0.108923 -0.218902 0.2317641 
-0.225092 0.3837339 0.1605998 -0.519749 
-0.159820 0.4077813 -0.493541 0.2976118 

-0.100488 0.3272203 -0.109368 -0.471784 
-0.220137 -0.098521 -0.185088 -0.420966 
-0.431274 0.5176422 0.1312701 0.1355659 
-0.399260 0.1670415 -0.165851 -0.394147 
----------------------------------------------
Generation: 37
-0.095118 0.3844466 -0.131383 0.2078260 
0.0511788 -0.348595 0.5486722 -0.013496 
-0.490237 0.2264626 0.5683951 -0.193877 

-0.118330 -0.031147 0.1386959 0.4165218 
-0.184831 0.1978788 -0.072943 0.4567340 
-0.246125 -0.103752 0.3551385 -0.528898 
-0.280694 0.0525793 -0.493541 0.3335434 

-0.100488 0.3272203 -0.109368 0.1911585 
-0.220137 -0.098521 0.0184829 -0.371058 
-0.431274 0.5176422 0.1312701 0.1355659 
-0.399260 0.3283317 0.2431887 0.1690808 
----------------------------------------------
-0.416863 0.3844466 -0.153578 -0.336149 
-0.568490 0.5350214 0.0792177 -0.013496 
-0.490237 0.0046301 -0.233816 0.2138437 

0.1476475 0.5548769 -0.414642 0.3169383 
-0.245485 0.2448731 0.5266355 0.4567340 
0.1629537 -0.103752 0.3551385 -0.528898 
0.2896191 0.5704544 -0.564003 0.3335434 

-0.390646 0.3272203 -0.109368 -0.471784 
-0.220137 0.0815488 -0.185088 -0.420966 
-0.431274 0.5176422 0.1312701 0.1355659 
-0.438039 -0.070391 -0.165851 0.2771046 
----------------------------------------------
Generation: 38
0.0109206 0.1911419 0.2227310 0.0508726 
-0.264219 -0.348595 0.5486722 0.1910769 
0.0161537 0.0046301 0.5683951 -0.193877 

-0.118330 0.5548769 0.1386959 0.3854682 
-0.245485 -0.395089 -0.449753 0.0329322 
0.2779449 -0.252960 -0.295963 -0.519749 
-0.159820 0.4077813 -0.087129 0.2198474 

0.1756036 0.3272203 -0.109368 -0.471784 
-0.111270 0.0815488 -0.185088 -0.420966 
-0.329999 0.4422545 0.3939073 -0.280434 
0.0290204 -0.031425 0.0469505 -0.394147 
----------------------------------------------
-0.416863 0.3844466 -0.153578 -0.336149 
-0.568490 -0.250347 -0.020071 0.1910769 
0.0161537 0.3475808 0.5683951 -0.164570 

-0.118330 0.5548769 0.1386959 0.4165218 
-0.245485 0.2448731 -0.449753 0.1293808 
0.2779449 -0.252960 0.5238260 -0.528898 
-0.280694 0.4077813 -0.564003 0.3335434 

-0.390646 0.3272203 -0.109368 -0.471784 
-0.220137 0.0815488 -0.185088 -0.420966 
-0.431274 0.5176422 0.1312701 0.1355659 
0.2824980 -0.070391 -0.165851 0.2771046 
----------------------------------------------
Generation: 39
0.0109206 -0.474925 -0.153578 -0.336149 
-0.264219 0.5350214 0.0792177 -0.013496 
0.0161537 0.3475808 0.5683951 -0.164570 

-0.462653 -0.031147 0.3507264 -0.330663 
-0.184831 -0.395089 -0.072943 -0.520043 
-0.246125 -0.252960 -0.295963 -0.203104 
-0.159820 0.2837612 -0.564003 0.3335434 

-0.390646 0.3272203 -0.109368 -0.471784 
-0.220137 0.0815488 -0.185088 -0.420966 
-0.431274 0.5176422 0.0112355 0.1355659 
-0.399260 -0.070391 -0.165851 -0.394147 
----------------------------------------------
0.3887040 0.3111704 -0.417955 0.0508726 
-0.568490 -0.463384 0.2170093 -0.013496 
0.5081048 0.0046301 0.5683951 -0.193877 

0.3830754 0.5548769 0.1386959 0.4165218 
-0.245485 0.2448731 0.5266355 0.4567340 
0.1629537 0.3837339 0.1605998 -0.519749 
-0.159820 0.4077813 0.3536331 0.3714408 

-0.479635 0.3272203 -0.109368 -0.471784 
-0.220137 0.0815488 0.0184829 -0.371058 
-0.329999 0.5176422 0.1312701 -0.280434 
-0.286057 0.5155961 -0.347362 0.1564325 
----------------------------------------------
Generation: 40
-0.416863 0.1026788 -0.170135 0.1874128 
-0.571972 0.5350214 0.0792177 -0.013496 
0.0161537 0.3475808 0.5683951 -0.164570 

0.0314746 -0.521326 0.1386959 0.4165218 
-0.245485 0.0498029 -0.449753 -0.520043 
-0.246125 -0.252960 -0.295963 -0.203104 
-0.159820 0.2837612 -0.564003 0.3335434 

-0.390646 0.3272203 -0.109368 -0.471784 
-0.220137 0.0815488 -0.185088 -0.420966 
-0.431274 0.5176422 0.1312701 0.4805708 
-0.399260 0.1668679 -0.165851 0.2771046 
----------------------------------------------
-0.416863 0.1026788 -0.148063 0.4381677 
-0.264219 -0.348595 0.2170093 -0.331174 
0.0161537 0.0046301 0.5683951 -0.193877 

0.3830754 0.5548769 0.1386959 0.4165218 
-0.245485 0.2448731 -0.449753 0.1293808 
0.2779449 -0.252960 -0.295963 -0.519749 
-0.159820 0.4077813 -0.087129 0.2198474 

0.1756036 0.3272203 -0.109368 -0.471784 
-0.437101 0.0815488 -0.255876 -0.420966 
-0.431274 0.5176422 0.1312701 0.1355659 
0.4371695 -0.070391 -0.165851 0.2771046 
----------------------------------------------
Generation: 41
-0.416863 0.1026788 -0.284928 -0.336149 
-0.571972 -0.250347 0.2170093 -0.013496 
-0.490237 0.0502238 -0.460866 0.1839087 

0.0314746 0.1507798 0.1386959 0.4165218 
-0.245485 0.1978788 -0.072943 0.4567340 
-0.246125 -0.103752 0.3551385 -0.528898 
-0.159820 0.4077813 -0.087129 0.2198474 

0.1756036 0.3272203 -0.109368 -0.471784 
-0.111270 0.0815488 -0.185088 -0.420966 
-0.431274 0.5176422 0.1312701 0.1355659 
-0.399260 0.1670415 -0.165851 0.2771046 
----------------------------------------------
0.0109206 -0.474925 -0.153578 -0.336149 
-0.264219 0.5350214 0.0792177 -0.013496 
-0.164430 0.0046301 -0.460866 0.2138437 

-0.462653 -0.031147 0.3507264 -0.327976 
-0.184831 0.2448731 -0.449753 -0.310039 
-0.246125 -0.103752 0.1605998 -0.528898 
-0.280694 0.3714628 -0.493541 0.3335434 

-0.390646 0.3272203 -0.109368 -0.471784 
-0.220137 0.0815488 -0.185088 -0.420966 
-0.431274 0.5176422 0.1312701 0.1355659 
-0.438039 -0.070391 0.0469505 -0.394147 
----------------------------------------------
Generation: 42
0.3887040 0.3111704 -0.417955 0.0508726 
-0.264219 -0.348595 0.5486722 0.1910769 
0.0161537 0.0046301 0.5683951 -0.193877 

-0.118330 -0.521326 0.3507264 -0.327976 
-0.184831 0.2448731 -0.449753 0.1293808 
-0.246125 -0.252960 0.5238260 -0.528898 
-0.280694 0.3714628 -0.493541 0.3777549 

-0.390646 0.3272203 -0.109368 -0.471784 
-0.220137 0.0815488 0.0184829 -0.371058 
-0.329999 0.5176422 0.1312701 -0.280434 
-0.286057 0.5155961 -0.347362 0.1564325 
----------------------------------------------
0.0109206 -0.474925 -0.153578 -0.336149 
-0.264219 -0.294341 0.0792177 -0.331174 
-0.164430 -0.195199 0.1021750 0.2138437 

-0.462653 -0.031147 0.3507264 0.4165218 
-0.184831 -0.108923 -0.072943 0.1293808 
0.2779449 -0.103752 0.3551385 -0.341159 
-0.159820 -0.516866 -0.564003 0.2198474 

0.1756036 0.3272203 -0.109368 -0.471784 
-0.220137 0.2075253 0.0184829 -0.371058 
-0.329999 0.5176422 0.1312701 -0.280434 
-0.286057 -0.070391 -0.165851 -0.394147 
----------------------------------------------
Generation: 43
0.3887040 0.3111704 -0.417955 0.0508726 
-0.264219 0.5350214 0.2170093 0.0336344 
0.0161537 0.3475808 0.5683951 0.1839087 

0.0314746 -0.521326 0.3507264 -0.327976 
-0.184831 0.2448731 -0.449753 0.1293808 
-0.246125 -0.252960 0.5238260 -0.528898 
-0.280694 0.3714628 -0.493541 0.3335434 

-0.390646 0.3272203 -0.109368 0.2628335 
-0.220137 0.0815488 0.0184829 -0.371058 
-0.431274 0.5176422 0.1312701 0.1355659 
-0.438039 0.4016319 -0.347362 0.1564325 
----------------------------------------------
-0.416863 0.1026788 -0.102944 0.5692998 
0.2858960 -0.250347 0.0792177 -0.013496 
-0.164430 0.0046301 -0.460866 0.2138437 

-0.462653 -0.031147 0.3507264 -0.087978 
-0.245485 0.2448731 0.0360552 0.3377862 
0.2779449 -0.103752 0.3551385 -0.528898 
-0.159820 0.4077813 -0.493541 0.2976118 

-0.100488 0.3272203 0.3590196 -0.471784 
-0.220137 -0.098521 -0.255876 0.3959314 
-0.431274 0.5176422 0.1312701 0.1355659 
-0.399260 0.4016319 0.0469505 0.2771046 
----------------------------------------------
Generation: 44
-0.513142 0.1026788 -0.209887 -0.336149 
-0.571972 -0.250347 0.2170093 -0.013496 
-0.490237 0.0502238 -0.460866 0.1839087 

0.0314746 0.1507798 0.1386959 0.4165218 
-0.245485 0.2448731 -0.449753 0.4567340 
-0.246125 -0.563692 0.5238260 -0.528898 
-0.280694 0.4077813 -0.087129 0.2198474 

0.1756036 0.3272203 -0.109368 -0.471784 
-0.111270 0.0815488 -0.185088 -0.420966 
-0.303697 0.1834820 0.0982179 -0.081508 
-0.286057 0.1668679 0.0469505 -0.025170 
----------------------------------------------
-0.416863 -0.474925 -0.153578 0.2078260 
0.3542857 -0.463384 0.2170093 -0.013496 
0.0161537 -0.195199 0.4105900 0.2138437 

-0.462653 -0.031147 0.3507264 0.4165218 
-0.184831 -0.395089 -0.449753 0.1293808 
-0.246125 -0.252960 0.5238260 -0.528898 
-0.280694 0.3714628 -0.493541 0.3335434 

0.1458505 0.3272203 -0.109368 -0.471784 
-0.220137 0.0815488 -0.185088 -0.420966 
-0.236781 0.5176422 0.3939073 0.1355659 
-0.399260 -0.070391 0.0469505 0.2771046 
----------------------------------------------
Generation: 45
-0.416863 0.3844466 -0.153578 -0.336149 
-0.571972 -0.348595 0.2170093 -0.013496 
-0.164430 0.3475808 -0.114285 -0.193877 

-0.118330 -0.031147 0.1386959 0.2305014 
-0.184831 -0.395089 -0.449753 0.4567340 
0.1629537 0.3837339 0.3551385 -0.528898 
-0.159820 0.4077813 -0.493541 0.2976118 

-0.100488 -0.138699 -0.109368 -0.471784 
-0.220137 0.0815488 -0.185088 -0.420966 
-0.329999 0.5176422 0.1312701 0.1355659 
-0.438039 -0.070391 -0.165851 0.2771046 
----------------------------------------------
0.0109206 0.1911419 0.1142249 0.4381677 
-0.568490 -0.250347 0.0792177 0.4806035 
0.0161537 0.3475808 0.5683951 -0.164570 

-0.323745 -0.521326 0.1386959 0.2305014 
-0.184831 -0.395089 -0.449753 0.4567340 
-0.246125 -0.252960 0.5238260 -0.528898 
-0.280694 0.3714628 -0.493541 0.3335434 

-0.390646 0.3272203 -0.109368 0.2628335 
-0.220137 0.0815488 0.0184829 -0.371058 
-0.329999 0.5176422 0.0982179 -0.081508 
-0.286057 0.1668679 -0.165851 -0.394147 
----------------------------------------------
Generation: 46
0.0109206 -0.474925 -0.153578 -0.336149 
-0.571972 -0.463384 0.2170093 -0.013496 
-0.164430 -0.195199 0.4105900 0.2138437 

-0.118330 -0.031147 0.1386959 -0.087978 
-0.245485 0.0498029 -0.449753 -0.520043 
-0.246125 -0.252960 -0.295963 -0.203104 
-0.159820 0.4077813 -0.087129 0.3777549 

-0.390646 0.3272203 -0.109368 -0.471784 
-0.220137 0.0815488 -0.191217 -0.420966 
-0.431274 0.5176422 0.1312701 -0.081508 
0.4371695 -0.070391 -0.165851 -0.394147 
----------------------------------------------
0.0109206 0.1026788 -0.284928 -0.336149 
-0.264219 -0.348595 0.5486722 0.1910769 
0.0161537 0.3475808 0.5683951 0.1839087 

0.0314746 0.5548769 0.1386959 0.3169383 
0.3409797 -0.395089 -0.449753 0.4567340 
-0.418670 -0.103752 0.3551385 -0.528898 
-0.280694 0.4077813 -0.087129 -0.070168 

0.1756036 0.3272203 0.3590196 -0.471784 
-0.220137 -0.098521 0.0184829 -0.420966 
-0.431274 0.5176422 0.1312701 -0.280434 
-0.286057 -0.070391 -0.165851 -0.394147 
----------------------------------------------
Generation: 47
0.0109206 -0.474925 -0.153578 -0.336149 
-0.264219 0.5350214 0.5486722 -0.013496 
-0.490237 0.2264626 0.4105900 0.1839087 

0.0314746 -0.521326 0.3507264 -0.327976 
-0.184831 0.2448731 -0.449753 0.1293808 
-0.246125 0.3837339 0.1605998 -0.519749 
-0.159820 0.4077813 -0.087129 -0.293318 

0.1756036 0.3272203 -0.109368 -0.471784 
-0.220137 -0.098521 0.3769734 -0.371058 
-0.236781 0.5176422 0.3939073 0.1355659 
-0.399260 0.0950091 -0.165851 -0.394147 
----------------------------------------------
0.0236597 0.3844466 -0.102944 0.5692998 
0.2858960 -0.250347 0.0792177 -0.013496 
-0.164430 0.0046301 -0.460866 0.1839087 

0.0314746 0.1507798 0.1386959 0.4165218 
-0.245485 0.2448731 -0.449753 0.4567340 
-0.246125 0.3837339 -0.384197 -0.519749 
-0.280694 0.4077813 -0.087129 0.2198474 

0.1756036 0.3272203 -0.109368 -0.471784 
-0.111270 0.0815488 -0.185088 -0.420966 
-0.303697 0.1834820 0.0982179 -0.081508 
-0.438039 -0.070391 -0.165851 0.2771046 
----------------------------------------------
Generation: 48
0.0109206 -0.474925 -0.153578 0.5692998 
0.2858960 -0.250347 0.0792177 -0.013496 
-0.164430 0.0046301 -0.395304 0.2138437 

-0.462653 -0.031147 0.3507264 0.4165218 
-0.184831 0.2448731 -0.449753 0.1293808 
-0.246125 0.3837339 -0.384197 -0.519749 
-0.159820 0.4077813 -0.087129 -0.180159 

-0.390646 0.3272203 -0.109368 -0.471784 
-0.220137 0.0815488 -0.290155 -0.420966 
-0.329999 -0.329949 0.0982179 0.1355659 
-0.399260 -0.459135 -0.165851 -0.394147 
----------------------------------------------
-0.072554 -0.474925 -0.099082 0.4381677 
-0.264219 -0.348595 0.0792177 -0.331174 
0.0161537 0.3475808 0.5683951 -0.193877 

0.3830754 0.5548769 0.1386959 0.2305014 
-0.184831 0.0029940 -0.449753 0.1293808 
0.3223972 -0.252960 0.5238260 -0.528898 
-0.280694 0.3714628 -0.493541 0.3335434 

-0.390646 0.3272203 -0.109368 0.2628335 
-0.220137 0.0815488 0.0184829 -0.371058 
-0.236781 0.5176422 0.1312701 -0.409902 
-0.399260 0.1670415 -0.165851 -0.394147 
----------------------------------------------
Generation: 49
-0.416863 0.1026788 -0.170135 0.0508726 
-0.264219 0.5350214 0.5486722 -0.013496 
0.0161537 0.0502238 0.5683951 0.1839087 

0.0314746 -0.521326 0.3507264 -0.327976 
-0.184831 0.2448731 -0.449753 0.1293808 
-0.246125 0.3837339 0.1605998 -0.519749 
-0.159820 0.4077813 0.3536331 0.2976118 

-0.100488 0.3272203 0.3590196 -0.471784 
0.0937965 -0.098521 -0.255876 0.3959314 
-0.431274 0.5176422 0.1312701 0.1355659 
-0.438039 -0.070391 -0.165851 0.2771046 
----------------------------------------------
0.0109206 -0.474925 -0.153578 0.2610275 
-0.264219 0.5350214 0.2170093 -0.013496 
-0.164430 0.0046301 -0.395304 0.2138437 

-0.462653 -0.031147 0.3507264 0.4165218 
-0.184831 0.2448731 -0.449753 0.1293808 
-0.246125 0.3837339 -0.384197 -0.519749 
-0.159820 0.4077813 -0.087129 -0.180159 

-0.390646 0.3272203 -0.109368 -0.471784 
-0.220137 0.0815488 -0.290155 -0.420966 
-0.431274 0.5176422 0.1312701 0.1355659 
-0.438039 -0.070391 -0.165851 -0.394147 
----------------------------------------------
Generation: 50
-0.513142 -0.474925 -0.102944 0.5692998 
0.2858960 0.5350214 0.5486722 -0.013496 
-0.490237 0.2264626 0.4105900 0.1839087 

0.0314746 -0.521326 0.3507264 -0.327976 
-0.184831 0.2448731 -0.449753 0.1293808 
-0.246125 0.3837339 0.1605998 -0.519749 
-0.159820 0.4077813 -0.493541 0.3335434 

0.1756036 0.3272203 -0.109368 -0.471784 
-0.220137 -0.098521 0.3769734 -0.371058 
-0.236781 0.5176422 0.3939073 0.1355659 
-0.399260 0.0950091 -0.165851 -0.025170 
----------------------------------------------
-0.072554 -0.474925 -0.099082 0.4381677 
-0.264219 -0.348595 0.0792177 -0.331174 
0.0161537 0.3475808 0.5683951 -0.193877 

0.3830754 0.5548769 0.1386959 0.2305014 
-0.184831 0.0029940 -0.449753 0.1293808 
0.3223972 -0.252960 0.5238260 -0.528898 
-0.280694 0.4077813 -0.493541 0.3335434 

-0.390646 0.3272203 -0.109368 -0.471784 
-0.220137 -0.098521 -0.185088 -0.420966 
-0.431274 0.5176422 0.1312701 0.1355659 
-0.439503 -0.070391 -0.165851 -0.394147 
----------------------------------------------
Generation: 51
-0.513142 -0.474925 -0.102944 0.5692998 
0.2858960 -0.250347 0.0792177 -0.013496 
-0.164430 0.0046301 0.5683951 0.2138437 

0.0314746 -0.521326 0.1386959 -0.327976 
-0.245485 0.2448731 -0.449753 0.1293808 
-0.246125 0.3837339 0.1605998 -0.519749 
-0.159820 0.4077813 0.3536331 0.3714408 

-0.479635 0.3272203 -0.109368 -0.471784 
-0.220137 -0.098521 -0.255876 0.3959314 
-0.431274 0.5176422 0.1312701 -0.255626 
-0.399260 -0.070391 -0.165851 -0.025170 
----------------------------------------------
-0.416863 0.1026788 -0.170135 0.0508726 
0.2858960 -0.250347 0.0792177 -0.013496 
-0.164430 0.0046301 0.5683951 0.2138437 

0.0314746 0.1507798 0.1386959 0.4165218 
-0.184831 0.2448731 0.5266355 0.4567340 
-0.246125 -0.563692 -0.384197 -0.528898 
-0.280694 0.3714628 -0.493541 0.3777549 

0.1756036 0.3272203 -0.109368 -0.471784 
-0.220137 -0.098521 -0.255876 0.4014489 
-0.431274 0.5176422 0.1312701 0.1355659 
-0.438039 0.4016319 0.0469505 0.2771046 
----------------------------------------------
Generation: 52
-0.416863 0.3844466 -0.153578 -0.336149 
-0.264219 0.5350214 0.0792177 -0.013496 
-0.164430 0.0046301 0.5683951 0.2138437 

0.0314746 0.1507798 0.1386959 0.4165218 
-0.184831 0.2448731 0.5266355 0.4567340 
-0.246125 -0.563692 -0.384197 -0.528898 
-0.280694 0.3714628 -0.493541 0.3335434 

-0.390646 0.3272203 -0.109368 -0.471784 
-0.220137 -0.098521 -0.255876 0.3959314 
-0.431274 0.5176422 0.1312701 0.1355659 
-0.438039 -0.070391 -0.165851 0.2771046 
----------------------------------------------
-0.416863 0.1026788 -0.170135 0.0508726 
-0.264219 0.5350214 0.5486722 -0.013496 
0.0161537 0.0502238 0.5683951 0.1839087 

0.0314746 -0.521326 0.3507264 -0.327976 
-0.245485 -0.395089 -0.449753 0.4567340 
0.1629537 -0.563692 -0.384197 -0.528898 
-0.280694 0.3714628 -0.087129 0.2198474 

0.1756036 0.3272203 -0.109368 -0.471784 
-0.220137 0.0815488 -0.445616 -0.420966 
-0.329999 0.5176422 0.2417522 0.1355659 
-0.438039 -0.070391 -0.165851 0.2771046 
----------------------------------------------
Generation: 53
-0.416863 0.3844466 -0.153578 -0.336149 
-0.264219 0.5350214 0.0792177 -0.013496 
-0.164430 0.0046301 0.5683951 0.2138437 

0.0314746 0.1507798 0.3507264 -0.327976 
-0.184831 0.2448731 -0.449753 0.1293808 
-0.246125 0.3837339 0.1605998 -0.528898 
-0.280694 0.3714628 -0.493541 0.3335434 

-0.390646 0.3272203 -0.109368 -0.471784 
-0.220137 -0.098521 -0.255876 0.3959314 
-0.431274 0.5176422 0.1312701 0.1355659 
-0.438039 -0.070391 -0.165851 0.2771046 
----------------------------------------------
0.3887040 -0.474925 0.2657157 0.4381677 
-0.568490 -0.250347 0.0792177 0.4806035 
0.0161537 0.3475808 0.4105900 0.2138437 

-0.462653 -0.031147 0.3507264 -0.327976 
-0.184831 -0.395089 -0.449753 0.1293808 
-0.246125 0.3837339 -0.384197 -0.519749 
-0.159820 0.4077813 -0.087129 -0.180159 

-0.390646 0.3272203 -0.109368 -0.471784 
0.4357152 0.0815488 -0.185088 -0.473008 
-0.329999 0.5176422 0.1312701 -0.050548 
-0.438039 0.4016319 0.0469505 0.1564325 
----------------------------------------------
Generation: 54
0.0109206 -0.474925 -0.153578 -0.055198 
-0.297287 -0.463384 0.0792177 -0.331174 
-0.164430 0.0046301 0.0017444 0.2138437 

-0.462653 -0.521326 0.1386959 0.4165218 
-0.245485 -0.382332 0.5266355 0.1293808 
0.3832904 -0.252960 0.5238260 -0.528898 
-0.280694 0.4077813 -0.493541 0.3335434 

-0.390646 0.3272203 -0.109368 -0.471784 
-0.220137 -0.098521 -0.255876 0.3959314 
-0.431274 0.5176422 0.1312701 0.1355659 
-0.438039 -0.070391 -0.165851 -0.394147 
----------------------------------------------
-0.513142 -0.474925 -0.102944 0.5692998 
0.2858960 0.5350214 0.5486722 -0.013496 
-0.490237 0.2264626 0.5683951 0.2138437 

0.0314746 -0.521326 0.1386959 -0.327976 
-0.245485 0.2448731 -0.449753 0.1293808 
-0.246125 -0.252960 0.5238260 -0.519749 
-0.159820 0.3714628 -0.493541 0.3335434 

-0.479635 0.3272203 -0.109368 0.2628335 
-0.220137 -0.098521 -0.255876 0.3959314 
-0.431274 0.5176422 0.1312701 -0.255626 
-0.399260 -0.070391 -0.165851 -0.025170 
----------------------------------------------
Generation: 55
0.0109206 -0.474925 -0.153578 -0.336149 
-0.264219 -0.348595 0.5486722 -0.013496 
0.0161537 0.2264626 0.4105900 0.1839087 

0.0314746 0.1507798 0.1386959 -0.327976 
-0.184831 0.2448731 -0.449753 0.1293808 
-0.246125 0.3837339 0.1605998 -0.519749 
-0.159820 0.4077813 -0.493541 0.3335434 

-0.390646 0.3272203 -0.109368 -0.471784 
-0.220137 0.0815488 -0.290155 -0.420966 
-0.431274 0.5176422 0.1312701 0.1355659 
0.4371695 -0.070391 -0.165851 -0.394147 
----------------------------------------------
0.0109206 -0.474925 -0.153578 0.4381677 
-0.264219 0.5350214 0.5486722 -0.013496 
-0.164430 0.0046301 0.4105900 0.2138437 

-0.462653 0.1507798 0.1374855 -0.327976 
-0.184831 0.2448731 -0.449753 0.1293808 
0.2779449 -0.252960 0.5238260 -0.528898 
-0.280694 0.4077813 -0.087129 0.2198474 

0.1756036 0.3272203 0.5588947 -0.471784 
-0.220137 -0.098521 -0.185088 -0.420966 
-0.431274 0.5176422 0.1312701 0.1355659 
-0.439503 -0.070391 -0.165851 -0.394147 
----------------------------------------------
Generation: 56
0.0109206 -0.474925 -0.153578 -0.055198 
-0.297287 -0.463384 0.0792177 -0.013496 
-0.490237 0.2264626 0.5683951 -0.193877 

-0.118330 0.5548769 0.1386959 0.2305014 
-0.184831 0.0029940 -0.449753 0.1293808 
0.3223972 -0.252960 0.5238260 -0.528898 
-0.280694 0.4077813 -0.493541 0.3714408 

-0.479635 0.3272203 -0.109368 -0.435728 
-0.220137 -0.098521 -0.185088 -0.473008 
-0.431274 -0.457579 0.1312701 0.1355659 
-0.438039 -0.070391 -0.237734 -0.394147 
----------------------------------------------
0.0109206 -0.474925 -0.153578 -0.055198 
-0.297287 -0.463384 0.0792177 -0.013496 
-0.490237 0.2264626 0.5683951 -0.193877 

-0.118330 0.5548769 0.3507264 -0.327976 
-0.245485 0.2448731 -0.449753 0.1293808 
0.3223972 -0.252960 0.1605998 -0.519749 
-0.159820 0.4077813 -0.493541 -0.148748 

-0.479635 0.3272203 -0.109368 -0.435728 
-0.220137 -0.098521 -0.185088 -0.473008 
-0.431274 0.5176422 0.1312701 0.1355659 
-0.438039 -0.070391 -0.237734 -0.394147 
----------------------------------------------
Generation: 57
0.3887040 0.3111704 -0.209887 0.0508726 
-0.264219 -0.348595 0.5486722 -0.013496 
0.0161537 0.0046301 0.5683951 0.1839087 

0.0314746 -0.521326 0.3507264 -0.327976 
-0.184831 -0.285168 0.5266355 0.1293808 
0.3832904 0.3837339 -0.384197 -0.519749 
-0.159820 0.4077813 -0.087129 0.3714408 

-0.339884 0.3272203 -0.312508 0.2628335 
-0.220137 -0.098521 -0.185088 0.0165449 
-0.431274 0.5176422 0.1312701 0.1355659 
-0.394745 -0.070391 -0.165851 0.1564325 
----------------------------------------------
-0.416863 -0.474925 -0.153578 0.5692998 
-0.264219 -0.348595 0.0792177 -0.331174 
0.0161537 0.2264626 0.4105900 0.2138437 

-0.462653 0.1507798 0.3507264 -0.327976 
-0.184831 -0.395089 -0.449753 -0.520043 
-0.246125 0.3837339 0.5238260 -0.528898 
-0.280694 0.4077813 -0.087129 0.2198474 

0.1756036 0.3272203 -0.109368 -0.471784 
-0.220137 0.0815488 -0.290155 -0.420966 
-0.431274 0.5176422 0.1312701 -0.050548 
-0.438039 -0.070391 -0.165851 0.2771046 
----------------------------------------------
Generation: 58
0.3887040 -0.474925 -0.209887 0.0508726 
-0.264219 -0.348595 0.5486722 -0.013496 
0.0161537 0.0046301 0.5683951 0.1839087 

0.0314746 -0.521326 0.3507264 -0.327976 
-0.184831 -0.285168 0.5266355 0.1293808 
0.3832904 0.3837339 -0.384197 -0.519749 
-0.159820 0.4077813 -0.087129 0.3714408 

-0.339884 0.3272203 -0.312508 0.2628335 
-0.220137 -0.098521 -0.185088 0.0165449 
-0.431274 0.5176422 0.1312701 0.1355659 
-0.394745 -0.070391 -0.165851 0.1564325 
----------------------------------------------
-0.223577 0.3844466 -0.102944 0.1073941 
-0.264219 -0.250347 0.0792177 -0.013496 
-0.490237 0.2264626 0.4105900 0.2138437 

-0.462653 -0.031147 0.3507264 0.2061963 
-0.184831 -0.395089 -0.449753 -0.520043 
-0.246125 -0.252960 0.5238260 -0.528898 
-0.280694 0.4077813 -0.493541 0.3335434 

-0.390646 0.3272203 0.3239631 -0.471784 
-0.220137 0.0815488 -0.185088 -0.420966 
-0.431274 0.5176422 0.0121538 -0.081508 
0.4371695 0.4016319 0.0469505 0.2771046 
----------------------------------------------
Generation: 59
0.0109206 0.3844466 -0.102944 0.1073941 
-0.297287 -0.463384 0.0792177 -0.013496 
-0.490237 0.2264626 0.5683951 0.1839087 

-0.462653 -0.031147 0.3507264 0.2061963 
-0.184831 0.2448731 -0.449753 -0.520043 
0.3832904 -0.344271 0.5238260 -0.528898 
-0.280694 -0.387722 -0.087129 -0.180159 

-0.390646 0.3272203 -0.109368 -0.173181 
0.4357152 0.0815488 -0.185088 -0.473008 
-0.431274 -0.457579 0.1312701 -0.280434 
-0.439503 -0.070391 -0.165851 -0.394147 
----------------------------------------------
0.0109206 -0.474925 -0.209887 0.0508726 
-0.264219 0.5350214 0.5486722 -0.331174 
0.0161537 0.0046301 0.5683951 0.2138437 

0.0064960 0.1507798 0.1386959 0.2305014 
-0.184831 0.2448731 -0.449753 0.1293808 
0.3223972 -0.252960 0.5238260 -0.528898 
0.4425997 0.4077813 -0.087129 0.3714408 

-0.390646 0.3272203 0.5588947 -0.435728 
-0.220137 -0.098521 -0.185088 -0.420966 
-0.236781 0.5176422 0.1312701 0.1355659 
-0.438039 -0.070391 -0.165851 -0.394147 
----------------------------------------------
Generation: 60
0.0109206 0.3844466 -0.102944 0.1073941 
-0.297287 -0.463384 0.0792177 -0.013496 
-0.490237 0.2264626 0.5683951 0.1839087 

-0.462653 -0.031147 0.3507264 0.2061963 
-0.184831 0.2448731 -0.449753 -0.520043 
0.3832904 -0.344271 0.5238260 -0.528898 
-0.280694 -0.387722 -0.087129 -0.180159 

-0.390646 0.3272203 -0.109368 -0.173181 
0.4357152 0.0815488 -0.185088 -0.473008 
-0.431274 -0.457579 0.1312701 -0.280434 
-0.439503 -0.070391 -0.165851 -0.394147 
----------------------------------------------
-0.513142 -0.474925 -0.102944 0.5692998 
0.2858960 -0.463384 0.2170093 -0.013496 
-0.164430 0.0046301 0.5683951 0.2138437 

0.0314746 0.1507798 0.3507264 0.2305014 
-0.184831 0.2448731 -0.449753 0.1293808 
0.3223972 -0.252960 0.5238260 -0.519749 
-0.159820 0.4077813 -0.493541 0.3714408 

-0.479635 0.3272203 -0.109368 -0.471784 
-0.220137 -0.098521 -0.185088 -0.420966 
-0.431274 0.5176422 0.1312701 0.1355659 
-0.341345 -0.070391 -0.165851 -0.025170 
----------------------------------------------
Generation: 61
0.0109206 0.3844466 -0.102944 0.1073941 
-0.297287 -0.463384 0.0792177 -0.013496 
0.0161537 0.2264626 0.4105900 0.1839087 

0.0314746 0.1507798 0.3507264 0.2061963 
-0.184831 0.2448731 -0.449753 -0.520043 
0.3832904 -0.344271 0.5238260 -0.528898 
-0.280694 -0.387722 -0.087129 -0.180159 

-0.390646 0.3272203 -0.109368 -0.173181 
0.4357152 0.0815488 -0.185088 -0.473008 
-0.431274 -0.457579 0.1312701 -0.280434 
-0.439503 -0.070391 -0.165851 -0.394147 
----------------------------------------------
0.0109206 -0.474925 -0.153578 -0.055198 
-0.297287 -0.463384 0.5486722 -0.331174 
0.0161537 0.0046301 0.5683951 0.2138437 

-0.462653 -0.521326 -0.236677 0.4165218 
-0.184831 0.2448731 -0.449753 0.4352881 
-0.246125 0.3837339 -0.384197 -0.519749 
-0.159820 0.4077813 -0.493541 0.3714408 

-0.479635 0.3833512 -0.109368 -0.435728 
0.4357152 0.0815488 -0.185088 -0.420966 
-0.431274 0.5176422 0.3939073 0.1355659 
-0.399260 -0.070391 -0.165851 -0.394147 
----------------------------------------------
Generation: 62
0.0109206 0.3844466 -0.102944 0.1073941 
-0.297287 -0.463384 0.0792177 -0.013496 
0.0161537 0.2264626 0.4105900 0.2138437 

0.0314746 0.1507798 0.3507264 0.2061963 
-0.184831 0.2448731 -0.449753 -0.520043 
0.3832904 -0.344271 0.5238260 -0.528898 
-0.280694 -0.387722 -0.087129 -0.180159 

-0.390646 0.3272203 -0.109368 -0.173181 
0.4357152 0.0815488 -0.185088 -0.473008 
-0.431274 -0.457579 0.1312701 -0.280434 
-0.439503 -0.070391 -0.165851 -0.394147 
----------------------------------------------
-0.416863 0.3844466 0.2230817 -0.321233 
-0.264219 0.5350214 0.5486722 -0.013496 
0.0161537 0.2264626 0.5683951 0.2138437 

0.0064960 -0.521326 0.1386959 0.2305014 
-0.184831 -0.438957 -0.449753 -0.520043 
0.3832904 0.3837339 -0.384197 -0.519749 
-0.159820 0.4077813 0.3536331 0.3714408 

-0.390646 0.3272203 -0.109368 -0.471784 
0.4357152 0.0815488 0.3769734 -0.371058 
-0.236781 0.5176422 0.1312701 0.1355659 
-0.438039 -0.070391 -0.165851 0.2771046 
----------------------------------------------
Generation: 63
0.0109206 -0.474925 -0.209887 0.0508726 
-0.264219 -0.348595 0.5486722 -0.013496 
0.0161537 -0.195199 0.4105900 0.1839087 

-0.462653 -0.031147 0.3507264 0.2305014 
-0.184831 -0.285168 0.5266355 0.1293808 
-0.246125 0.3837339 -0.384197 -0.519749 
-0.159820 0.4077813 0.3536331 0.3714408 

-0.390646 0.3272203 -0.109368 -0.471784 
0.4357152 0.0815488 0.3769734 -0.371058 
-0.236781 0.5176422 0.1312701 0.1355659 
-0.438039 -0.517103 -0.165851 -0.394147 
----------------------------------------------
0.0109206 -0.474925 -0.153578 -0.055198 
-0.297287 -0.463384 0.2170093 -0.013496 
0.0161537 0.2264626 0.4105900 0.2138437 

0.0314746 0.1507798 0.3507264 -0.327976 
-0.184831 0.2448731 -0.449753 0.4352881 
-0.246125 0.3837339 -0.384197 -0.519749 
-0.159820 0.4077813 0.3536331 0.3335434 

-0.390646 0.3272203 0.5588947 -0.471784 
-0.220137 -0.098521 -0.185088 -0.329044 
-0.431274 0.5176422 0.1312701 0.1355659 
-0.341345 -0.070391 -0.165851 -0.394147 
----------------------------------------------
Generation: 64
-0.072554 0.3844466 -0.338206 -0.321233 
-0.264219 0.5350214 0.5486722 -0.013496 
0.0161537 0.2264626 -0.301597 0.2138437 

-0.006805 0.1507798 0.3507264 -0.327976 
-0.184831 -0.395089 -0.449753 -0.520043 
-0.217055 0.3837339 0.5238260 -0.528898 
-0.280694 -0.387722 -0.087129 -0.180159 

-0.390646 0.3272203 -0.109368 -0.173181 
0.4357152 0.0815488 -0.185088 -0.473008 
-0.431274 -0.457579 0.1312701 -0.280434 
-0.439503 -0.070391 -0.165851 -0.394147 
----------------------------------------------
0.0109206 -0.474925 -0.102944 0.1073941 
-0.297287 -0.463384 0.5486722 -0.013496 
-0.490237 0.2264626 0.5683951 -0.193877 

0.0314746 0.1507798 0.1386959 -0.327976 
-0.184831 0.2448731 -0.449753 -0.520043 
-0.246125 0.3837339 -0.384197 -0.519749 
-0.159820 0.4077813 0.3536331 0.3714408 

-0.390646 0.3272203 -0.109368 -0.471784 
0.4357152 0.0815488 0.3769734 -0.371058 
-0.236781 0.5176422 0.1312701 0.1355659 
-0.438039 -0.517103 -0.165851 -0.394147 
----------------------------------------------
Generation: 65
0.0109206 -0.474925 -0.209887 0.0985646 
-0.264219 0.5350214 0.5486722 -0.013496 
0.0161537 0.2264626 -0.301597 0.2138437 

-0.006805 0.1507798 0.3507264 -0.327976 
-0.184831 -0.395089 -0.449753 -0.520043 
-0.217055 0.3837339 0.5238260 -0.528898 
-0.280694 -0.387722 -0.087129 -0.180159 

-0.390646 0.3272203 -0.109368 -0.173181 
0.4357152 0.0815488 -0.185088 -0.473008 
-0.431274 -0.457579 0.1312701 -0.081508 
-0.439503 -0.070391 -0.165851 -0.394147 
----------------------------------------------
0.0109206 -0.474925 -0.209887 0.0508726 
-0.264219 0.5350214 0.5486722 -0.013496 
0.0161537 0.2264626 0.5683951 0.2138437 

-0.462653 -0.521326 0.3507264 -0.327976 
-0.184831 0.2448731 -0.449753 0.4567340 
0.1629537 0.3837339 0.1605998 -0.519749 
-0.159820 0.4077813 0.3536331 0.3714408 

-0.390646 0.3272203 -0.109368 -0.435728 
-0.111270 -0.098521 -0.290155 -0.420966 
-0.431274 0.5176422 -0.440114 0.1355659 
-0.341345 -0.070391 -0.165851 -0.394147 
----------------------------------------------
Generation: 66
0.0109206 -0.474925 -0.209887 0.0985646 
-0.264219 -0.348595 0.5486722 -0.013496 
-0.164430 0.0046301 0.5683951 0.1839087 

0.0314746 -0.521326 0.3507264 -0.327976 
-0.184831 0.2448731 -0.449753 -0.520043 
-0.217055 0.3837339 0.5238260 -0.528898 
-0.280694 -0.387722 -0.087129 -0.180159 

-0.390646 0.3272203 -0.109368 -0.173181 
0.4357152 0.0815488 -0.185088 -0.473008 
-0.431274 -0.457579 0.1312701 -0.081508 
-0.439503 -0.070391 -0.165851 -0.394147 
----------------------------------------------
-0.416863 0.3844466 0.2230817 -0.321233 
-0.264219 0.5350214 0.5486722 -0.013496 
-0.490237 0.2264626 0.4105900 0.2138437 

-0.006805 0.1507798 0.3507264 -0.327976 
-0.184831 -0.395089 -0.449753 0.1293808 
-0.246125 0.3837339 -0.384197 -0.519749 
-0.159820 0.4077813 -0.493541 0.3714408 

-0.479635 0.3833512 -0.109368 -0.435728 
0.4357152 0.0815488 0.3769734 -0.420966 
-0.236781 0.5176422 0.1312701 0.1355659 
-0.438039 -0.070391 -0.165851 0.2771046 
----------------------------------------------
Generation: 67
0.0109206 -0.474925 -0.209887 0.0508726 
-0.264219 -0.348595 -0.420412 -0.013496 
0.0161537 0.0046301 0.4105900 0.2138437 

-0.462653 0.1507798 0.5448112 -0.327976 
-0.184831 0.2448731 -0.449753 0.1293808 
0.3832904 0.3837339 -0.384197 0.2049248 
0.4425997 0.4077813 -0.493541 0.3714408 

-0.479635 0.3272203 -0.312508 -0.471784 
-0.220137 -0.098521 -0.185088 -0.420966 
-0.431274 0.5176422 -0.440114 0.1355659 
-0.341345 -0.070391 -0.165851 -0.394147 
----------------------------------------------
0.0109206 -0.474925 -0.209887 -0.321233 
-0.264219 0.5350214 0.5486722 -0.013496 
0.0161537 0.2264626 0.5683951 0.2138437 

-0.462653 -0.521326 0.1386959 0.4165218 
-0.184831 0.2448731 -0.449753 0.4352881 
-0.246125 0.3837339 -0.384197 -0.519749 
-0.159820 0.3714628 -0.493541 -0.180159 

-0.390646 0.3272203 -0.109368 -0.471784 
0.4357152 0.0815488 0.3769734 -0.371058 
-0.236781 0.5176422 0.1312701 0.1355659 
-0.438039 0.5155961 -0.165851 -0.394147 
----------------------------------------------
Generation: 68
0.0109206 -0.474925 -0.209887 -0.321233 
-0.264219 0.5350214 0.5486722 -0.013496 
0.0161537 0.2264626 0.5683951 0.2138437 

-0.462653 -0.521326 0.1386959 0.4165218 
-0.184831 0.2448731 -0.449753 0.4352881 
-0.246125 0.3837339 -0.384197 -0.519749 
-0.159820 0.3714628 -0.493541 -0.180159 

-0.390646 0.3272203 -0.109368 -0.471784 
0.4357152 0.0815488 0.3769734 -0.371058 
-0.236781 0.5176422 0.1312701 0.1355659 
0.1206737 -0.280903 -0.165851 -0.394147 
----------------------------------------------
-0.072554 0.3844466 -0.153578 -0.055198 
-0.297287 -0.463384 0.0792177 -0.331174 
0.0161537 0.0046301 0.4105900 0.2138437 

0.0314746 0.1507798 0.1386959 -0.327976 
-0.184831 0.2448731 0.5266355 0.5752541 
0.3832904 0.3837339 -0.384197 -0.519749 
0.4425997 0.3714628 -0.493541 0.3714408 

0.4765094 0.3272203 -0.109368 -0.435728 
-0.111270 -0.098521 -0.290155 -0.420966 
-0.431274 0.5176422 -0.440114 0.1355659 
-0.341345 -0.070391 -0.165851 -0.394147 
----------------------------------------------
Generation: 69
-0.416863 -0.474925 -0.209887 -0.321233 
-0.264219 0.5350214 0.5486722 -0.013496 
-0.490237 0.2264626 0.4105900 0.2138437 

0.0314746 0.1507798 0.1386959 -0.327976 
-0.184831 0.2448731 -0.449753 0.4352881 
-0.246125 0.3837339 -0.384197 -0.519749 
-0.159820 0.4077813 0.3536331 0.3335434 

-0.390646 0.3272203 -0.312508 0.2628335 
-0.220137 -0.098521 -0.290155 -0.420966 
-0.431274 0.5176422 0.1312701 -0.081508 
-0.438039 -0.070391 -0.165851 0.2771046 
----------------------------------------------
0.3887040 -0.474925 -0.153578 -0.055198 
-0.264219 -0.348595 0.4465447 -0.013496 
0.0161537 0.2264626 0.4105900 0.2138437 

-0.462653 -0.521326 0.1386959 -0.327976 
-0.184831 -0.395089 -0.449753 0.1293808 
0.3223972 -0.002775 0.3551385 -0.528898 
-0.159820 0.4077813 0.3185370 0.3714408 

-0.390646 0.3272203 -0.312508 0.2628335 
-0.220137 -0.098521 -0.185088 -0.473008 
-0.329999 0.5176422 0.1312701 -0.280434 
-0.439503 -0.070391 -0.165851 -0.126012 
----------------------------------------------
Generation: 70
0.3887040 -0.474925 -0.105334 0.0508726 
-0.264219 -0.348595 0.5486722 -0.013496 
-0.164430 0.0046301 0.4105900 0.2138437 

0.0314746 0.1507798 0.1386959 -0.327976 
-0.184831 0.2448731 -0.449753 0.1293808 
-0.246125 0.3837339 0.1605998 -0.519749 
-0.159820 0.4077813 0.3185370 0.3714408 

-0.390646 0.3272203 -0.109368 -0.471784 
-0.220137 -0.098521 -0.290155 -0.420966 
-0.431274 -0.342700 0.2417522 0.1355659 
-0.438039 -0.070391 -0.165851 -0.126012 
----------------------------------------------
0.0109206 -0.474925 -0.209887 0.0508726 
-0.264219 0.5350214 0.5486722 -0.013496 
0.0161537 0.2264626 0.5683951 0.1839087 

0.0064960 -0.031147 0.3507264 0.2061963 
-0.184831 -0.395089 0.0215727 0.4352881 
-0.246125 0.3837339 0.5238260 -0.528898 
-0.280694 0.3714628 0.3536331 -0.180159 

-0.390646 0.3272203 -0.109368 -0.471784 
0.4357152 0.0815488 0.3769734 -0.420966 
-0.431274 0.5176422 0.1312701 0.1355659 
-0.438039 -0.070391 -0.165851 -0.394147 
----------------------------------------------
Generation: 71
0.3887040 0.2290157 -0.105334 0.0508726 
-0.264219 -0.348595 0.5486722 -0.013496 
-0.164430 0.0046301 0.4105900 0.1839087 

0.0314746 0.1507798 0.1386959 -0.327976 
-0.184831 0.2448731 -0.449753 0.1293808 
-0.246125 0.3837339 0.1605998 -0.519749 
-0.159820 0.4077813 0.3185370 0.3714408 

-0.390646 0.3272203 -0.109368 -0.471784 
-0.220137 -0.098521 -0.290155 -0.420966 
-0.431274 -0.342700 0.2417522 0.1355659 
-0.438039 -0.070391 -0.165851 -0.126012 
----------------------------------------------
0.3887040 -0.474925 -0.153578 -0.055198 
-0.264219 -0.348595 0.4465447 -0.013496 
0.0161537 0.2264626 0.4105900 0.2138437 

-0.462653 -0.521326 0.1386959 -0.327976 
-0.184831 -0.395089 -0.449753 0.4352881 
0.3832904 0.3837339 -0.384197 -0.519749 
-0.159820 0.4077813 -0.493541 0.3714408 

-0.390646 0.3272203 -0.109368 -0.471784 
-0.220137 -0.098521 -0.185088 -0.473008 
-0.329999 0.5176422 0.1312701 -0.280434 
-0.439503 -0.070391 -0.165851 -0.126012 
----------------------------------------------
Generation: 72
0.0109206 -0.474925 -0.153578 0.5692998 
-0.264219 -0.250347 0.0792177 0.0050802 
-0.490237 0.2264626 0.4105900 0.2138437 

0.0064960 0.1507798 0.1386959 -0.327976 
-0.184831 0.2448731 -0.449753 0.4352881 
-0.246125 0.3837339 0.5238260 -0.528898 
-0.280694 -0.387722 0.3536331 0.3335434 

-0.390646 0.3272203 -0.109368 -0.471784 
-0.220137 -0.098521 -0.290155 -0.420966 
-0.431274 -0.342700 0.1312701 0.1355659 
-0.438039 -0.070391 -0.165851 -0.394147 
----------------------------------------------
-0.416863 -0.474925 -0.209887 -0.321233 
-0.264219 -0.348595 0.5486722 -0.013496 
0.0161537 0.2264626 0.5683951 0.2138437 

0.0064960 -0.031147 0.3507264 -0.327976 
-0.184831 0.2448731 -0.449753 0.1293808 
-0.246125 0.3837339 0.1605998 -0.519749 
-0.159820 0.4077813 -0.493541 0.3714408 

0.4765094 0.3272203 -0.318299 -0.262969 
-0.220137 0.0815488 -0.290155 -0.420966 
-0.431274 0.5176422 -0.440114 0.1355659 
-0.438039 -0.070391 -0.165851 0.2771046 
----------------------------------------------
Generation: 73
0.0109206 -0.474925 -0.209887 -0.321233 
-0.264219 0.5350214 0.5486722 -0.013496 
-0.490237 0.2264626 0.5683951 0.2138437 

-0.462653 -0.521326 0.1386959 0.4165218 
-0.184831 0.2448731 -0.449753 0.4352881 
-0.246125 0.3837339 -0.384197 -0.519749 
-0.159820 0.3714628 -0.493541 -0.180159 

-0.390646 0.3272203 -0.109368 -0.471784 
0.4357152 0.0815488 0.3769734 -0.371058 
-0.236781 0.5176422 0.1312701 0.1355659 
0.1206737 -0.280903 -0.165851 -0.394147 
----------------------------------------------
0.0109206 -0.474925 -0.153578 -0.055198 
-0.264219 -0.348595 0.5486722 -0.013496 
-0.164430 0.0046301 0.5683951 0.2138437 

-0.462653 0.1507798 0.3507264 0.2305014 
-0.184831 0.2448731 -0.449753 0.1293808 
-0.246125 0.3837339 0.1605998 -0.519749 
-0.159820 0.4077813 0.3185370 0.3714408 

-0.390646 0.3272203 -0.109368 -0.471784 
0.3196576 -0.098521 -0.185088 -0.473008 
-0.329999 0.5176422 0.1312701 -0.280434 
-0.439503 -0.070391 -0.237734 -0.394147 
----------------------------------------------
Generation: 74
0.0109206 -0.474925 -0.209887 -0.321233 
-0.264219 0.5350214 0.5486722 -0.013496 
-0.490237 0.2264626 0.5683951 0.2138437 

-0.462653 -0.521326 0.1386959 0.4165218 
-0.184831 0.2448731 -0.449753 0.4352881 
-0.246125 0.3837339 -0.384197 -0.519749 
-0.159820 0.3714628 -0.493541 -0.180159 

-0.390646 0.3272203 -0.109368 -0.471784 
0.4357152 0.0815488 0.3769734 -0.329044 
-0.431274 0.5176422 0.1312701 0.1355659 
0.1206737 -0.280903 -0.165851 -0.394147 
----------------------------------------------
0.3887040 -0.474925 -0.105334 0.0508726 
-0.264219 -0.463384 0.5486722 -0.013496 
-0.490237 0.2264626 0.5683951 0.1839087 

0.0314746 0.1507798 0.1386959 -0.327976 
-0.184831 -0.395089 -0.449753 0.1293808 
0.3223972 -0.002775 0.3551385 -0.519749 
-0.159820 0.4077813 -0.493541 0.3335434 

-0.390646 0.3272203 -0.109368 -0.471784 
-0.220137 -0.098521 -0.185088 -0.420966 
-0.236781 0.5176422 0.1312701 0.1355659 
-0.438039 -0.070391 -0.165851 -0.126012 
----------------------------------------------
Generation: 75
0.0109206 -0.474925 -0.153578 -0.321233 
-0.264219 0.5350214 0.5486722 -0.013496 
-0.490237 0.2264626 0.5683951 0.2138437 

-0.006805 0.1507798 0.3507264 -0.327976 
-0.184831 0.2448731 -0.449753 -0.520043 
-0.217055 0.3837339 0.5238260 -0.528898 
-0.159820 0.4077813 0.3185370 0.3714408 

-0.339884 0.3272203 -0.109368 -0.471784 
-0.220137 -0.536488 -0.255876 -0.420966 
-0.431274 0.5176422 0.5441155 0.1355659 
-0.438039 -0.070391 -0.165851 -0.394147 
----------------------------------------------
0.0109206 -0.474925 -0.209887 0.0508726 
-0.264219 -0.348595 0.0792177 -0.013496 
-0.490237 0.2264626 0.4105900 0.1839087 

0.0314746 0.1507798 0.1386959 0.0959510 
-0.184831 -0.395089 -0.449753 0.4352881 
-0.246125 0.3837339 0.5238260 -0.528898 
-0.280694 -0.387722 0.3536331 0.3335434 

-0.390646 0.3272203 -0.109368 -0.471784 
-0.220137 -0.098521 -0.290155 -0.420966 
-0.431274 -0.342700 0.1312701 -0.280434 
-0.341345 -0.137886 -0.165851 -0.394147 
----------------------------------------------
Generation: 76
0.0109206 -0.474925 -0.209887 0.2794095 
-0.297287 -0.463384 0.5486722 0.1532850 
-0.490237 0.2264626 0.4105900 0.2138437 

0.0064960 0.1507798 0.1386959 -0.327976 
0.0136136 0.2448731 -0.449753 0.1293808 
-0.246125 0.3837339 0.1605998 -0.519749 
0.4425997 0.3714628 0.2251669 0.3714408 

-0.390646 0.3272203 -0.109368 0.2628335 
-0.220137 -0.098521 -0.185088 -0.420966 
-0.329999 0.5176422 0.1312701 -0.280434 
-0.439503 -0.070391 -0.165851 -0.394147 
----------------------------------------------
0.0109206 -0.474925 -0.153578 -0.055198 
-0.250922 -0.030158 0.0792177 -0.013496 
-0.164430 0.0046301 0.5683951 0.2138437 

-0.462653 0.1507798 0.1386959 -0.327976 
-0.499455 0.2448731 -0.449753 0.4352881 
-0.246125 -0.252960 -0.384197 -0.519749 
0.4425997 0.3714628 -0.493541 0.3714408 

0.4765094 0.3272203 -0.109368 -0.435728 
-0.107239 -0.098521 -0.185088 -0.329044 
-0.431274 0.5176422 0.4406238 0.1355659 
-0.438039 -0.070391 -0.165851 -0.394147 
----------------------------------------------
Generation: 77
0.0109206 -0.474925 -0.209887 0.2794095 
-0.297287 -0.463384 0.5486722 0.1532850 
0.0161537 -0.195199 0.5683951 0.2138437 

-0.006805 -0.521326 0.1386959 0.2061963 
-0.184831 0.2448731 -0.449753 -0.520043 
0.3832904 -0.344271 0.1605998 -0.519749 
-0.159820 0.4077813 -0.493541 0.3335434 

0.4765094 0.3272203 -0.318299 -0.262969 
-0.220137 0.0815488 -0.185088 -0.576266 
-0.329999 0.5176422 0.1312701 -0.081508 
-0.439503 -0.070391 -0.237734 -0.394147 
----------------------------------------------
0.0109206 -0.474925 -0.099082 -0.321233 
-0.264219 0.5350214 0.5486722 -0.013496 
-0.490237 0.2264626 0.5683951 0.2138437 

-0.462653 -0.521326 0.1386959 0.4165218 
-0.184831 0.2448731 -0.449753 0.4352881 
-0.246125 0.3837339 0.1605998 -0.519749 
-0.159820 0.4077813 -0.371681 0.3714408 

-0.390646 0.3272203 -0.109368 -0.471784 
-0.220137 -0.098521 -0.185088 -0.473008 
0.1350469 0.5176422 -0.440114 0.1355659 
-0.341345 -0.070391 -0.165851 -0.394147 
----------------------------------------------
Generation: 78
0.0109206 -0.474925 -0.153578 -0.055198 
-0.250922 -0.030158 0.5486722 -0.013496 
0.0161537 0.2264626 0.4105900 0.1839087 

0.0314746 0.1507798 0.1386959 -0.327976 
-0.184831 0.3504003 -0.449753 0.1293808 
-0.246125 -0.073736 -0.384197 -0.519749 
0.4425997 0.3714628 -0.493541 -0.180159 

-0.390646 0.3272203 -0.109368 -0.471784 
0.4357152 -0.098521 -0.459421 -0.329044 
-0.329999 0.5176422 0.1312701 -0.280434 
-0.341345 -0.070391 -0.165851 -0.394147 
----------------------------------------------
0.0109206 -0.474925 -0.153578 0.5692998 
-0.264219 -0.348595 0.5486722 -0.013496 
-0.490237 0.2264626 0.5683951 -0.193877 

-0.006805 0.1507798 0.1386959 -0.327976 
-0.184831 0.2448731 -0.449753 0.1293808 
-0.246125 0.3837339 0.1605998 -0.519749 
-0.159820 0.4077813 0.3185370 0.5574561 

-0.390646 -0.091725 -0.109368 -0.471784 
-0.220137 -0.098521 -0.290155 -0.420966 
-0.431274 0.5176422 0.1312701 -0.081508 
-0.438039 -0.070391 -0.237734 -0.394147 
----------------------------------------------
Generation: 79
0.0109206 -0.474925 -0.153578 -0.055198 
-0.250922 -0.030158 0.5486722 -0.013496 
0.0161537 0.2264626 0.4105900 0.1839087 

0.0314746 0.1507798 0.1386959 0.0959510 
-0.184831 0.2448731 -0.449753 0.1293808 
-0.246125 0.3837339 -0.384197 -0.519749 
-0.159820 0.4077813 -0.458107 0.3714408 

-0.390646 0.3272203 -0.312508 0.2628335 
-0.220137 -0.098521 0.3769734 -0.420966 
-0.431274 0.5176422 0.1312701 -0.280434 
-0.341345 -0.070391 -0.165851 -0.394147 
----------------------------------------------
-0.072554 0.1484263 -0.153578 -0.055198 
-0.297287 -0.463384 0.0792177 -0.013496 
-0.401357 -0.195199 0.5683951 0.2138437 

-0.462653 -0.031147 0.3507264 -0.327976 
-0.184831 0.2448731 -0.449753 0.1293808 
-0.246125 -0.002775 0.1605998 -0.528898 
-0.159820 0.4077813 -0.493541 0.3714408 

-0.390646 0.3272203 -0.109368 -0.435728 
-0.220137 0.0815488 -0.290155 -0.420966 
-0.495642 0.5176422 -0.440114 0.1355659 
-0.341345 -0.070391 -0.165851 -0.394147 
----------------------------------------------
Generation: 80
0.0109206 -0.474925 -0.153578 -0.055198 
-0.250922 -0.030158 0.5486722 -0.013496 
0.0161537 0.2264626 0.5683951 0.2138437 

-0.462653 -0.031147 0.1386959 -0.327976 
-0.184831 0.2448731 -0.449753 0.1293808 
0.3223972 -0.252960 0.5238260 -0.519749 
0.4425997 0.3714628 0.3185370 0.5574561 

0.4765094 0.3272203 -0.312508 -0.471784 
-0.220137 -0.098521 0.3769734 -0.420966 
-0.431274 0.5176422 0.1312701 -0.280434 
-0.341345 -0.070391 -0.165851 -0.394147 
----------------------------------------------
0.0109206 -0.474925 -0.153578 -0.055198 
-0.250922 -0.030158 0.5486722 -0.013496 
0.0161537 0.2264626 0.4105900 0.1839087 

0.0314746 0.1507798 0.1386959 -0.327976 
-0.184831 0.2448731 -0.449753 0.4352881 
0.3832904 -0.344271 0.1605998 -0.519749 
-0.159820 0.4077813 -0.458107 0.3714408 

-0.390646 0.3272203 -0.312508 0.2628335 
-0.220137 -0.098521 0.3769734 -0.420966 
-0.431274 0.5176422 0.1312701 -0.280434 
-0.341345 -0.070391 -0.165851 -0.394147 
----------------------------------------------
Generation: 81
0.0109206 -0.474925 -0.153578 0.5692998 
-0.297287 -0.348595 0.5486722 -0.013496 
0.0161537 0.0046301 0.5683951 0.2138437 

0.0064960 0.1507798 0.3507264 -0.327976 
0.0136136 0.2448731 -0.449753 0.1293808 
-0.246125 -0.252960 -0.384197 -0.519749 
-0.159820 0.4077813 0.2251669 0.3714408 

-0.390646 0.3272203 -0.109368 -0.471784 
0.4357152 -0.098521 -0.185088 -0.329044 
-0.329999 0.5176422 0.1312701 -0.209844 
-0.439503 -0.070391 -0.165851 -0.394147 
----------------------------------------------
0.0109206 -0.474925 -0.153578 0.0508726 
-0.264219 -0.348595 0.5486722 -0.013496 
-0.190527 0.2264626 -0.301597 -0.508268 

-0.006805 0.1507798 0.3507264 -0.327976 
-0.184831 0.2448731 -0.449753 0.4352881 
0.3223972 -0.252960 0.5238260 -0.519749 
0.4425997 0.3714628 0.3185370 0.5574561 

0.4765094 -0.091725 -0.109368 0.2628335 
-0.220137 -0.098521 -0.185088 -0.420966 
-0.236781 0.5176422 0.1312701 0.1355659 
-0.438039 -0.070391 -0.165851 -0.394147 
----------------------------------------------
Generation: 82
0.0109206 -0.474925 -0.153578 0.5692998 
-0.264219 -0.250347 0.5486722 -0.013496 
-0.490237 0.2264626 0.5683951 0.1839087 

0.0314746 0.1507798 0.1386959 -0.327976 
-0.184831 -0.395089 -0.449753 0.1293808 
0.2314311 0.0746428 0.5238260 -0.519749 
-0.159820 0.4077813 -0.493541 0.3714408 

-0.390646 0.3272203 -0.109368 -0.435728 
-0.220137 0.0815488 -0.290155 -0.420966 
-0.495642 0.5176422 -0.440114 0.1355659 
0.0261692 -0.070391 -0.165851 -0.394147 
----------------------------------------------
0.0109206 -0.474925 -0.153578 0.5692998 
-0.297287 -0.348595 0.5486722 -0.013496 
0.0161537 0.0046301 0.5683951 0.2138437 

0.0064960 0.1507798 0.3507264 -0.327976 
0.0136136 0.2448731 -0.449753 0.1293808 
-0.246125 -0.252960 -0.384197 -0.519749 
-0.159820 0.4077813 0.2251669 0.3714408 

-0.390646 0.3272203 -0.109368 -0.471784 
0.4357152 -0.098521 -0.185088 -0.329044 
-0.329999 0.5176422 0.1312701 -0.209844 
-0.439503 -0.070391 -0.165851 -0.394147 
----------------------------------------------
Generation: 83
-0.072554 -0.188895 -0.153578 -0.321233 
-0.297287 -0.348595 0.5486722 0.1532850 
-0.490237 0.2264626 0.5683951 -0.193877 

-0.006805 0.1507798 0.3507264 0.2305014 
-0.184831 0.3504003 -0.449753 0.1293808 
-0.246125 -0.073736 -0.384197 -0.519749 
0.4425997 0.3714628 -0.493541 -0.180159 

-0.390646 0.3272203 -0.109368 -0.435728 
0.2119294 -0.098521 -0.185088 -0.576266 
-0.431274 -0.535039 0.1312701 0.1355659 
-0.438039 -0.070391 -0.165851 -0.394147 
----------------------------------------------
0.0109206 -0.474925 -0.153578 -0.321233 
-0.264219 0.5350214 0.5486722 -0.013496 
0.0161537 0.2264626 -0.301597 0.1839087 

0.0314746 0.1507798 0.1386959 -0.071412 
-0.184831 0.2448731 -0.449753 0.1293808 
0.3223972 -0.252960 0.5238260 -0.528898 
-0.280694 -0.387722 -0.087129 0.3714408 

-0.390646 -0.091725 -0.109368 -0.471784 
-0.220137 -0.098521 -0.185088 -0.473008 
-0.329999 0.5176422 0.1312701 0.1355659 
-0.439503 -0.070391 -0.237734 -0.394147 
----------------------------------------------
Generation: 84
0.0109206 -0.474925 -0.209887 0.0508726 
-0.297287 -0.348595 0.5486722 0.2487929 
0.0161537 0.0046301 0.5683951 -0.193877 

-0.006805 0.1507798 0.3507264 0.2305014 
-0.184831 0.2448731 -0.449753 -0.520043 
0.3832904 -0.344271 0.1605998 -0.519749 
0.4425997 0.4077813 0.3185370 0.5574561 

-0.390646 -0.091725 -0.109368 0.2628335 
-0.107239 -0.098521 -0.185088 -0.576266 
-0.431274 0.5176422 -0.440114 0.1355659 
-0.439503 -0.070391 -0.165851 -0.394147 
----------------------------------------------
0.0109206 -0.474925 -0.153578 -0.321233 
-0.264219 -0.348595 0.5486722 -0.013496 
-0.164430 0.0046301 0.4105900 0.1839087 

0.0314746 -0.031147 0.3507264 0.0959510 
0.0136136 0.2448731 -0.449753 0.1293808 
-0.246125 -0.252960 -0.384197 -0.528898 
-0.280694 -0.387722 -0.087129 0.5574561 

0.4765094 0.3272203 -0.312508 0.2628335 
-0.220137 -0.098521 -0.290155 -0.420966 
-0.431274 0.5176422 -0.440114 0.1355659 
-0.439503 -0.070391 -0.165851 -0.394147 
----------------------------------------------
Generation: 85
-0.072554 -0.188895 -0.153578 -0.321233 
-0.297287 -0.348595 0.5486722 0.1532850 
-0.490237 0.2264626 0.5683951 -0.193877 

-0.006805 0.1507798 0.3507264 0.2305014 
-0.184831 0.3504003 -0.449753 0.1293808 
-0.246125 -0.002775 0.1605998 -0.528898 
-0.159820 0.3714628 -0.493541 0.3714408 

-0.390646 0.3272203 -0.312508 0.2628335 
0.2119294 -0.098521 -0.185088 -0.576266 
-0.431274 -0.535039 0.1312701 0.1355659 
-0.438039 -0.070391 -0.165851 -0.394147 
----------------------------------------------
0.0109206 -0.474925 -0.153578 0.5692998 
-0.297287 0.5350214 0.5486722 -0.013496 
0.0161537 0.2264626 0.5683951 0.2138437 

0.0064960 0.1507798 0.3507264 -0.327976 
-0.184831 -0.438957 -0.449753 -0.520043 
0.3223972 -0.002775 0.4096728 -0.519749 
0.4425997 0.4077813 -0.493541 0.5096409 

-0.390646 -0.367356 -0.312508 -0.435728 
0.3045842 -0.174727 -0.185088 -0.329044 
-0.086282 0.5176422 0.1312701 0.1355659 
-0.438039 -0.070391 -0.165851 -0.394147 
----------------------------------------------
Generation: 86
0.0109206 -0.474925 -0.209887 -0.321233 
-0.264219 0.5350214 -0.420412 -0.013496 
0.0161537 -0.195199 0.2044023 0.2138437 

-0.006805 -0.521326 0.1386959 0.0959510 
-0.184831 0.2448731 -0.449753 0.1293808 
-0.246125 0.3837339 -0.384197 -0.519749 
-0.159820 0.4077813 0.2251669 0.3714408 

-0.390646 0.3272203 -0.109368 -0.262969 
-0.220137 -0.098521 0.3769734 -0.420966 
-0.431274 0.5176422 0.1312701 -0.280434 
-0.341345 -0.070391 -0.237734 -0.394147 
----------------------------------------------
-0.072554 -0.474925 -0.459936 -0.321233 
-0.264219 0.5350214 0.5486722 -0.013496 
0.0161537 0.2264626 0.5683951 0.2138437 

-0.462653 0.1507798 0.1386959 -0.327976 
-0.184831 0.2448731 -0.449753 0.1293808 
0.2314311 0.0746428 0.4096728 -0.519749 
0.4425997 0.3714628 -0.087129 -0.180159 

-0.390646 0.3272203 -0.318299 -0.471784 
-0.220137 0.0815488 -0.185088 -0.576266 
-0.329999 0.5176422 -0.440114 0.1355659 
-0.439503 -0.070391 -0.165851 -0.394147 
----------------------------------------------
Generation: 87
0.0109206 0.5605966 -0.153578 -0.321233 
-0.264219 0.5350214 0.5486722 -0.013496 
0.0161537 0.2264626 0.5683951 0.2138437 

-0.462653 0.1507798 0.1386959 -0.071412 
-0.184831 0.2448731 -0.449753 0.1293808 
0.3223972 -0.252960 0.5238260 -0.519749 
0.4425997 0.4077813 -0.458107 0.3714408 

-0.390646 -0.091725 -0.318299 -0.262969 
-0.220137 0.0815488 -0.185088 -0.576266 
-0.329999 0.5176422 0.1312701 0.1355659 
-0.439503 -0.070391 -0.237734 -0.394147 
----------------------------------------------
0.0109206 -0.474925 -0.153578 -0.321233 
-0.297287 -0.345666 -0.420412 -0.013496 
-0.401357 -0.195199 0.5683951 0.2138437 

-0.462653 -0.031147 0.1386959 -0.327976 
-0.184831 0.2448731 -0.449753 0.1293808 
-0.217055 0.3837339 0.5238260 -0.519749 
0.4425997 0.3714628 0.3185370 0.5574561 

0.4765094 0.3272203 -0.109368 0.2628335 
-0.220137 -0.098521 -0.290155 -0.420966 
-0.431274 -0.342700 0.1312701 0.1355659 
-0.439503 -0.070391 -0.237734 -0.394147 
----------------------------------------------
Generation: 88
0.0109206 -0.474925 -0.153578 0.5692998 
-0.264219 -0.250347 0.5486722 -0.013496 
0.0161537 0.2264626 0.5683951 0.2138437 

-0.462653 -0.031147 0.1386959 -0.327976 
-0.184831 0.2448731 -0.449753 0.1293808 
0.3832904 -0.344271 0.1605998 -0.528898 
-0.280694 -0.387722 -0.087129 0.3335434 

-0.390646 0.3272203 -0.109368 -0.471784 
-0.220137 -0.098521 -0.290155 -0.420966 
-0.431274 -0.535039 0.1312701 -0.206072 
0.0261692 -0.070391 -0.165851 -0.394147 
----------------------------------------------
0.0109206 -0.474925 -0.153578 0.5692998 
-0.264219 0.5350214 0.5486722 0.1532850 
0.0161537 0.2264626 0.5683951 0.2138437 

0.0064960 0.1507798 0.3507264 -0.327976 
0.0136136 0.2448731 -0.449753 0.1293808 
-0.246125 0.3837339 0.1605998 -0.519749 
-0.159820 0.4077813 -0.493541 0.3714408 

-0.390646 0.3272203 -0.109368 -0.471784 
-0.220137 -0.098521 -0.185088 -0.420966 
-0.329999 0.5176422 0.1312701 -0.206072 
0.0261692 -0.070391 -0.165851 -0.394147 
----------------------------------------------
Generation: 89
0.0109206 -0.474925 -0.153578 -0.055198 
-0.250922 -0.030158 0.5486722 -0.013496 
-0.490237 0.2264626 0.5683951 0.2138437 

0.0064960 0.1507798 0.3507264 0.2305014 
0.0136136 0.2448731 -0.449753 -0.520043 
0.3832904 0.3837339 -0.239529 -0.519749 
-0.159820 0.4077813 -0.493541 0.3335434 

-0.390646 0.3272203 -0.109368 -0.262969 
-0.220137 -0.098521 -0.185088 -0.420966 
-0.449107 0.5176422 0.1312701 -0.280434 
-0.341345 -0.070391 -0.165851 -0.394147 
----------------------------------------------
0.0109206 -0.474925 -0.153578 -0.321233 
-0.297287 -0.030158 0.0792177 -0.013496 
-0.401357 -0.195199 -0.301597 -0.508268 

-0.006805 0.1507798 0.1386959 -0.327976 
-0.184831 0.2448731 -0.449753 0.1293808 
0.2314311 0.0746428 0.4096728 -0.519749 
0.4425997 0.3714628 -0.087129 -0.180159 

-0.390646 0.3272203 -0.318299 -0.471784 
-0.220137 -0.098521 0.3769734 -0.420966 
-0.431274 0.5176422 0.1312701 0.1355659 
-0.439503 -0.070391 -0.165851 -0.394147 
----------------------------------------------
Generation: 90
0.0109206 -0.474925 -0.153578 0.5692998 
-0.297287 0.5350214 0.5486722 0.2487929 
0.0161537 0.0046301 0.5683951 -0.193877 

-0.006805 0.1507798 0.3507264 0.2305014 
-0.192985 0.2448731 -0.449753 0.1293808 
-0.217055 0.3837339 0.5238260 -0.519749 
-0.159820 -0.387722 -0.087129 0.3335434 

-0.390646 0.3272203 -0.109368 -0.471784 
-0.220137 -0.098521 -0.185088 -0.329044 
-0.086282 0.5176422 0.1312701 0.1355659 
-0.438039 -0.070391 -0.165851 -0.394147 
----------------------------------------------
0.0109206 -0.474925 -0.209887 0.5692998 
-0.097133 -0.348595 0.5486722 -0.013496 
0.0161537 -0.195199 0.2044023 0.2138437 

-0.006805 -0.521326 0.1386959 0.0959510 
-0.184831 0.2448731 -0.449753 0.1293808 
-0.246125 0.3837339 0.1605998 -0.519749 
0.4425997 0.3714628 0.3185370 0.3335434 

-0.390646 0.3272203 -0.318299 0.2628335 
-0.220137 -0.098521 -0.255876 -0.420966 
-0.431274 -0.342700 0.1312701 -0.206072 
0.0261692 -0.070391 -0.165851 -0.394147 
----------------------------------------------
Generation: 91
-0.072554 -0.474925 -0.153578 0.5692998 
-0.264219 0.5350214 0.5486722 -0.013496 
-0.164430 0.0046301 -0.301597 -0.508268 

-0.006805 0.1507798 0.4966995 0.0959510 
0.0136136 0.2448731 -0.449753 0.1293808 
-0.246125 0.3837339 0.1605998 -0.519749 
-0.159820 0.4077813 -0.493541 0.3714408 

-0.390646 0.3674987 -0.109368 -0.471784 
-0.220137 -0.098521 -0.185088 -0.420966 
-0.431274 0.5176422 0.1312701 -0.280434 
-0.341345 -0.070391 -0.237734 -0.394147 
----------------------------------------------
0.0109206 -0.474925 -0.153578 0.5692998 
-0.264219 -0.250347 0.5486722 -0.013496 
0.0161537 0.3489708 0.5683951 0.2138437 

-0.462653 -0.031147 0.3507264 0.0959510 
-0.184831 0.2448731 -0.449753 0.1293808 
-0.246125 -0.344271 -0.033381 -0.519749 
0.3000156 0.4077813 -0.493541 0.3714408 

-0.390646 0.3272203 -0.312508 0.2628335 
-0.220137 -0.098521 0.3769734 -0.420966 
-0.431274 0.5176422 0.1312701 0.1355659 
-0.439503 -0.070391 -0.165851 -0.394147 
----------------------------------------------
Generation: 92
0.0109206 -0.474925 -0.153578 0.0508726 
-0.264219 0.5350214 -0.420412 -0.013496 
0.0161537 0.2264626 0.5683951 0.2138437 

-0.462653 -0.031147 0.3507264 -0.327976 
-0.184831 0.2448731 -0.449753 0.1293808 
-0.246125 0.3837339 -0.384197 -0.519749 
-0.159820 0.3714628 -0.493541 0.5574561 

0.4765094 0.3272203 0.0024231 0.2628335 
-0.220137 -0.536488 -0.255876 -0.329044 
-0.431274 0.5176422 0.3529200 0.1355659 
-0.439503 -0.070391 -0.165851 -0.394147 
----------------------------------------------
-0.072554 0.3844466 -0.153578 -0.055198 
-0.250922 -0.348595 0.5486722 -0.013496 
-0.490237 0.2264626 0.5683951 -0.193877 

-0.006805 0.1507798 0.1386959 -0.327976 
-0.184831 -0.438957 -0.449753 0.1293808 
-0.246125 -0.344271 0.1605998 -0.528898 
-0.159820 0.4633236 -0.493541 0.5574561 

0.4765094 0.3272203 0.0024231 0.2628335 
-0.220137 -0.536488 -0.255876 -0.329044 
-0.431274 0.5176422 -0.440114 0.1355659 
-0.341345 -0.070391 -0.165851 -0.394147 
----------------------------------------------
Generation: 93
0.0109206 -0.474925 -0.153578 0.0508726 
-0.264219 0.5350214 -0.420412 -0.013496 
0.0161537 0.2264626 0.5683951 0.2138437 

-0.462653 0.1507798 0.3507264 -0.327976 
-0.184831 0.2448731 -0.449753 0.4352881 
0.1901862 -0.344271 0.1605998 -0.528898 
-0.280694 0.3758471 0.2251669 0.3714408 

-0.390646 -0.091725 -0.109368 -0.471784 
-0.107239 -0.098521 -0.185088 -0.576266 
-0.431274 0.5176422 -0.440114 0.1355659 
-0.341345 -0.070391 -0.237734 -0.394147 
----------------------------------------------
0.0109206 -0.474925 -0.153578 0.5692998 
-0.297287 -0.348595 0.5486722 0.2487929 
0.0161537 0.0046301 0.5683951 -0.193877 

-0.006805 0.1507798 0.3507264 0.2305014 
-0.192985 0.2448731 -0.449753 0.1293808 
0.3832904 0.3837339 -0.239529 -0.519749 
-0.159820 0.4077813 -0.493541 0.3335434 

-0.390646 0.3272203 -0.109368 -0.262969 
-0.220137 -0.098521 -0.185088 -0.329044 
-0.086282 0.5176422 0.1312701 0.1355659 
-0.438039 -0.070391 -0.165851 -0.394147 
----------------------------------------------
Generation: 94
0.0109206 -0.474925 -0.105334 0.0508726 
-0.264219 -0.348595 0.5486722 0.1532850 
-0.490237 0.2264626 0.5683951 0.2138437 

-0.462653 -0.031147 0.3507264 0.0959510 
0.0136136 0.2448731 -0.449753 0.1293808 
-0.217055 0.3837339 0.4096728 -0.519749 
0.4425997 0.4077813 -0.493541 0.3714408 

-0.390646 0.3272203 -0.109368 -0.471784 
-0.220137 -0.098521 -0.290155 -0.420966 
0.3960566 0.5176422 0.1312701 -0.206072 
0.0261692 -0.070391 -0.237734 -0.394147 
----------------------------------------------
0.0109206 -0.474925 -0.153578 0.0508726 
-0.264219 0.5350214 -0.420412 -0.013496 
0.0161537 0.2264626 0.5683951 0.2138437 

-0.462653 -0.031147 0.3507264 -0.327976 
-0.184831 0.2448731 -0.449753 0.1293808 
0.3832904 -0.344271 -0.384197 -0.519749 
-0.159820 0.4077813 0.2251669 0.3714408 

0.0271927 0.3272203 0.0650451 -0.262969 
-0.251998 -0.098521 -0.185088 -0.420966 
-0.431274 0.5176422 0.1312701 0.1355659 
0.0261692 -0.070391 -0.165851 -0.394147 
----------------------------------------------
Generation: 95
-0.072554 -0.474925 -0.153578 0.2497509 
-0.250922 -0.348595 0.5486722 0.1532850 
-0.490237 0.2264626 0.5683951 0.2138437 

-0.462653 -0.031147 0.1386959 -0.327976 
-0.184831 0.2448731 -0.449753 0.1293808 
0.2314311 0.0746428 0.4096728 -0.519749 
0.4425997 0.4077813 -0.458107 0.3714408 

-0.390646 0.3272203 -0.109368 -0.471784 
-0.220137 -0.098521 -0.290155 -0.420966 
0.5438280 0.5176422 0.1312701 0.1355659 
-0.341345 -0.070391 -0.165851 0.0412505 
----------------------------------------------
0.0109206 -0.474925 -0.153578 -0.055198 
-0.297287 -0.348595 0.5486722 0.2487929 
0.0262448 0.2264626 0.5683951 -0.193877 

-0.006805 0.1507798 0.1386959 -0.327976 
-0.359165 0.2448731 -0.449753 0.1293808 
-0.246125 0.3837339 -0.384197 -0.519749 
0.4425997 0.4077813 -0.458107 -0.159792 

-0.390646 0.3272203 -0.109368 -0.471784 
-0.220137 -0.098521 -0.290155 -0.420966 
-0.431274 -0.342700 0.1312701 -0.206072 
0.0261692 -0.070391 -0.237734 -0.394147 
----------------------------------------------
Generation: 96
0.3179076 -0.474925 -0.153578 0.0508726 
-0.264219 0.5350214 -0.420412 -0.013496 
-0.164430 0.0046301 0.5683951 -0.193877 

-0.006805 0.1507798 0.3507264 0.2305014 
-0.192985 0.2448731 -0.449753 0.1293808 
-0.246125 -0.285188 0.1605998 -0.528898 
0.4425997 0.4077813 -0.458107 0.3714408 

-0.390646 -0.091725 -0.109368 -0.055706 
-0.220137 0.1502384 -0.290155 -0.420966 
-0.431274 0.5176422 -0.440114 0.1355659 
-0.341345 -0.070391 -0.237734 -0.188454 
----------------------------------------------
-0.072554 -0.474925 -0.153578 -0.055198 
-0.264219 0.5350214 0.5486722 -0.013496 
0.0161537 0.2264626 0.5683951 0.2138437 

-0.462653 0.1507798 0.3507264 -0.327976 
-0.184831 0.2448731 -0.449753 0.4352881 
0.1901862 0.3837339 0.1605998 -0.519749 
-0.159820 0.4077813 -0.458107 0.3714408 

-0.390646 -0.091725 -0.109368 -0.055706 
-0.220137 0.1502384 -0.290155 -0.420966 
-0.431274 0.5176422 -0.440114 0.1355659 
-0.341345 -0.070391 -0.165851 -0.394147 
----------------------------------------------
Generation: 97
-0.072554 0.3844466 -0.153578 -0.055198 
-0.297287 -0.348595 0.5486722 0.2487929 
-0.490237 0.2264626 0.5683951 0.2138437 

-0.462653 -0.031147 0.1386959 -0.327976 
-0.184831 0.2448731 -0.449753 0.1293808 
-0.246125 -0.344271 0.1605998 -0.528898 
-0.280694 0.3758471 0.2251669 0.3714408 

-0.390646 -0.091725 -0.109368 -0.293214 
-0.107239 -0.098521 -0.185088 -0.329044 
-0.431274 0.5176422 0.1312701 -0.280434 
-0.341345 -0.070391 -0.237734 -0.394147 
----------------------------------------------
-0.072554 0.3844466 0.3288318 -0.055198 
-0.264219 0.5350214 0.5486722 -0.013496 
0.0161537 0.2264626 0.5683951 -0.193877 

-0.006805 0.1507798 0.4966995 0.0959510 
0.0136136 0.2448731 -0.449753 0.1293808 
-0.246125 -0.344271 0.1605998 -0.528898 
-0.280694 0.3758471 0.2251669 0.3714408 

-0.390646 -0.091725 -0.109368 -0.293214 
-0.107239 -0.098521 -0.185088 -0.329044 
-0.431274 0.5176422 0.1312701 -0.280434 
-0.341345 -0.070391 -0.237734 -0.394147 
----------------------------------------------
Generation: 98
-0.072554 0.3844466 -0.153578 -0.055198 
-0.489091 0.5350214 0.5486722 0.1532850 
0.0161537 0.2264626 0.5683951 -0.193877 

-0.006805 -0.031147 0.1386959 -0.327976 
-0.184831 0.2448731 -0.449753 -0.520043 
0.3832904 -0.344271 -0.384197 -0.519749 
-0.159820 0.2298068 0.2251669 0.3714408 

0.0271927 0.0921956 -0.109368 -0.262969 
-0.251998 -0.098521 -0.185088 -0.239930 
-0.147479 0.5176422 -0.440114 -0.280434 
-0.341345 -0.070391 -0.165851 -0.394147 
----------------------------------------------
0.3179076 -0.474925 -0.154946 -0.055198 
-0.297287 -0.348595 0.5486722 0.2487929 
0.0161537 0.2264626 0.5683951 -0.398777 

-0.462653 0.1507798 0.3507264 0.2305014 
-0.192985 -0.395089 -0.449753 0.1293808 
0.1901862 -0.344271 0.1605998 -0.528898 
-0.280694 0.3758471 0.2251669 0.3714408 

-0.390646 -0.091725 -0.109368 -0.471784 
-0.220137 -0.098521 -0.290155 -0.420966 
-0.431274 0.0063009 -0.440114 0.1355659 
-0.341345 -0.009231 -0.237734 -0.188454 
----------------------------------------------
Generation: 99
-0.072554 -0.474925 -0.153578 0.5692998 
-0.297287 -0.030158 0.5486722 0.2488769 
0.0161537 0.2264626 0.5683951 0.2138437 

-0.462653 -0.031147 0.1386959 -0.327976 
-0.184831 0.2448731 -0.449753 0.1293808 
-0.246125 0.3837339 -0.384197 -0.519749 
-0.159820 0.4077813 -0.458107 0.3714408 

-0.390646 0.3272203 -0.109368 -0.471784 
-0.220137 -0.098521 0.3769734 -0.420966 
-0.431274 0.5176422 -0.169447 0.1355659 
-0.439503 -0.070391 -0.165851 -0.394147 
----------------------------------------------
