Generation: 1
-0.370666 -0.116695 0.3850378 -0.075054 
0.3569878 0.1662860 0.4385751 -0.501639 
0.1079906 -0.152617 -0.392094 0.0340669 

-0.346093 0.5531776 0.5313938 -0.190495 
-0.022052 -0.192595 0.0362271 -0.574578 
0.2756531 0.3312275 0.0351004 0.4424851 
0.4944040 -0.250052 -0.283857 0.4090399 

0.0976738 -0.198738 -0.334144 0.3755120 
0.1856214 0.1402483 0.5124929 -0.493257 
-0.464909 0.5552463 0.4842033 -0.312798 
0.1205723 0.5035128 -0.492864 0.0167010 
----------------------------------------------
0.1773050 -0.461305 -0.460611 -0.320020 
-0.155335 0.1661101 -0.559733 -0.207927 
0.0968392 0.1063781 -0.404780 0.1418912 

-0.428780 -0.382039 -0.049458 -0.113888 
-0.555670 0.3876154 -0.273923 -0.413308 
-0.503116 0.0932127 -0.362459 0.4873913 
-0.256493 -0.266124 0.3801839 0.5577885 

0.3207891 -0.221916 -0.085634 0.3771840 
0.3345152 0.1998791 -0.513682 -0.314114 
0.2102428 0.1617979 -0.147741 0.2675067 
-0.408393 0.2648798 0.1141448 -0.324244 
----------------------------------------------
Generation: 2
-0.364461 0.2288353 0.2712944 -0.062533 
-0.384909 0.0390771 0.2319267 -0.491896 
0.5155125 -0.478265 0.4026928 0.4943022 

-0.438740 0.5429933 -0.025710 0.3787272 
0.3867949 0.2620577 0.0639042 0.3969013 
-0.351628 0.1458821 0.4324428 -0.576840 
-0.294551 0.0379822 0.2858825 -0.404338 

0.1725929 -0.349624 -0.348716 -0.266379 
-0.449688 -0.388547 -0.415426 -0.369355 
-0.212889 0.0764203 0.1432091 -0.241213 
0.1586226 -0.454673 -0.459687 0.3906133 
----------------------------------------------
0.5536691 0.2917044 0.4952522 0.0114176 
0.0669937 -0.503029 -0.260063 0.0352440 
-0.535852 -0.087514 0.3761046 -0.310966 

0.1688652 -0.403787 0.0836332 -0.153138 
-0.049142 -0.141624 0.0611471 -0.324545 
-0.330186 -0.292319 0.1421170 0.3545083 
-0.281556 -0.066014 0.3939691 -0.096076 

-0.299152 0.2779158 -0.131969 -0.464646 
0.1791932 0.3382843 0.2657350 0.2629215 
0.2875992 -0.125135 -0.351288 -0.399300 
-0.011334 0.3870321 0.3360929 0.0320272 
----------------------------------------------
